{"learner":{"attributes":{"best_iteration":"999","best_score":"171848.8204168392","scikit_learn":"{\"_estimator_type\": \"regressor\"}"},"feature_names":["Store","Holiday_Flag","Temperature","Fuel_Price","CPI","Unemployment","hour","DayOfWeek","week","month","quarter","year","DayOfYear","Lag1","Lag2","Lag3"],"feature_types":["int","int","float","float","float","float","int","int","int","int","int","int","int","float","float","float"],"gradient_booster":{"model":{"gbtree_model_param":{"num_parallel_tree":"1","num_trees":"1000"},"iteration_indptr":[0,1,2,3,4,5,6,7,8,9,10,11,12,13,14,15,16,17,18,19,20,21,22,23,24,25,26,27,28,29,30,31,32,33,34,35,36,37,38,39,40,41,42,43,44,45,46,47,48,49,50,51,52,53,54,55,56,57,58,59,60,61,62,63,64,65,66,67,68,69,70,71,72,73,74,75,76,77,78,79,80,81,82,83,84,85,86,87,88,89,90,91,92,93,94,95,96,97,98,99,100,101,102,103,104,105,106,107,108,109,110,111,112,113,114,115,116,117,118,119,120,121,122,123,124,125,126,127,128,129,130,131,132,133,134,135,136,137,138,139,140,141,142,143,144,145,146,147,148,149,150,151,152,153,154,155,156,157,158,159,160,161,162,163,164,165,166,167,168,169,170,171,172,173,174,175,176,177,178,179,180,181,182,183,184,185,186,187,188,189,190,191,192,193,194,195,196,197,198,199,200,201,202,203,204,205,206,207,208,209,210,211,212,213,214,215,216,217,218,219,220,221,222,223,224,225,226,227,228,229,230,231,232,233,234,235,236,237,238,239,240,241,242,243,244,245,246,247,248,249,250,251,252,253,254,255,256,257,258,259,260,261,262,263,264,265,266,267,268,269,270,271,272,273,274,275,276,277,278,279,280,281,282,283,284,285,286,287,288,289,290,291,292,293,294,295,296,297,298,299,300,301,302,303,304,305,306,307,308,309,310,311,312,313,314,315,316,317,318,319,320,321,322,323,324,325,326,327,328,329,330,331,332,333,334,335,336,337,338,339,340,341,342,343,344,345,346,347,348,349,350,351,352,353,354,355,356,357,358,359,360,361,362,363,364,365,366,367,368,369,370,371,372,373,374,375,376,377,378,379,380,381,382,383,384,385,386,387,388,389,390,391,392,393,394,395,396,397,398,399,400,401,402,403,404,405,406,407,408,409,410,411,412,413,414,415,416,417,418,419,420,421,422,423,424,425,426,427,428,429,430,431,432,433,434,435,436,437,438,439,440,441,442,443,444,445,446,447,448,449,450,451,452,453,454,455,456,457,458,459,460,461,462,463,464,465,466,467,468,469,470,471,472,473,474,475,476,477,478,479,480,481,482,483,484,485,486,487,488,489,490,491,492,493,494,495,496,497,498,499,500,501,502,503,504,505,506,507,508,509,510,511,512,513,514,515,516,517,518,519,520,521,522,523,524,525,526,527,528,529,530,531,532,533,534,535,536,537,538,539,540,541,542,543,544,545,546,547,548,549,550,551,552,553,554,555,556,557,558,559,560,561,562,563,564,565,566,567,568,569,570,571,572,573,574,575,576,577,578,579,580,581,582,583,584,585,586,587,588,589,590,591,592,593,594,595,596,597,598,599,600,601,602,603,604,605,606,607,608,609,610,611,612,613,614,615,616,617,618,619,620,621,622,623,624,625,626,627,628,629,630,631,632,633,634,635,636,637,638,639,640,641,642,643,644,645,646,647,648,649,650,651,652,653,654,655,656,657,658,659,660,661,662,663,664,665,666,667,668,669,670,671,672,673,674,675,676,677,678,679,680,681,682,683,684,685,686,687,688,689,690,691,692,693,694,695,696,697,698,699,700,701,702,703,704,705,706,707,708,709,710,711,712,713,714,715,716,717,718,719,720,721,722,723,724,725,726,727,728,729,730,731,732,733,734,735,736,737,738,739,740,741,742,743,744,745,746,747,748,749,750,751,752,753,754,755,756,757,758,759,760,761,762,763,764,765,766,767,768,769,770,771,772,773,774,775,776,777,778,779,780,781,782,783,784,785,786,787,788,789,790,791,792,793,794,795,796,797,798,799,800,801,802,803,804,805,806,807,808,809,810,811,812,813,814,815,816,817,818,819,820,821,822,823,824,825,826,827,828,829,830,831,832,833,834,835,836,837,838,839,840,841,842,843,844,845,846,847,848,849,850,851,852,853,854,855,856,857,858,859,860,861,862,863,864,865,866,867,868,869,870,871,872,873,874,875,876,877,878,879,880,881,882,883,884,885,886,887,888,889,890,891,892,893,894,895,896,897,898,899,900,901,902,903,904,905,906,907,908,909,910,911,912,913,914,915,916,917,918,919,920,921,922,923,924,925,926,927,928,929,930,931,932,933,934,935,936,937,938,939,940,941,942,943,944,945,946,947,948,949,950,951,952,953,954,955,956,957,958,959,960,961,962,963,964,965,966,967,968,969,970,971,972,973,974,975,976,977,978,979,980,981,982,983,984,985,986,987,988,989,990,991,992,993,994,995,996,997,998,999,1000],"tree_info":[0,0,0,0,0,0,0,0,0,0,0,0,0,0,0,0,0,0,0,0,0,0,0,0,0,0,0,0,0,0,0,0,0,0,0,0,0,0,0,0,0,0,0,0,0,0,0,0,0,0,0,0,0,0,0,0,0,0,0,0,0,0,0,0,0,0,0,0,0,0,0,0,0,0,0,0,0,0,0,0,0,0,0,0,0,0,0,0,0,0,0,0,0,0,0,0,0,0,0,0,0,0,0,0,0,0,0,0,0,0,0,0,0,0,0,0,0,0,0,0,0,0,0,0,0,0,0,0,0,0,0,0,0,0,0,0,0,0,0,0,0,0,0,0,0,0,0,0,0,0,0,0,0,0,0,0,0,0,0,0,0,0,0,0,0,0,0,0,0,0,0,0,0,0,0,0,0,0,0,0,0,0,0,0,0,0,0,0,0,0,0,0,0,0,0,0,0,0,0,0,0,0,0,0,0,0,0,0,0,0,0,0,0,0,0,0,0,0,0,0,0,0,0,0,0,0,0,0,0,0,0,0,0,0,0,0,0,0,0,0,0,0,0,0,0,0,0,0,0,0,0,0,0,0,0,0,0,0,0,0,0,0,0,0,0,0,0,0,0,0,0,0,0,0,0,0,0,0,0,0,0,0,0,0,0,0,0,0,0,0,0,0,0,0,0,0,0,0,0,0,0,0,0,0,0,0,0,0,0,0,0,0,0,0,0,0,0,0,0,0,0,0,0,0,0,0,0,0,0,0,0,0,0,0,0,0,0,0,0,0,0,0,0,0,0,0,0,0,0,0,0,0,0,0,0,0,0,0,0,0,0,0,0,0,0,0,0,0,0,0,0,0,0,0,0,0,0,0,0,0,0,0,0,0,0,0,0,0,0,0,0,0,0,0,0,0,0,0,0,0,0,0,0,0,0,0,0,0,0,0,0,0,0,0,0,0,0,0,0,0,0,0,0,0,0,0,0,0,0,0,0,0,0,0,0,0,0,0,0,0,0,0,0,0,0,0,0,0,0,0,0,0,0,0,0,0,0,0,0,0,0,0,0,0,0,0,0,0,0,0,0,0,0,0,0,0,0,0,0,0,0,0,0,0,0,0,0,0,0,0,0,0,0,0,0,0,0,0,0,0,0,0,0,0,0,0,0,0,0,0,0,0,0,0,0,0,0,0,0,0,0,0,0,0,0,0,0,0,0,0,0,0,0,0,0,0,0,0,0,0,0,0,0,0,0,0,0,0,0,0,0,0,0,0,0,0,0,0,0,0,0,0,0,0,0,0,0,0,0,0,0,0,0,0,0,0,0,0,0,0,0,0,0,0,0,0,0,0,0,0,0,0,0,0,0,0,0,0,0,0,0,0,0,0,0,0,0,0,0,0,0,0,0,0,0,0,0,0,0,0,0,0,0,0,0,0,0,0,0,0,0,0,0,0,0,0,0,0,0,0,0,0,0,0,0,0,0,0,0,0,0,0,0,0,0,0,0,0,0,0,0,0,0,0,0,0,0,0,0,0,0,0,0,0,0,0,0,0,0,0,0,0,0,0,0,0,0,0,0,0,0,0,0,0,0,0,0,0,0,0,0,0,0,0,0,0,0,0,0,0,0,0,0,0,0,0,0,0,0,0,0,0,0,0,0,0,0,0,0,0,0,0,0,0,0,0,0,0,0,0,0,0,0,0,0,0,0,0,0,0,0,0,0,0,0,0,0,0,0,0,0,0,0,0,0,0,0,0,0,0,0,0,0,0,0,0,0,0,0,0,0,0,0,0,0,0,0,0,0,0,0,0,0,0,0,0,0,0,0,0,0,0,0,0,0,0,0,0,0,0,0,0,0,0,0,0,0,0,0,0,0,0,0,0,0,0,0,0,0,0,0,0,0,0,0,0,0,0,0,0,0,0,0,0,0,0,0,0,0,0,0,0,0,0,0,0,0,0,0,0,0,0,0,0,0,0,0,0,0,0,0,0,0,0,0,0,0,0,0,0,0,0,0,0,0,0,0,0,0,0,0,0,0,0,0,0,0,0,0,0,0,0,0,0,0,0,0,0,0,0,0,0,0,0,0,0,0,0,0,0,0,0,0,0,0,0,0,0,0,0,0,0,0,0,0,0,0,0,0,0,0,0,0,0,0,0,0,0,0,0,0,0,0,0,0,0,0,0,0,0,0,0,0,0,0,0,0,0,0,0,0,0,0,0,0,0,0,0,0,0,0,0,0,0,0,0,0,0,0,0,0,0,0,0,0,0,0,0,0,0],"trees":[{"base_weights":[1.0325535E6,1.2001712E6,7.592188E5,1.3639809E6,1.0169797E6,4.9260394E5,8.6952706E5,1.7509717E4,1.1847123E4,1.713959E4,8.930865E3,3.740604E3,6.313056E3,4.886956E3,9.45145E3],"categories":[],"categories_nodes":[],"categories_segments":[],"categories_sizes":[],"default_left":[0,0,0,0,0,0,0,0,0,0,0,0,0,0,0],"id":0,"left_children":[1,3,5,7,9,11,13,-1,-1,-1,-1,-1,-1,-1,-1],"loss_changes":[2.6633146E14,1.0706387E14,6.486139E13,1.3008543E14,1.4612942E14,1.0484149E13,4.472175E13,0E0,0E0,0E0,0E0,0E0,0E0,0E0,0E0],"parents":[2147483647,0,0,1,1,2,2,3,3,4,4,5,5,6,6],"right_children":[2,4,6,8,10,12,14,-1,-1,-1,-1,-1,-1,-1,-1],"split_conditions":[2.9E1,1.8941853E2,1.3152791E2,1.5E1,3E0,9.521E0,3.1E1,1.7509717E4,1.1847123E4,1.713959E4,8.930865E3,3.740604E3,6.313056E3,4.886956E3,9.45145E3],"split_indices":[0,4,4,0,0,5,0,0,0,0,0,0,0,0,0],"split_type":[0,0,0,0,0,0,0,0,0,0,0,0,0,0,0],"sum_hessian":[5.832E3,3.613E3,2.219E3,1.904E3,1.709E3,6.51E2,1.568E3,6E2,1.304E3,2.56E2,1.453E3,3.53E2,2.98E2,2.61E2,1.307E3],"tree_param":{"num_deleted":"0","num_feature":"16","num_nodes":"15","size_leaf_vector":"1"}},{"base_weights":[1.0222416E6,1.1881849E6,7.5163756E5,1.3503565E6,1.0068251E6,4.876933E5,8.608409E5,1.733491E4,1.1728743E4,1.6968861E4,8.841618E3,3.7033037E3,6.2501367E3,4.8382725E3,9.357008E3],"categories":[],"categories_nodes":[],"categories_segments":[],"categories_sizes":[],"default_left":[0,0,0,0,0,0,0,0,0,0,0,0,0,0,0],"id":1,"left_children":[1,3,5,7,9,11,13,-1,-1,-1,-1,-1,-1,-1,-1],"loss_changes":[2.6103737E14,1.0493303E14,6.356847E13,1.2750577E14,1.4324293E14,1.027638E13,4.3829604E13,0E0,0E0,0E0,0E0,0E0,0E0,0E0,0E0],"parents":[2147483647,0,0,1,1,2,2,3,3,4,4,5,5,6,6],"right_children":[2,4,6,8,10,12,14,-1,-1,-1,-1,-1,-1,-1,-1],"split_conditions":[2.9E1,1.8941853E2,1.3152791E2,1.5E1,3E0,9.521E0,3.1E1,1.733491E4,1.1728743E4,1.6968861E4,8.841618E3,3.7033037E3,6.2501367E3,4.8382725E3,9.357008E3],"split_indices":[0,4,4,0,0,5,0,0,0,0,0,0,0,0,0],"split_type":[0,0,0,0,0,0,0,0,0,0,0,0,0,0,0],"sum_hessian":[5.832E3,3.613E3,2.219E3,1.904E3,1.709E3,6.51E2,1.568E3,6E2,1.304E3,2.56E2,1.453E3,3.53E2,2.98E2,2.61E2,1.307E3],"tree_param":{"num_deleted":"0","num_feature":"16","num_nodes":"15","size_leaf_vector":"1"}},{"base_weights":[1.0120328E6,1.1763182E6,7.4413206E5,1.3368682E6,9.9677194E5,4.8283166E5,8.5224156E5,1.7161852E4,1.1611546E4,1.6799832E4,8.753263E3,3.6663752E3,6.187844E3,4.7900747E3,9.263509E3],"categories":[],"categories_nodes":[],"categories_segments":[],"categories_sizes":[],"default_left":[0,0,0,0,0,0,0,0,0,0,0,0,0,0,0],"id":2,"left_children":[1,3,5,7,9,11,13,-1,-1,-1,-1,-1,-1,-1,-1],"loss_changes":[2.5584798E14,1.0284514E14,6.2301185E13,1.2497764E14,1.4041349E14,1.0072722E13,4.295504E13,0E0,0E0,0E0,0E0,0E0,0E0,0E0,0E0],"parents":[2147483647,0,0,1,1,2,2,3,3,4,4,5,5,6,6],"right_children":[2,4,6,8,10,12,14,-1,-1,-1,-1,-1,-1,-1,-1],"split_conditions":[2.9E1,1.8941853E2,1.3152791E2,1.5E1,3E0,9.521E0,3.1E1,1.7161852E4,1.1611546E4,1.6799832E4,8.753263E3,3.6663752E3,6.187844E3,4.7900747E3,9.263509E3],"split_indices":[0,4,4,0,0,5,0,0,0,0,0,0,0,0,0],"split_type":[0,0,0,0,0,0,0,0,0,0,0,0,0,0,0],"sum_hessian":[5.832E3,3.613E3,2.219E3,1.904E3,1.709E3,6.51E2,1.568E3,6E2,1.304E3,2.56E2,1.453E3,3.53E2,2.98E2,2.61E2,1.307E3],"tree_param":{"num_deleted":"0","num_feature":"16","num_nodes":"15","size_leaf_vector":"1"}},{"base_weights":[1.0019259E6,1.1645701E6,7.367015E5,1.3235146E6,9.868192E5,4.7801844E5,8.4372806E5,1.6990518E4,1.149552E4,1.6632488E4,8.66579E3,3.629815E3,6.1261724E3,4.742357E3,9.170944E3],"categories":[],"categories_nodes":[],"categories_segments":[],"categories_sizes":[],"default_left":[0,0,0,0,0,0,0,0,0,0,0,0,0,0,0],"id":3,"left_children":[1,3,5,7,9,11,13,-1,-1,-1,-1,-1,-1,-1,-1],"loss_changes":[2.5076113E14,1.0079859E14,6.1059537E13,1.22499715E14,1.3763988E14,9.873106E12,4.2097994E13,0E0,0E0,0E0,0E0,0E0,0E0,0E0,0E0],"parents":[2147483647,0,0,1,1,2,2,3,3,4,4,5,5,6,6],"right_children":[2,4,6,8,10,12,14,-1,-1,-1,-1,-1,-1,-1,-1],"split_conditions":[2.9E1,1.8941853E2,1.3152791E2,1.5E1,3E0,9.521E0,3.1E1,1.6990518E4,1.149552E4,1.6632488E4,8.66579E3,3.629815E3,6.1261724E3,4.742357E3,9.170944E3],"split_indices":[0,4,4,0,0,5,0,0,0,0,0,0,0,0,0],"split_type":[0,0,0,0,0,0,0,0,0,0,0,0,0,0,0],"sum_hessian":[5.832E3,3.613E3,2.219E3,1.904E3,1.709E3,6.51E2,1.568E3,6E2,1.304E3,2.56E2,1.453E3,3.53E2,2.98E2,2.61E2,1.307E3],"tree_param":{"num_deleted":"0","num_feature":"16","num_nodes":"15","size_leaf_vector":"1"}},{"base_weights":[9.9191994E5,1.1529392E6,7.293452E5,1.3102945E6,9.769658E5,4.7325322E5,8.352997E5,1.6820895E4,1.1380652E4,1.646681E4,8.579191E3,3.5936196E3,6.065116E3,4.6951143E3,9.079306E3],"categories":[],"categories_nodes":[],"categories_segments":[],"categories_sizes":[],"default_left":[0,0,0,0,0,0,0,0,0,0,0,0,0,0,0],"id":4,"left_children":[1,3,5,7,9,11,13,-1,-1,-1,-1,-1,-1,-1,-1],"loss_changes":[2.4577575E14,9.879284E13,5.9842316E13,1.2007037E14,1.3492103E14,9.677434E12,4.1258194E13,0E0,0E0,0E0,0E0,0E0,0E0,0E0,0E0],"parents":[2147483647,0,0,1,1,2,2,3,3,4,4,5,5,6,6],"right_children":[2,4,6,8,10,12,14,-1,-1,-1,-1,-1,-1,-1,-1],"split_conditions":[2.9E1,1.8941853E2,1.3152791E2,1.5E1,3E0,9.521E0,3.1E1,1.6820895E4,1.1380652E4,1.646681E4,8.579191E3,3.5936196E3,6.065116E3,4.6951143E3,9.079306E3],"split_indices":[0,4,4,0,0,5,0,0,0,0,0,0,0,0,0],"split_type":[0,0,0,0,0,0,0,0,0,0,0,0,0,0,0],"sum_hessian":[5.832E3,3.613E3,2.219E3,1.904E3,1.709E3,6.51E2,1.568E3,6E2,1.304E3,2.56E2,1.453E3,3.53E2,2.98E2,2.61E2,1.307E3],"tree_param":{"num_deleted":"0","num_feature":"16","num_nodes":"15","size_leaf_vector":"1"}},{"base_weights":[9.820138E5,1.1414246E6,7.220623E5,1.2972062E6,9.6721075E5,4.685355E5,8.2695544E5,1.6652967E4,1.1266933E4,1.6302782E4,8.493459E3,3.557785E3,6.004668E3,4.6483423E3,8.988582E3],"categories":[],"categories_nodes":[],"categories_segments":[],"categories_sizes":[],"default_left":[0,0,0,0,0,0,0,0,0,0,0,0,0,0,0],"id":5,"left_children":[1,3,5,7,9,11,13,-1,-1,-1,-1,-1,-1,-1,-1],"loss_changes":[2.4089022E14,9.682682E13,5.864939E13,1.1768989E14,1.3225587E14,9.485637E12,4.0435104E13,0E0,0E0,0E0,0E0,0E0,0E0,0E0,0E0],"parents":[2147483647,0,0,1,1,2,2,3,3,4,4,5,5,6,6],"right_children":[2,4,6,8,10,12,14,-1,-1,-1,-1,-1,-1,-1,-1],"split_conditions":[2.9E1,1.8941853E2,1.3152791E2,1.5E1,3E0,9.521E0,3.1E1,1.6652967E4,1.1266933E4,1.6302782E4,8.493459E3,3.557785E3,6.004668E3,4.6483423E3,8.988582E3],"split_indices":[0,4,4,0,0,5,0,0,0,0,0,0,0,0,0],"split_type":[0,0,0,0,0,0,0,0,0,0,0,0,0,0,0],"sum_hessian":[5.832E3,3.613E3,2.219E3,1.904E3,1.709E3,6.51E2,1.568E3,6E2,1.304E3,2.56E2,1.453E3,3.53E2,2.98E2,2.61E2,1.307E3],"tree_param":{"num_deleted":"0","num_feature":"16","num_nodes":"15","size_leaf_vector":"1"}},{"base_weights":[9.7220675E5,1.130025E6,7.148521E5,1.2842489E6,9.575532E5,4.638648E5,8.186946E5,1.6486713E4,1.115435E4,1.614039E4,8.408582E3,3.5223074E3,5.944822E3,4.602036E3,8.898765E3],"categories":[],"categories_nodes":[],"categories_segments":[],"categories_sizes":[],"default_left":[0,0,0,0,0,0,0,0,0,0,0,0,0,0,0],"id":6,"left_children":[1,3,5,7,9,11,13,-1,-1,-1,-1,-1,-1,-1,-1],"loss_changes":[2.361008E14,9.489999E13,5.7480353E13,1.1535584E14,1.2964345E14,9.29764E12,3.962832E13,0E0,0E0,0E0,0E0,0E0,0E0,0E0,0E0],"parents":[2147483647,0,0,1,1,2,2,3,3,4,4,5,5,6,6],"right_children":[2,4,6,8,10,12,14,-1,-1,-1,-1,-1,-1,-1,-1],"split_conditions":[2.9E1,1.8941853E2,1.3152791E2,1.5E1,3E0,9.521E0,3.1E1,1.6486713E4,1.115435E4,1.614039E4,8.408582E3,3.5223074E3,5.944822E3,4.602036E3,8.898765E3],"split_indices":[0,4,4,0,0,5,0,0,0,0,0,0,0,0,0],"split_type":[0,0,0,0,0,0,0,0,0,0,0,0,0,0,0],"sum_hessian":[5.832E3,3.613E3,2.219E3,1.904E3,1.709E3,6.51E2,1.568E3,6E2,1.304E3,2.56E2,1.453E3,3.53E2,2.98E2,2.61E2,1.307E3],"tree_param":{"num_deleted":"0","num_feature":"16","num_nodes":"15","size_leaf_vector":"1"}},{"base_weights":[9.6249756E5,1.1187391E6,7.0771394E5,1.2714209E6,9.47992E5,4.592407E5,8.1051625E5,1.6322121E4,1.1042891E4,1.5979613E4,8.324555E3,3.487184E3,5.8855723E3,4.5561914E3,8.809846E3],"categories":[],"categories_nodes":[],"categories_segments":[],"categories_sizes":[],"default_left":[0,0,0,0,0,0,0,0,0,0,0,0,0,0,0],"id":7,"left_children":[1,3,5,7,9,11,13,-1,-1,-1,-1,-1,-1,-1,-1],"loss_changes":[2.3140747E14,9.3011275E13,5.633467E13,1.130685E14,1.2708258E14,9.113384E12,3.8837644E13,0E0,0E0,0E0,0E0,0E0,0E0,0E0,0E0],"parents":[2147483647,0,0,1,1,2,2,3,3,4,4,5,5,6,6],"right_children":[2,4,6,8,10,12,14,-1,-1,-1,-1,-1,-1,-1,-1],"split_conditions":[2.9E1,1.8941853E2,1.3152791E2,1.5E1,3E0,9.521E0,3.1E1,1.6322121E4,1.1042891E4,1.5979613E4,8.324555E3,3.487184E3,5.8855723E3,4.5561914E3,8.809846E3],"split_indices":[0,4,4,0,0,5,0,0,0,0,0,0,0,0,0],"split_type":[0,0,0,0,0,0,0,0,0,0,0,0,0,0,0],"sum_hessian":[5.832E3,3.613E3,2.219E3,1.904E3,1.709E3,6.51E2,1.568E3,6E2,1.304E3,2.56E2,1.453E3,3.53E2,2.98E2,2.61E2,1.307E3],"tree_param":{"num_deleted":"0","num_feature":"16","num_nodes":"15","size_leaf_vector":"1"}},{"base_weights":[9.528853E5,1.107566E6,7.0064706E5,1.2587211E6,9.385263E5,4.5466266E5,8.024196E5,1.6159171E4,1.0932547E4,1.5820439E4,8.241366E3,3.4524106E3,5.8269136E3,4.5108037E3,8.721814E3],"categories":[],"categories_nodes":[],"categories_segments":[],"categories_sizes":[],"default_left":[0,0,0,0,0,0,0,0,0,0,0,0,0,0,0],"id":8,"left_children":[1,3,5,7,9,11,13,-1,-1,-1,-1,-1,-1,-1,-1],"loss_changes":[2.2680702E14,9.116041E13,5.5211603E13,1.1082626E14,1.24572305E14,8.932769E12,3.8062873E13,0E0,0E0,0E0,0E0,0E0,0E0,0E0,0E0],"parents":[2147483647,0,0,1,1,2,2,3,3,4,4,5,5,6,6],"right_children":[2,4,6,8,10,12,14,-1,-1,-1,-1,-1,-1,-1,-1],"split_conditions":[2.9E1,1.8941853E2,1.3152791E2,1.5E1,3E0,9.521E0,3.1E1,1.6159171E4,1.0932547E4,1.5820439E4,8.241366E3,3.4524106E3,5.8269136E3,4.5108037E3,8.721814E3],"split_indices":[0,4,4,0,0,5,0,0,0,0,0,0,0,0,0],"split_type":[0,0,0,0,0,0,0,0,0,0,0,0,0,0,0],"sum_hessian":[5.832E3,3.613E3,2.219E3,1.904E3,1.709E3,6.51E2,1.568E3,6E2,1.304E3,2.56E2,1.453E3,3.53E2,2.98E2,2.61E2,1.307E3],"tree_param":{"num_deleted":"0","num_feature":"16","num_nodes":"15","size_leaf_vector":"1"}},{"base_weights":[9.433691E5,1.0965045E6,6.936507E5,1.2461481E6,9.291551E5,4.5013025E5,7.944039E5,1.5997849E4,1.0823306E4,1.5662851E4,8.1590093E3,3.417984E3,5.7688394E3,4.4658677E3,8.634663E3],"categories":[],"categories_nodes":[],"categories_segments":[],"categories_sizes":[],"default_left":[0,0,0,0,0,0,0,0,0,0,0,0,0,0,0],"id":9,"left_children":[1,3,5,7,9,11,13,-1,-1,-1,-1,-1,-1,-1,-1],"loss_changes":[2.2229784E14,8.934686E13,5.4111152E13,1.0862858E14,1.2211169E14,8.755727E12,3.7303334E13,0E0,0E0,0E0,0E0,0E0,0E0,0E0,0E0],"parents":[2147483647,0,0,1,1,2,2,3,3,4,4,5,5,6,6],"right_children":[2,4,6,8,10,12,14,-1,-1,-1,-1,-1,-1,-1,-1],"split_conditions":[2.9E1,1.8941853E2,1.3152791E2,1.5E1,3E0,9.521E0,3.1E1,1.5997849E4,1.0823306E4,1.5662851E4,8.1590093E3,3.417984E3,5.7688394E3,4.4658677E3,8.634663E3],"split_indices":[0,4,4,0,0,5,0,0,0,0,0,0,0,0,0],"split_type":[0,0,0,0,0,0,0,0,0,0,0,0,0,0,0],"sum_hessian":[5.832E3,3.613E3,2.219E3,1.904E3,1.709E3,6.51E2,1.568E3,6E2,1.304E3,2.56E2,1.453E3,3.53E2,2.98E2,2.61E2,1.307E3],"tree_param":{"num_deleted":"0","num_feature":"16","num_nodes":"15","size_leaf_vector":"1"}},{"base_weights":[9.339479E5,1.0855535E6,6.8672425E5,1.2337006E6,9.198775E5,4.4564306E5,7.864682E5,1.5838136E4,1.0715156E4,1.5506832E4,8.0774756E3,3.383901E3,5.7113438E3,4.4213794E3,8.548382E3],"categories":[],"categories_nodes":[],"categories_segments":[],"categories_sizes":[],"default_left":[0,0,0,0,0,0,0,0,0,0,0,0,0,0,0],"id":10,"left_children":[1,3,5,7,9,11,13,-1,-1,-1,-1,-1,-1,-1,-1],"loss_changes":[2.1787832E14,8.756875E13,5.303258E13,1.06474655E14,1.196994E14,8.5822003E12,3.65593E13,0E0,0E0,0E0,0E0,0E0,0E0,0E0,0E0],"parents":[2147483647,0,0,1,1,2,2,3,3,4,4,5,5,6,6],"right_children":[2,4,6,8,10,12,14,-1,-1,-1,-1,-1,-1,-1,-1],"split_conditions":[2.9E1,1.8941853E2,1.3152791E2,1.5E1,3E0,9.521E0,3.1E1,1.5838136E4,1.0715156E4,1.5506832E4,8.0774756E3,3.383901E3,5.7113438E3,4.4213794E3,8.548382E3],"split_indices":[0,4,4,0,0,5,0,0,0,0,0,0,0,0,0],"split_type":[0,0,0,0,0,0,0,0,0,0,0,0,0,0,0],"sum_hessian":[5.832E3,3.613E3,2.219E3,1.904E3,1.709E3,6.51E2,1.568E3,6E2,1.304E3,2.56E2,1.453E3,3.53E2,2.98E2,2.61E2,1.307E3],"tree_param":{"num_deleted":"0","num_feature":"16","num_nodes":"15","size_leaf_vector":"1"}},{"base_weights":[9.246208E5,1.0747119E6,6.7986694E5,1.2213776E6,9.106925E5,4.4120056E5,7.7861175E5,1.5680019E4,1.0608086E4,1.5352366E4,7.996756E3,3.3501575E3,5.654421E3,4.3773345E3,8.462964E3],"categories":[],"categories_nodes":[],"categories_segments":[],"categories_sizes":[],"default_left":[0,0,0,0,0,0,0,0,0,0,0,0,0,0,0],"id":11,"left_children":[1,3,5,7,9,11,13,-1,-1,-1,-1,-1,-1,-1,-1],"loss_changes":[2.1354685E14,8.582606E13,5.197528E13,1.0436341E14,1.1733502E14,8.4121213E12,3.5829892E13,0E0,0E0,0E0,0E0,0E0,0E0,0E0,0E0],"parents":[2147483647,0,0,1,1,2,2,3,3,4,4,5,5,6,6],"right_children":[2,4,6,8,10,12,14,-1,-1,-1,-1,-1,-1,-1,-1],"split_conditions":[2.9E1,1.8941853E2,1.3152791E2,1.5E1,3E0,9.521E0,3.1E1,1.5680019E4,1.0608086E4,1.5352366E4,7.996756E3,3.3501575E3,5.654421E3,4.3773345E3,8.462964E3],"split_indices":[0,4,4,0,0,5,0,0,0,0,0,0,0,0,0],"split_type":[0,0,0,0,0,0,0,0,0,0,0,0,0,0,0],"sum_hessian":[5.832E3,3.613E3,2.219E3,1.904E3,1.709E3,6.51E2,1.568E3,6E2,1.304E3,2.56E2,1.453E3,3.53E2,2.98E2,2.61E2,1.307E3],"tree_param":{"num_deleted":"0","num_feature":"16","num_nodes":"15","size_leaf_vector":"1"}},{"base_weights":[9.153869E5,1.0639785E6,6.730781E5,1.2091776E6,9.0159925E5,4.3680238E5,7.708338E5,1.5523479E4,1.0502086E4,1.5199439E4,7.9168438E3,3.3167505E3,5.598066E3,4.333728E3,8.378398E3],"categories":[],"categories_nodes":[],"categories_segments":[],"categories_sizes":[],"default_left":[0,0,0,0,0,0,0,0,0,0,0,0,0,0,0],"id":12,"left_children":[1,3,5,7,9,11,13,-1,-1,-1,-1,-1,-1,-1,-1],"loss_changes":[2.0930127E14,8.411801E13,5.093932E13,1.0229404E14,1.15017345E14,8.2454145E12,3.5114982E13,0E0,0E0,0E0,0E0,0E0,0E0,0E0,0E0],"parents":[2147483647,0,0,1,1,2,2,3,3,4,4,5,5,6,6],"right_children":[2,4,6,8,10,12,14,-1,-1,-1,-1,-1,-1,-1,-1],"split_conditions":[2.9E1,1.8941853E2,1.3152791E2,1.5E1,3E0,9.521E0,3.1E1,1.5523479E4,1.0502086E4,1.5199439E4,7.9168438E3,3.3167505E3,5.598066E3,4.333728E3,8.378398E3],"split_indices":[0,4,4,0,0,5,0,0,0,0,0,0,0,0,0],"split_type":[0,0,0,0,0,0,0,0,0,0,0,0,0,0,0],"sum_hessian":[5.832E3,3.613E3,2.219E3,1.904E3,1.709E3,6.51E2,1.568E3,6E2,1.304E3,2.56E2,1.453E3,3.53E2,2.98E2,2.61E2,1.307E3],"tree_param":{"num_deleted":"0","num_feature":"16","num_nodes":"15","size_leaf_vector":"1"}},{"base_weights":[9.062451E5,1.0533522E6,6.6635706E5,1.1970995E6,8.9259675E5,4.3244803E5,7.6313356E5,1.5368502E4,1.0397146E4,1.5048037E4,7.83773E3,2.0691248E3,4.882195E3,4.290556E3,8.294679E3],"categories":[],"categories_nodes":[],"categories_segments":[],"categories_sizes":[],"default_left":[0,0,0,0,0,0,0,0,0,0,0,0,0,0,0],"id":13,"left_children":[1,3,5,7,9,11,13,-1,-1,-1,-1,-1,-1,-1,-1],"loss_changes":[2.0513999E14,8.244458E13,4.9923895E13,1.00265475E14,1.1274531E14,8.100124E12,3.4414432E13,0E0,0E0,0E0,0E0,0E0,0E0,0E0,0E0],"parents":[2147483647,0,0,1,1,2,2,3,3,4,4,5,5,6,6],"right_children":[2,4,6,8,10,12,14,-1,-1,-1,-1,-1,-1,-1,-1],"split_conditions":[2.9E1,1.8941853E2,1.3152791E2,1.5E1,3E0,3.4E1,3.1E1,1.5368502E4,1.0397146E4,1.5048037E4,7.83773E3,2.0691248E3,4.882195E3,4.290556E3,8.294679E3],"split_indices":[0,4,4,0,0,0,0,0,0,0,0,0,0,0,0],"split_type":[0,0,0,0,0,0,0,0,0,0,0,0,0,0,0],"sum_hessian":[5.832E3,3.613E3,2.219E3,1.904E3,1.709E3,6.51E2,1.568E3,6E2,1.304E3,2.56E2,1.453E3,1.3E2,5.21E2,2.61E2,1.307E3],"tree_param":{"num_deleted":"0","num_feature":"16","num_nodes":"15","size_leaf_vector":"1"}},{"base_weights":[8.971944E5,1.0428322E6,6.597023E5,1.185142E6,8.836842E5,4.2813422E5,7.555103E5,1.5215073E4,1.0293254E4,1.4898143E4,7.7594062E3,3.2436543E3,5.49559E3,4.2478145E3,8.211796E3],"categories":[],"categories_nodes":[],"categories_segments":[],"categories_sizes":[],"default_left":[0,0,0,0,0,0,0,0,0,0,0,0,0,0,0],"id":14,"left_children":[1,3,5,7,9,11,13,-1,-1,-1,-1,-1,-1,-1,-1],"loss_changes":[2.0106245E14,8.08039E13,4.892961E13,9.827744E13,1.1051837E14,8.0370163E12,3.3727908E13,0E0,0E0,0E0,0E0,0E0,0E0,0E0,0E0],"parents":[2147483647,0,0,1,1,2,2,3,3,4,4,5,5,6,6],"right_children":[2,4,6,8,10,12,14,-1,-1,-1,-1,-1,-1,-1,-1],"split_conditions":[2.9E1,1.8941853E2,1.3152791E2,1.5E1,3E0,9.521E0,3.1E1,1.5215073E4,1.0293254E4,1.4898143E4,7.7594062E3,3.2436543E3,5.49559E3,4.2478145E3,8.211796E3],"split_indices":[0,4,4,0,0,5,0,0,0,0,0,0,0,0,0],"split_type":[0,0,0,0,0,0,0,0,0,0,0,0,0,0,0],"sum_hessian":[5.832E3,3.613E3,2.219E3,1.904E3,1.709E3,6.51E2,1.568E3,6E2,1.304E3,2.56E2,1.453E3,3.53E2,2.98E2,2.61E2,1.307E3],"tree_param":{"num_deleted":"0","num_feature":"16","num_nodes":"15","size_leaf_vector":"1"}},{"base_weights":[8.882343E5,1.0324172E6,6.531148E5,1.173304E6,8.7486056E5,4.2386628E5,7.479631E5,1.5063176E4,1.01904E4,1.4749739E4,7.681865E3,2.0127926E3,4.789142E3,4.2054985E3,8.12974E3],"categories":[],"categories_nodes":[],"categories_segments":[],"categories_sizes":[],"default_left":[0,0,0,0,0,0,0,0,0,0,0,0,0,0,0],"id":15,"left_children":[1,3,5,7,9,11,13,-1,-1,-1,-1,-1,-1,-1,-1],"loss_changes":[1.9706545E14,7.9195976E13,4.795425E13,9.63286E13,1.0833518E14,7.8925225E12,3.3054874E13,0E0,0E0,0E0,0E0,0E0,0E0,0E0,0E0],"parents":[2147483647,0,0,1,1,2,2,3,3,4,4,5,5,6,6],"right_children":[2,4,6,8,10,12,14,-1,-1,-1,-1,-1,-1,-1,-1],"split_conditions":[2.9E1,1.8941853E2,1.3152791E2,1.5E1,3E0,3.4E1,3.1E1,1.5063176E4,1.01904E4,1.4749739E4,7.681865E3,2.0127926E3,4.789142E3,4.2054985E3,8.12974E3],"split_indices":[0,4,4,0,0,0,0,0,0,0,0,0,0,0,0],"split_type":[0,0,0,0,0,0,0,0,0,0,0,0,0,0,0],"sum_hessian":[5.832E3,3.613E3,2.219E3,1.904E3,1.709E3,6.51E2,1.568E3,6E2,1.304E3,2.56E2,1.453E3,1.3E2,5.21E2,2.61E2,1.307E3],"tree_param":{"num_deleted":"0","num_feature":"16","num_nodes":"15","size_leaf_vector":"1"}},{"base_weights":[8.7936344E5,1.02210625E6,6.465923E5,1.1615842E6,8.661251E5,4.1963803E5,7.404914E5,1.4912795E4,1.0088575E4,1.4602817E4,7.6050996E3,3.1721018E3,5.3950366E3,4.163604E3,8.0485054E3],"categories":[],"categories_nodes":[],"categories_segments":[],"categories_sizes":[],"default_left":[0,0,0,0,0,0,0,0,0,0,0,0,0,0,0],"id":16,"left_children":[1,3,5,7,9,11,13,-1,-1,-1,-1,-1,-1,-1,-1],"loss_changes":[1.9314844E14,7.761999E13,4.6999223E13,9.441868E13,1.0619521E14,7.8338526E12,3.239553E13,0E0,0E0,0E0,0E0,0E0,0E0,0E0,0E0],"parents":[2147483647,0,0,1,1,2,2,3,3,4,4,5,5,6,6],"right_children":[2,4,6,8,10,12,14,-1,-1,-1,-1,-1,-1,-1,-1],"split_conditions":[2.9E1,1.8941853E2,1.3152791E2,1.5E1,3E0,9.521E0,3.1E1,1.4912795E4,1.0088575E4,1.4602817E4,7.6050996E3,3.1721018E3,5.3950366E3,4.163604E3,8.0485054E3],"split_indices":[0,4,4,0,0,5,0,0,0,0,0,0,0,0,0],"split_type":[0,0,0,0,0,0,0,0,0,0,0,0,0,0,0],"sum_hessian":[5.832E3,3.613E3,2.219E3,1.904E3,1.709E3,6.51E2,1.568E3,6E2,1.304E3,2.56E2,1.453E3,3.53E2,2.98E2,2.61E2,1.307E3],"tree_param":{"num_deleted":"0","num_feature":"16","num_nodes":"15","size_leaf_vector":"1"}},{"base_weights":[8.7058144E5,1.01189825E6,6.4013575E5,1.1499815E6,8.574768E5,4.1545478E5,7.3309425E5,1.4763915E4,9.987767E3,1.4457357E4,7.529101E3,1.9577759E3,4.697886E3,4.122127E3,7.9680815E3],"categories":[],"categories_nodes":[],"categories_segments":[],"categories_sizes":[],"default_left":[0,0,0,0,0,0,0,0,0,0,0,0,0,0,0],"id":17,"left_children":[1,3,5,7,9,11,13,-1,-1,-1,-1,-1,-1,-1,-1],"loss_changes":[1.8930874E14,7.607541E13,4.6062383E13,9.2546345E13,1.04097525E14,7.690231E12,3.1749136E13,0E0,0E0,0E0,0E0,0E0,0E0,0E0,0E0],"parents":[2147483647,0,0,1,1,2,2,3,3,4,4,5,5,6,6],"right_children":[2,4,6,8,10,12,14,-1,-1,-1,-1,-1,-1,-1,-1],"split_conditions":[2.9E1,1.8941853E2,1.3152791E2,1.5E1,3E0,3.4E1,3.1E1,1.4763915E4,9.987767E3,1.4457357E4,7.529101E3,1.9577759E3,4.697886E3,4.122127E3,7.9680815E3],"split_indices":[0,4,4,0,0,0,0,0,0,0,0,0,0,0,0],"split_type":[0,0,0,0,0,0,0,0,0,0,0,0,0,0,0],"sum_hessian":[5.832E3,3.613E3,2.219E3,1.904E3,1.709E3,6.51E2,1.568E3,6E2,1.304E3,2.56E2,1.453E3,1.3E2,5.21E2,2.61E2,1.307E3],"tree_param":{"num_deleted":"0","num_feature":"16","num_nodes":"15","size_leaf_vector":"1"}},{"base_weights":[8.618869E5,1.0017922E6,6.337429E5,1.1384948E6,8.4891494E5,4.1131047E5,7.25771E5,1.4616522E4,9.887966E3,1.4313346E4,7.453862E3,3.1020613E3,5.296369E3,4.0810627E3,7.888462E3],"categories":[],"categories_nodes":[],"categories_segments":[],"categories_sizes":[],"default_left":[0,0,0,0,0,0,0,0,0,0,0,0,0,0,0],"id":18,"left_children":[1,3,5,7,9,11,13,-1,-1,-1,-1,-1,-1,-1,-1],"loss_changes":[1.8554635E14,7.456144E13,4.514494E13,9.071105E13,1.0204131E14,7.635789E12,3.1115696E13,0E0,0E0,0E0,0E0,0E0,0E0,0E0,0E0],"parents":[2147483647,0,0,1,1,2,2,3,3,4,4,5,5,6,6],"right_children":[2,4,6,8,10,12,14,-1,-1,-1,-1,-1,-1,-1,-1],"split_conditions":[2.9E1,1.8941853E2,1.3152791E2,1.5E1,3E0,9.521E0,3.1E1,1.4616522E4,9.887966E3,1.4313346E4,7.453862E3,3.1020613E3,5.296369E3,4.0810627E3,7.888462E3],"split_indices":[0,4,4,0,0,5,0,0,0,0,0,0,0,0,0],"split_type":[0,0,0,0,0,0,0,0,0,0,0,0,0,0,0],"sum_hessian":[5.832E3,3.613E3,2.219E3,1.904E3,1.709E3,6.51E2,1.568E3,6E2,1.304E3,2.56E2,1.453E3,3.53E2,2.98E2,2.61E2,1.307E3],"tree_param":{"num_deleted":"0","num_feature":"16","num_nodes":"15","size_leaf_vector":"1"}},{"base_weights":[8.5327944E5,9.9178706E5,6.2741456E5,1.1271226E6,8.404385E5,4.0721022E5,7.185209E5,1.44706E4,9.789162E3,1.417077E4,7.379374E3,1.9040463E3,4.608392E3,4.040408E3,7.809637E3],"categories":[],"categories_nodes":[],"categories_segments":[],"categories_sizes":[],"default_left":[0,0,0,0,0,0,0,0,0,0,0,0,0,0,0],"id":19,"left_children":[1,3,5,7,9,11,13,-1,-1,-1,-1,-1,-1,-1,-1],"loss_changes":[1.818575E14,7.307753E13,4.4245075E13,8.89128E13,1.0002563E14,7.4930905E12,3.0494939E13,0E0,0E0,0E0,0E0,0E0,0E0,0E0,0E0],"parents":[2147483647,0,0,1,1,2,2,3,3,4,4,5,5,6,6],"right_children":[2,4,6,8,10,12,14,-1,-1,-1,-1,-1,-1,-1,-1],"split_conditions":[2.9E1,1.8941853E2,1.3152791E2,1.5E1,3E0,3.4E1,3.1E1,1.44706E4,9.789162E3,1.417077E4,7.379374E3,1.9040463E3,4.608392E3,4.040408E3,7.809637E3],"split_indices":[0,4,4,0,0,0,0,0,0,0,0,0,0,0,0],"split_type":[0,0,0,0,0,0,0,0,0,0,0,0,0,0,0],"sum_hessian":[5.832E3,3.613E3,2.219E3,1.904E3,1.709E3,6.51E2,1.568E3,6E2,1.304E3,2.56E2,1.453E3,1.3E2,5.21E2,2.61E2,1.307E3],"tree_param":{"num_deleted":"0","num_feature":"16","num_nodes":"15","size_leaf_vector":"1"}},{"base_weights":[8.447576E5,9.818819E5,6.211487E5,1.1158641E6,8.3204675E5,4.0314812E5,7.1134325E5,1.4326135E4,9.691345E3,1.4029613E4,7.305632E3,3.0335015E3,5.1995522E3,4.000158E3,7.731601E3],"categories":[],"categories_nodes":[],"categories_segments":[],"categories_sizes":[],"default_left":[0,0,0,0,0,0,0,0,0,0,0,0,0,0,0],"id":20,"left_children":[1,3,5,7,9,11,13,-1,-1,-1,-1,-1,-1,-1,-1],"loss_changes":[1.7824302E14,7.162368E13,4.3363936E13,8.714918E13,9.804994E13,7.442717E12,2.988653E13,0E0,0E0,0E0,0E0,0E0,0E0,0E0,0E0],"parents":[2147483647,0,0,1,1,2,2,3,3,4,4,5,5,6,6],"right_children":[2,4,6,8,10,12,14,-1,-1,-1,-1,-1,-1,-1,-1],"split_conditions":[2.9E1,1.8941853E2,1.3152791E2,1.5E1,3E0,9.521E0,3.1E1,1.4326135E4,9.691345E3,1.4029613E4,7.305632E3,3.0335015E3,5.1995522E3,4.000158E3,7.731601E3],"split_indices":[0,4,4,0,0,5,0,0,0,0,0,0,0,0,0],"split_type":[0,0,0,0,0,0,0,0,0,0,0,0,0,0,0],"sum_hessian":[5.832E3,3.613E3,2.219E3,1.904E3,1.709E3,6.51E2,1.568E3,6E2,1.304E3,2.56E2,1.453E3,3.53E2,2.98E2,2.61E2,1.307E3],"tree_param":{"num_deleted":"0","num_feature":"16","num_nodes":"15","size_leaf_vector":"1"}},{"base_weights":[8.3632125E5,9.720756E5,6.149462E5,1.1047181E6,8.2373875E5,3.9912928E5,7.042373E5,1.4183111E4,9.594506E3,1.3889863E4,7.2326255E3,1.8515754E3,4.520625E3,3.9603093E3,7.6543438E3],"categories":[],"categories_nodes":[],"categories_segments":[],"categories_sizes":[],"default_left":[0,0,0,0,0,0,0,0,0,0,0,0,0,0,0],"id":21,"left_children":[1,3,5,7,9,11,13,-1,-1,-1,-1,-1,-1,-1,-1],"loss_changes":[1.7469914E14,7.0198288E13,4.2499507E13,8.542126E13,9.611305E13,7.301E12,2.9290335E13,0E0,0E0,0E0,0E0,0E0,0E0,0E0,0E0],"parents":[2147483647,0,0,1,1,2,2,3,3,4,4,5,5,6,6],"right_children":[2,4,6,8,10,12,14,-1,-1,-1,-1,-1,-1,-1,-1],"split_conditions":[2.9E1,1.8941853E2,1.3152791E2,1.5E1,3E0,3.4E1,3.1E1,1.4183111E4,9.594506E3,1.3889863E4,7.2326255E3,1.8515754E3,4.520625E3,3.9603093E3,7.6543438E3],"split_indices":[0,4,4,0,0,0,0,0,0,0,0,0,0,0,0],"split_type":[0,0,0,0,0,0,0,0,0,0,0,0,0,0,0],"sum_hessian":[5.832E3,3.613E3,2.219E3,1.904E3,1.709E3,6.51E2,1.568E3,6E2,1.304E3,2.56E2,1.453E3,1.3E2,5.21E2,2.61E2,1.307E3],"tree_param":{"num_deleted":"0","num_feature":"16","num_nodes":"15","size_leaf_vector":"1"}},{"base_weights":[8.279688E5,9.623673E5,6.088049E5,1.0936834E6,8.155137E5,3.9514775E5,6.972023E5,1.4041516E4,9.498634E3,1.3751505E4,7.160349E3,2.9663918E3,5.1045503E3,3.9208574E3,7.5778594E3],"categories":[],"categories_nodes":[],"categories_segments":[],"categories_sizes":[],"default_left":[0,0,0,0,0,0,0,0,0,0,0,0,0,0,0],"id":22,"left_children":[1,3,5,7,9,11,13,-1,-1,-1,-1,-1,-1,-1,-1],"loss_changes":[1.712272E14,6.880135E13,4.1653063E13,8.3727435E13,9.421454E13,7.2544766E12,2.870595E13,0E0,0E0,0E0,0E0,0E0,0E0,0E0,0E0],"parents":[2147483647,0,0,1,1,2,2,3,3,4,4,5,5,6,6],"right_children":[2,4,6,8,10,12,14,-1,-1,-1,-1,-1,-1,-1,-1],"split_conditions":[2.9E1,1.8941853E2,1.3152791E2,1.5E1,3E0,9.521E0,3.1E1,1.4041516E4,9.498634E3,1.3751505E4,7.160349E3,2.9663918E3,5.1045503E3,3.9208574E3,7.5778594E3],"split_indices":[0,4,4,0,0,5,0,0,0,0,0,0,0,0,0],"split_type":[0,0,0,0,0,0,0,0,0,0,0,0,0,0,0],"sum_hessian":[5.832E3,3.613E3,2.219E3,1.904E3,1.709E3,6.51E2,1.568E3,6E2,1.304E3,2.56E2,1.453E3,3.53E2,2.98E2,2.61E2,1.307E3],"tree_param":{"num_deleted":"0","num_feature":"16","num_nodes":"15","size_leaf_vector":"1"}},{"base_weights":[8.197001E5,9.527559E5,6.027256E5,1.0827589E6,8.073708E5,3.9120866E5,6.902376E5,1.3901335E4,9.403721E3,1.3614524E4,7.088795E3,1.8003359E3,4.4345522E3,3.8817983E3,7.5021387E3],"categories":[],"categories_nodes":[],"categories_segments":[],"categories_sizes":[],"default_left":[0,0,0,0,0,0,0,0,0,0,0,0,0,0,0],"id":23,"left_children":[1,3,5,7,9,11,13,-1,-1,-1,-1,-1,-1,-1,-1],"loss_changes":[1.678229E14,6.743206E13,4.082279E13,8.206716E13,9.235347E13,7.1137996E12,2.8133177E13,0E0,0E0,0E0,0E0,0E0,0E0,0E0,0E0],"parents":[2147483647,0,0,1,1,2,2,3,3,4,4,5,5,6,6],"right_children":[2,4,6,8,10,12,14,-1,-1,-1,-1,-1,-1,-1,-1],"split_conditions":[2.9E1,1.8941853E2,1.3152791E2,1.5E1,3E0,3.4E1,3.1E1,1.3901335E4,9.403721E3,1.3614524E4,7.088795E3,1.8003359E3,4.4345522E3,3.8817983E3,7.5021387E3],"split_indices":[0,4,4,0,0,0,0,0,0,0,0,0,0,0,0],"split_type":[0,0,0,0,0,0,0,0,0,0,0,0,0,0,0],"sum_hessian":[5.832E3,3.613E3,2.219E3,1.904E3,1.709E3,6.51E2,1.568E3,6E2,1.304E3,2.56E2,1.453E3,1.3E2,5.21E2,2.61E2,1.307E3],"tree_param":{"num_deleted":"0","num_feature":"16","num_nodes":"15","size_leaf_vector":"1"}},{"base_weights":[8.115137E5,9.4324056E5,5.967063E5,1.0719436E6,7.993092E5,3.8730612E5,6.833425E5,1.3762552E4,9.309756E3,1.347891E4,7.0179556E3,2.9007026E3,5.0113286E3,3.8431287E3,7.4271743E3],"categories":[],"categories_nodes":[],"categories_segments":[],"categories_sizes":[],"default_left":[0,0,0,0,0,0,0,0,0,0,0,0,0,0,0],"id":24,"left_children":[1,3,5,7,9,11,13,-1,-1,-1,-1,-1,-1,-1,-1],"loss_changes":[1.6448705E14,6.609042E13,4.0009768E13,8.043977E13,9.052912E13,7.0709926E12,2.7571945E13,0E0,0E0,0E0,0E0,0E0,0E0,0E0,0E0],"parents":[2147483647,0,0,1,1,2,2,3,3,4,4,5,5,6,6],"right_children":[2,4,6,8,10,12,14,-1,-1,-1,-1,-1,-1,-1,-1],"split_conditions":[2.9E1,1.8941853E2,1.3152791E2,1.5E1,3E0,9.521E0,3.1E1,1.3762552E4,9.309756E3,1.347891E4,7.0179556E3,2.9007026E3,5.0113286E3,3.8431287E3,7.4271743E3],"split_indices":[0,4,4,0,0,5,0,0,0,0,0,0,0,0,0],"split_type":[0,0,0,0,0,0,0,0,0,0,0,0,0,0,0],"sum_hessian":[5.832E3,3.613E3,2.219E3,1.904E3,1.709E3,6.51E2,1.568E3,6E2,1.304E3,2.56E2,1.453E3,3.53E2,2.98E2,2.61E2,1.307E3],"tree_param":{"num_deleted":"0","num_feature":"16","num_nodes":"15","size_leaf_vector":"1"}},{"base_weights":[8.034093E5,9.338202E5,5.907479E5,1.0612362E6,7.913281E5,3.834452E5,6.7651625E5,1.3625154E4,9.2167295E3,1.3344645E4,6.947824E3,1.7503009E3,4.35014E3,3.804844E3,7.352959E3],"categories":[],"categories_nodes":[],"categories_segments":[],"categories_sizes":[],"default_left":[0,0,0,0,0,0,0,0,0,0,0,0,0,0,0],"id":25,"left_children":[1,3,5,7,9,11,13,-1,-1,-1,-1,-1,-1,-1,-1],"loss_changes":[1.6121723E14,6.4775086E13,3.9212313E13,7.884486E13,8.874087E13,6.931381E12,2.7021854E13,0E0,0E0,0E0,0E0,0E0,0E0,0E0,0E0],"parents":[2147483647,0,0,1,1,2,2,3,3,4,4,5,5,6,6],"right_children":[2,4,6,8,10,12,14,-1,-1,-1,-1,-1,-1,-1,-1],"split_conditions":[2.9E1,1.8941853E2,1.3152791E2,1.5E1,3E0,3.4E1,3.1E1,1.3625154E4,9.2167295E3,1.3344645E4,6.947824E3,1.7503009E3,4.35014E3,3.804844E3,7.352959E3],"split_indices":[0,4,4,0,0,0,0,0,0,0,0,0,0,0,0],"split_type":[0,0,0,0,0,0,0,0,0,0,0,0,0,0,0],"sum_hessian":[5.832E3,3.613E3,2.219E3,1.904E3,1.709E3,6.51E2,1.568E3,6E2,1.304E3,2.56E2,1.453E3,1.3E2,5.21E2,2.61E2,1.307E3],"tree_param":{"num_deleted":"0","num_feature":"16","num_nodes":"15","size_leaf_vector":"1"}},{"base_weights":[7.9538556E5,9.2449394E5,5.848482E5,1.0506359E6,7.834267E5,3.7962012E5,6.6975825E5,1.3489131E4,9.124633E3,1.3211717E4,6.8783936E3,2.836404E3,4.919853E3,3.766941E3,7.2794863E3],"categories":[],"categories_nodes":[],"categories_segments":[],"categories_sizes":[],"default_left":[0,0,0,0,0,0,0,0,0,0,0,0,0,0,0],"id":26,"left_children":[1,3,5,7,9,11,13,-1,-1,-1,-1,-1,-1,-1,-1],"loss_changes":[1.5801265E14,6.348606E13,3.8431367E13,7.7281226E13,8.698799E13,6.892139E12,2.6482701E13,0E0,0E0,0E0,0E0,0E0,0E0,0E0,0E0],"parents":[2147483647,0,0,1,1,2,2,3,3,4,4,5,5,6,6],"right_children":[2,4,6,8,10,12,14,-1,-1,-1,-1,-1,-1,-1,-1],"split_conditions":[2.9E1,1.8941853E2,1.3152791E2,1.5E1,3E0,9.521E0,3.1E1,1.3489131E4,9.124633E3,1.3211717E4,6.8783936E3,2.836404E3,4.919853E3,3.766941E3,7.2794863E3],"split_indices":[0,4,4,0,0,5,0,0,0,0,0,0,0,0,0],"split_type":[0,0,0,0,0,0,0,0,0,0,0,0,0,0,0],"sum_hessian":[5.832E3,3.613E3,2.219E3,1.904E3,1.709E3,6.51E2,1.568E3,6E2,1.304E3,2.56E2,1.453E3,3.53E2,2.98E2,2.61E2,1.307E3],"tree_param":{"num_deleted":"0","num_feature":"16","num_nodes":"15","size_leaf_vector":"1"}},{"base_weights":[7.8744225E5,9.152608E5,5.790082E5,1.0401414E6,7.756042E5,3.758358E5,6.630677E5,1.3354464E4,9.033456E3,1.3080114E4,6.809657E3,2.8081204E3,4.870819E3,3.7294153E3,7.2067466E3],"categories":[],"categories_nodes":[],"categories_segments":[],"categories_sizes":[],"default_left":[0,0,0,0,0,0,0,0,0,0,0,0,0,0,0],"id":27,"left_children":[1,3,5,7,9,11,13,-1,-1,-1,-1,-1,-1,-1,-1],"loss_changes":[1.5487142E14,6.2222533E13,3.7665185E13,7.5749E13,8.526966E13,6.7555306E12,2.595442E13,0E0,0E0,0E0,0E0,0E0,0E0,0E0,0E0],"parents":[2147483647,0,0,1,1,2,2,3,3,4,4,5,5,6,6],"right_children":[2,4,6,8,10,12,14,-1,-1,-1,-1,-1,-1,-1,-1],"split_conditions":[2.9E1,1.8941853E2,1.3152791E2,1.5E1,3E0,9.521E0,3.1E1,1.3354464E4,9.033456E3,1.3080114E4,6.809657E3,2.8081204E3,4.870819E3,3.7294153E3,7.2067466E3],"split_indices":[0,4,4,0,0,5,0,0,0,0,0,0,0,0,0],"split_type":[0,0,0,0,0,0,0,0,0,0,0,0,0,0,0],"sum_hessian":[5.832E3,3.613E3,2.219E3,1.904E3,1.709E3,6.51E2,1.568E3,6E2,1.304E3,2.56E2,1.453E3,3.53E2,2.98E2,2.61E2,1.307E3],"tree_param":{"num_deleted":"0","num_feature":"16","num_nodes":"15","size_leaf_vector":"1"}},{"base_weights":[7.7957825E5,9.061199E5,5.732265E5,1.0297517E6,7.6785975E5,3.7208922E5,6.56444E5,1.3221141E4,8.94319E3,1.2949822E4,6.7416074E3,1.6702706E3,4.228384E3,3.6922634E3,7.1347344E3],"categories":[],"categories_nodes":[],"categories_segments":[],"categories_sizes":[],"default_left":[0,0,0,0,0,0,0,0,0,0,0,0,0,0,0],"id":28,"left_children":[1,3,5,7,9,11,13,-1,-1,-1,-1,-1,-1,-1,-1],"loss_changes":[1.5179247E14,6.098451E13,3.6914506E13,7.4246965E13,8.3585365E13,6.7145606E12,2.5436541E13,0E0,0E0,0E0,0E0,0E0,0E0,0E0,0E0],"parents":[2147483647,0,0,1,1,2,2,3,3,4,4,5,5,6,6],"right_children":[2,4,6,8,10,12,14,-1,-1,-1,-1,-1,-1,-1,-1],"split_conditions":[2.9E1,1.8941853E2,1.3152791E2,1.5E1,3E0,3.4E1,3.1E1,1.3221141E4,8.94319E3,1.2949822E4,6.7416074E3,1.6702706E3,4.228384E3,3.6922634E3,7.1347344E3],"split_indices":[0,4,4,0,0,0,0,0,0,0,0,0,0,0,0],"split_type":[0,0,0,0,0,0,0,0,0,0,0,0,0,0,0],"sum_hessian":[5.832E3,3.613E3,2.219E3,1.904E3,1.709E3,6.51E2,1.568E3,6E2,1.304E3,2.56E2,1.453E3,1.3E2,5.21E2,2.61E2,1.307E3],"tree_param":{"num_deleted":"0","num_feature":"16","num_nodes":"15","size_leaf_vector":"1"}},{"base_weights":[7.717925E5,8.9707025E5,5.6750175E5,1.0194659E6,7.601927E5,3.6837738E5,6.4988644E5,1.3089149E4,8.853828E3,1.2820827E4,6.674238E3,2.7458306E3,4.7819277E3,3.6554817E3,7.063442E3],"categories":[],"categories_nodes":[],"categories_segments":[],"categories_sizes":[],"default_left":[0,0,0,0,0,0,0,0,0,0,0,0,0,0,0],"id":29,"left_children":[1,3,5,7,9,11,13,-1,-1,-1,-1,-1,-1,-1,-1],"loss_changes":[1.4877552E14,5.9770912E13,3.617933E13,7.27746E13,8.1934286E13,6.584336E12,2.4929064E13,0E0,0E0,0E0,0E0,0E0,0E0,0E0,0E0],"parents":[2147483647,0,0,1,1,2,2,3,3,4,4,5,5,6,6],"right_children":[2,4,6,8,10,12,14,-1,-1,-1,-1,-1,-1,-1,-1],"split_conditions":[2.9E1,1.8941853E2,1.3152791E2,1.5E1,3E0,9.521E0,3.1E1,1.3089149E4,8.853828E3,1.2820827E4,6.674238E3,2.7458306E3,4.7819277E3,3.6554817E3,7.063442E3],"split_indices":[0,4,4,0,0,5,0,0,0,0,0,0,0,0,0],"split_type":[0,0,0,0,0,0,0,0,0,0,0,0,0,0,0],"sum_hessian":[5.832E3,3.613E3,2.219E3,1.904E3,1.709E3,6.51E2,1.568E3,6E2,1.304E3,2.56E2,1.453E3,3.53E2,2.98E2,2.61E2,1.307E3],"tree_param":{"num_deleted":"0","num_feature":"16","num_nodes":"15","size_leaf_vector":"1"}},{"base_weights":[7.640848E5,8.88111E5,5.6183494E5,1.0092827E6,7.526022E5,3.6470516E5,6.433944E5,1.2958476E4,8.765356E3,1.2693118E4,6.6075415E3,1.6231827E3,4.1479707E3,3.6190664E3,6.9928613E3],"categories":[],"categories_nodes":[],"categories_segments":[],"categories_sizes":[],"default_left":[0,0,0,0,0,0,0,0,0,0,0,0,0,0,0],"id":30,"left_children":[1,3,5,7,9,11,13,-1,-1,-1,-1,-1,-1,-1,-1],"loss_changes":[1.4581763E14,5.8581743E13,3.545811E13,7.133162E13,8.0315754E13,6.542611E12,2.4431787E13,0E0,0E0,0E0,0E0,0E0,0E0,0E0,0E0],"parents":[2147483647,0,0,1,1,2,2,3,3,4,4,5,5,6,6],"right_children":[2,4,6,8,10,12,14,-1,-1,-1,-1,-1,-1,-1,-1],"split_conditions":[2.9E1,1.8941853E2,1.3152791E2,1.5E1,3E0,3.4E1,3.1E1,1.2958476E4,8.765356E3,1.2693118E4,6.6075415E3,1.6231827E3,4.1479707E3,3.6190664E3,6.9928613E3],"split_indices":[0,4,4,0,0,0,0,0,0,0,0,0,0,0,0],"split_type":[0,0,0,0,0,0,0,0,0,0,0,0,0,0,0],"sum_hessian":[5.832E3,3.613E3,2.219E3,1.904E3,1.709E3,6.51E2,1.568E3,6E2,1.304E3,2.56E2,1.453E3,1.3E2,5.21E2,2.61E2,1.307E3],"tree_param":{"num_deleted":"0","num_feature":"16","num_nodes":"15","size_leaf_vector":"1"}},{"base_weights":[7.564538E5,8.7924125E5,5.56224E5,9.9920125E5,7.4508744E5,3.6106697E5,6.369672E5,1.2829107E4,8.6777705E3,1.2566683E4,6.541511E3,4.8299062E3,2.7844526E3,3.583014E3,6.9229863E3],"categories":[],"categories_nodes":[],"categories_segments":[],"categories_sizes":[],"default_left":[0,0,0,0,0,0,0,0,0,0,0,0,0,0,0],"id":31,"left_children":[1,3,5,7,9,11,13,-1,-1,-1,-1,-1,-1,-1,-1],"loss_changes":[1.4291933E14,5.7416197E13,3.4751923E13,6.9917236E13,7.872923E13,6.4334584E12,2.3944376E13,0E0,0E0,0E0,0E0,0E0,0E0,0E0,0E0],"parents":[2147483647,0,0,1,1,2,2,3,3,4,4,5,5,6,6],"right_children":[2,4,6,8,10,12,14,-1,-1,-1,-1,-1,-1,-1,-1],"split_conditions":[2.9E1,1.8941853E2,1.3152791E2,1.5E1,3E0,3.5E1,3.1E1,1.2829107E4,8.6777705E3,1.2566683E4,6.541511E3,4.8299062E3,2.7844526E3,3.583014E3,6.9229863E3],"split_indices":[0,4,4,0,0,0,0,0,0,0,0,0,0,0,0],"split_type":[0,0,0,0,0,0,0,0,0,0,0,0,0,0,0],"sum_hessian":[5.832E3,3.613E3,2.219E3,1.904E3,1.709E3,6.51E2,1.568E3,6E2,1.304E3,2.56E2,1.453E3,2.61E2,3.9E2,2.61E2,1.307E3],"tree_param":{"num_deleted":"0","num_feature":"16","num_nodes":"15","size_leaf_vector":"1"}},{"base_weights":[7.488994E5,8.7046006E5,5.506699E5,9.8922056E5,7.376477E5,3.5746797E5,6.3060425E5,1.2701029E4,8.59106E3,1.2441504E4,6.476141E3,1.5591445E3,4.0736458E3,3.5473206E3,6.853809E3],"categories":[],"categories_nodes":[],"categories_segments":[],"categories_sizes":[],"default_left":[0,0,0,0,0,0,0,0,0,0,0,0,0,0,0],"id":32,"left_children":[1,3,5,7,9,11,13,-1,-1,-1,-1,-1,-1,-1,-1],"loss_changes":[1.4007794E14,5.6273467E13,3.405909E13,6.8530767E13,7.717405E13,6.4935376E12,2.3466628E13,0E0,0E0,0E0,0E0,0E0,0E0,0E0,0E0],"parents":[2147483647,0,0,1,1,2,2,3,3,4,4,5,5,6,6],"right_children":[2,4,6,8,10,12,14,-1,-1,-1,-1,-1,-1,-1,-1],"split_conditions":[2.9E1,1.8941853E2,1.3152791E2,1.5E1,3E0,3.4E1,3.1E1,1.2701029E4,8.59106E3,1.2441504E4,6.476141E3,1.5591445E3,4.0736458E3,3.5473206E3,6.853809E3],"split_indices":[0,4,4,0,0,0,0,0,0,0,0,0,0,0,0],"split_type":[0,0,0,0,0,0,0,0,0,0,0,0,0,0,0],"sum_hessian":[5.832E3,3.613E3,2.219E3,1.904E3,1.709E3,6.51E2,1.568E3,6E2,1.304E3,2.56E2,1.453E3,1.3E2,5.21E2,2.61E2,1.307E3],"tree_param":{"num_deleted":"0","num_feature":"16","num_nodes":"15","size_leaf_vector":"1"}},{"base_weights":[7.4142E5,8.617666E5,5.4517044E5,9.793395E5,7.302823E5,3.5390194E5,6.243049E5,1.2574231E4,8.505215E3,1.2317572E4,6.4114243E3,4.753687E3,2.716047E3,3.5119827E3,6.7853237E3],"categories":[],"categories_nodes":[],"categories_segments":[],"categories_sizes":[],"default_left":[0,0,0,0,0,0,0,0,0,0,0,0,0,0,0],"id":33,"left_children":[1,3,5,7,9,11,13,-1,-1,-1,-1,-1,-1,-1,-1],"loss_changes":[1.37294E14,5.5153554E13,3.3380687E13,6.7171812E13,7.5649675E13,6.388529E12,2.2998476E13,0E0,0E0,0E0,0E0,0E0,0E0,0E0,0E0],"parents":[2147483647,0,0,1,1,2,2,3,3,4,4,5,5,6,6],"right_children":[2,4,6,8,10,12,14,-1,-1,-1,-1,-1,-1,-1,-1],"split_conditions":[2.9E1,1.8941853E2,1.3152791E2,1.5E1,3E0,3.5E1,3.1E1,1.2574231E4,8.505215E3,1.2317572E4,6.4114243E3,4.753687E3,2.716047E3,3.5119827E3,6.7853237E3],"split_indices":[0,4,4,0,0,0,0,0,0,0,0,0,0,0,0],"split_type":[0,0,0,0,0,0,0,0,0,0,0,0,0,0,0],"sum_hessian":[5.832E3,3.613E3,2.219E3,1.904E3,1.709E3,6.51E2,1.568E3,6E2,1.304E3,2.56E2,1.453E3,2.61E2,3.9E2,2.61E2,1.307E3],"tree_param":{"num_deleted":"0","num_feature":"16","num_nodes":"15","size_leaf_vector":"1"}},{"base_weights":[7.340157E5,8.5316E5,5.3972675E5,9.695572E5,7.2299044E5,3.5037438E5,6.180684E5,1.2448697E4,8.420228E3,1.2194876E4,6.347354E3,1.496498E3,4.0007656E3,3.4769968E3,6.7175225E3],"categories":[],"categories_nodes":[],"categories_segments":[],"categories_sizes":[],"default_left":[0,0,0,0,0,0,0,0,0,0,0,0,0,0,0],"id":34,"left_children":[1,3,5,7,9,11,13,-1,-1,-1,-1,-1,-1,-1,-1],"loss_changes":[1.3456428E14,5.405592E13,3.2715236E13,6.5839835E13,7.4155295E13,6.4447746E12,2.2539586E13,0E0,0E0,0E0,0E0,0E0,0E0,0E0,0E0],"parents":[2147483647,0,0,1,1,2,2,3,3,4,4,5,5,6,6],"right_children":[2,4,6,8,10,12,14,-1,-1,-1,-1,-1,-1,-1,-1],"split_conditions":[2.9E1,1.8941853E2,1.3152791E2,1.5E1,3E0,3.4E1,3.1E1,1.2448697E4,8.420228E3,1.2194876E4,6.347354E3,1.496498E3,4.0007656E3,3.4769968E3,6.7175225E3],"split_indices":[0,4,4,0,0,0,0,0,0,0,0,0,0,0,0],"split_type":[0,0,0,0,0,0,0,0,0,0,0,0,0,0,0],"sum_hessian":[5.832E3,3.613E3,2.219E3,1.904E3,1.709E3,6.51E2,1.568E3,6E2,1.304E3,2.56E2,1.453E3,1.3E2,5.21E2,2.61E2,1.307E3],"tree_param":{"num_deleted":"0","num_feature":"16","num_nodes":"15","size_leaf_vector":"1"}},{"base_weights":[7.26685E5,8.4463925E5,5.343365E5,9.598726E5,7.157714E5,3.4687906E5,6.118942E5,1.2324419E4,8.33609E3,4.2889526E3,8.665106E3,4.678903E3,2.6490508E3,3.4423596E3,6.6503984E3],"categories":[],"categories_nodes":[],"categories_segments":[],"categories_sizes":[],"default_left":[0,0,0,0,0,0,0,0,0,0,0,0,0,0,0],"id":35,"left_children":[1,3,5,7,9,11,13,-1,-1,-1,-1,-1,-1,-1,-1],"loss_changes":[1.31889856E14,5.29803E13,3.2063743E13,6.4534434E13,7.357474E13,6.343742E12,2.208989E13,0E0,0E0,0E0,0E0,0E0,0E0,0E0,0E0],"parents":[2147483647,0,0,1,1,2,2,3,3,4,4,5,5,6,6],"right_children":[2,4,6,8,10,12,14,-1,-1,-1,-1,-1,-1,-1,-1],"split_conditions":[2.9E1,1.8941853E2,1.3152791E2,1.5E1,6.842E0,3.5E1,3.1E1,1.2324419E4,8.33609E3,4.2889526E3,8.665106E3,4.678903E3,2.6490508E3,3.4423596E3,6.6503984E3],"split_indices":[0,4,4,0,5,0,0,0,0,0,0,0,0,0,0],"split_type":[0,0,0,0,0,0,0,0,0,0,0,0,0,0,0],"sum_hessian":[5.832E3,3.613E3,2.219E3,1.904E3,1.709E3,6.51E2,1.568E3,6E2,1.304E3,5.9E2,1.119E3,2.61E2,3.9E2,2.61E2,1.307E3],"tree_param":{"num_deleted":"0","num_feature":"16","num_nodes":"15","size_leaf_vector":"1"}},{"base_weights":[7.194269E5,8.150293E5,4.8613406E5,1.02824856E6,7.6633725E5,3.4854675E5,6.0377075E5,1.410263E4,8.426312E3,1.1987939E4,7.304118E3,5.2128184E3,1.7492474E3,9.268513E3,3.5937527E3],"categories":[],"categories_nodes":[],"categories_segments":[],"categories_sizes":[],"default_left":[0,0,0,0,0,0,0,0,0,0,0,0,0,0,0],"id":36,"left_children":[1,3,5,7,9,11,13,-1,-1,-1,-1,-1,-1,-1,-1],"loss_changes":[1.2969942E14,4.215215E13,2.7272237E13,5.312767E13,5.149679E13,2.3451444E13,7.183581E13,0E0,0E0,0E0,0E0,0E0,0E0,0E0,0E0],"parents":[2147483647,0,0,1,1,2,2,3,3,4,4,5,5,6,6],"right_children":[2,4,6,8,10,12,14,-1,-1,-1,-1,-1,-1,-1,-1],"split_conditions":[3.3E1,1.3152791E2,3.9E1,1.1E1,3E0,3.6E1,4.2E1,1.410263E4,8.426312E3,1.1987939E4,7.304118E3,5.2128184E3,1.7492474E3,9.268513E3,3.5937527E3],"split_indices":[0,4,0,0,0,0,0,0,0,0,0,0,0,0,0],"split_type":[0,0,0,0,0,0,0,0,0,0,0,0,0,0,0],"sum_hessian":[5.832E3,4.135E3,1.697E3,7.65E2,3.37E3,7.84E2,9.13E2,2.48E2,5.17E2,2.56E2,3.114E3,3.92E2,3.92E2,3.92E2,5.21E2],"tree_param":{"num_deleted":"0","num_feature":"16","num_nodes":"15","size_leaf_vector":"1"}},{"base_weights":[7.122432E5,8.068891E5,4.812844E5,1.0179955E6,7.586796E5,3.4507016E5,5.977471E5,1.396217E4,8.34221E3,5.2407925E3,8.231007E3,5.160823E3,1.7317994E3,9.176063E3,3.557884E3],"categories":[],"categories_nodes":[],"categories_segments":[],"categories_sizes":[],"default_left":[0,0,0,0,0,0,0,0,0,0,0,0,0,0,0],"id":37,"left_children":[1,3,5,7,9,11,13,-1,-1,-1,-1,-1,-1,-1,-1],"loss_changes":[1.2711707E14,4.1321075E13,2.6730601E13,5.2077955E13,5.0515258E13,2.2985952E13,7.041045E13,0E0,0E0,0E0,0E0,0E0,0E0,0E0,0E0],"parents":[2147483647,0,0,1,1,2,2,3,3,4,4,5,5,6,6],"right_children":[2,4,6,8,10,12,14,-1,-1,-1,-1,-1,-1,-1,-1],"split_conditions":[3.3E1,1.3152791E2,3.9E1,1.1E1,6.842E0,3.6E1,4.2E1,1.396217E4,8.34221E3,5.2407925E3,8.231007E3,5.160823E3,1.7317994E3,9.176063E3,3.557884E3],"split_indices":[0,4,0,0,5,0,0,0,0,0,0,0,0,0,0],"split_type":[0,0,0,0,0,0,0,0,0,0,0,0,0,0,0],"sum_hessian":[5.832E3,4.135E3,1.697E3,7.65E2,3.37E3,7.84E2,9.13E2,2.48E2,5.17E2,7.28E2,2.642E3,3.92E2,3.92E2,3.92E2,5.21E2],"tree_param":{"num_deleted":"0","num_feature":"16","num_nodes":"15","size_leaf_vector":"1"}},{"base_weights":[7.0513025E5,8.198982E5,5.1797862E5,9.329943E5,6.934257E5,3.357229E5,5.9338506E5,1.198933E4,8.09805E3,1.1787118E4,6.071726E3,1.3322709E3,3.8589768E3,3.2537656E3,6.4661504E3],"categories":[],"categories_nodes":[],"categories_segments":[],"categories_sizes":[],"default_left":[0,0,0,0,0,0,0,0,0,0,0,0,0,0,0],"id":38,"left_children":[1,3,5,7,9,11,13,-1,-1,-1,-1,-1,-1,-1,-1],"loss_changes":[1.2486248E14,5.1045955E13,3.031086E13,6.1438433E13,7.086052E13,6.5730196E12,2.217307E13,0E0,0E0,0E0,0E0,0E0,0E0,0E0,0E0],"parents":[2147483647,0,0,1,1,2,2,3,3,4,4,5,5,6,6],"right_children":[2,4,6,8,10,12,14,-1,-1,-1,-1,-1,-1,-1,-1],"split_conditions":[2.9E1,1.8941853E2,1.3152791E2,1.5E1,3E0,3.4E1,3.1E1,1.198933E4,8.09805E3,1.1787118E4,6.071726E3,1.3322709E3,3.8589768E3,3.2537656E3,6.4661504E3],"split_indices":[0,4,4,0,0,0,0,0,0,0,0,0,0,0,0],"split_type":[0,0,0,0,0,0,0,0,0,0,0,0,0,0,0],"sum_hessian":[5.832E3,3.613E3,2.219E3,1.904E3,1.709E3,6.51E2,1.568E3,6E2,1.304E3,2.56E2,1.453E3,1.3E2,5.21E2,2.61E2,1.307E3],"tree_param":{"num_deleted":"0","num_feature":"16","num_nodes":"15","size_leaf_vector":"1"}},{"base_weights":[6.98088E5,7.910605E5,4.7121378E5,9.971969E5,7.43985E5,3.3688734E5,5.860661E5,1.3703697E4,8.158894E3,1.1669706E4,7.088482E3,5.070522E3,1.6586526E3,9.020039E3,3.4708218E3],"categories":[],"categories_nodes":[],"categories_segments":[],"categories_sizes":[],"default_left":[0,0,0,0,0,0,0,0,0,0,0,0,0,0,0],"id":39,"left_children":[1,3,5,7,9,11,13,-1,-1,-1,-1,-1,-1,-1,-1],"loss_changes":[1.2266292E14,3.939371E13,2.5998846E13,5.0708666E13,4.927388E13,2.276092E13,6.8697666E13,0E0,0E0,0E0,0E0,0E0,0E0,0E0,0E0],"parents":[2147483647,0,0,1,1,2,2,3,3,4,4,5,5,6,6],"right_children":[2,4,6,8,10,12,14,-1,-1,-1,-1,-1,-1,-1,-1],"split_conditions":[3.3E1,1.3152791E2,3.9E1,1.1E1,3E0,3.6E1,4.2E1,1.3703697E4,8.158894E3,1.1669706E4,7.088482E3,5.070522E3,1.6586526E3,9.020039E3,3.4708218E3],"split_indices":[0,4,0,0,0,0,0,0,0,0,0,0,0,0,0],"split_type":[0,0,0,0,0,0,0,0,0,0,0,0,0,0,0],"sum_hessian":[5.832E3,4.135E3,1.697E3,7.65E2,3.37E3,7.84E2,9.13E2,2.48E2,5.17E2,2.56E2,3.114E3,3.92E2,3.92E2,3.92E2,5.21E2],"tree_param":{"num_deleted":"0","num_feature":"16","num_nodes":"15","size_leaf_vector":"1"}},{"base_weights":[6.911174E5,7.8315975E5,4.6651297E5,9.8725344E5,7.3655075E5,3.3352703E5,5.802191E5,1.3567211E4,8.077463E3,5.052871E3,8.0005986E3,5.019946E3,1.6421083E3,8.930068E3,3.43618E3],"categories":[],"categories_nodes":[],"categories_segments":[],"categories_sizes":[],"default_left":[0,0,0,0,0,0,0,0,0,0,0,0,0,0,0],"id":40,"left_children":[1,3,5,7,9,11,13,-1,-1,-1,-1,-1,-1,-1,-1],"loss_changes":[1.202207E14,3.8617125E13,2.548251E13,4.9706797E13,4.9106777E13,2.2309125E13,6.7334585E13,0E0,0E0,0E0,0E0,0E0,0E0,0E0,0E0],"parents":[2147483647,0,0,1,1,2,2,3,3,4,4,5,5,6,6],"right_children":[2,4,6,8,10,12,14,-1,-1,-1,-1,-1,-1,-1,-1],"split_conditions":[3.3E1,1.3152791E2,3.9E1,1.1E1,6.842E0,3.6E1,4.2E1,1.3567211E4,8.077463E3,5.052871E3,8.0005986E3,5.019946E3,1.6421083E3,8.930068E3,3.43618E3],"split_indices":[0,4,0,0,5,0,0,0,0,0,0,0,0,0,0],"split_type":[0,0,0,0,0,0,0,0,0,0,0,0,0,0,0],"sum_hessian":[5.832E3,4.135E3,1.697E3,7.65E2,3.37E3,7.84E2,9.13E2,2.48E2,5.17E2,7.28E2,2.642E3,3.92E2,3.92E2,3.92E2,5.21E2],"tree_param":{"num_deleted":"0","num_feature":"16","num_nodes":"15","size_leaf_vector":"1"}},{"base_weights":[6.8421544E5,7.958867E5,5.021144E5,9.068961E5,6.717529E5,3.249219E5,5.7542694E5,1.1663841E4,7.8669756E3,3.937809E3,8.178329E3,1.2189154E3,3.752515E3,3.071487E3,6.2872476E3],"categories":[],"categories_nodes":[],"categories_segments":[],"categories_sizes":[],"default_left":[0,0,0,0,0,0,0,0,0,0,0,0,0,0,0],"id":41,"left_children":[1,3,5,7,9,11,13,-1,-1,-1,-1,-1,-1,-1,-1],"loss_changes":[1.18217096E14,4.919187E13,2.865176E13,5.84996E13,6.911448E13,6.6166823E12,2.224142E13,0E0,0E0,0E0,0E0,0E0,0E0,0E0,0E0],"parents":[2147483647,0,0,1,1,2,2,3,3,4,4,5,5,6,6],"right_children":[2,4,6,8,10,12,14,-1,-1,-1,-1,-1,-1,-1,-1],"split_conditions":[2.9E1,1.8941853E2,1.3152791E2,1.5E1,6.842E0,3.4E1,3.1E1,1.1663841E4,7.8669756E3,3.937809E3,8.178329E3,1.2189154E3,3.752515E3,3.071487E3,6.2872476E3],"split_indices":[0,4,4,0,5,0,0,0,0,0,0,0,0,0,0],"split_type":[0,0,0,0,0,0,0,0,0,0,0,0,0,0,0],"sum_hessian":[5.832E3,3.613E3,2.219E3,1.904E3,1.709E3,6.51E2,1.568E3,6E2,1.304E3,5.9E2,1.119E3,1.3E2,5.21E2,2.61E2,1.307E3],"tree_param":{"num_deleted":"0","num_feature":"16","num_nodes":"15","size_leaf_vector":"1"}},{"base_weights":[6.773811E5,7.6779925E5,4.5674128E5,1.1393702E6,7.4298956E5,3.2560312E5,5.688711E5,9.703196E3,1.3047738E4,8.629419E3,6.0994243E3,4.932376E3,1.5714012E3,8.778283E3,3.3517568E3],"categories":[],"categories_nodes":[],"categories_segments":[],"categories_sizes":[],"default_left":[0,0,0,0,0,0,0,0,0,0,0,0,0,0,0],"id":42,"left_children":[1,3,5,7,9,11,13,-1,-1,-1,-1,-1,-1,-1,-1],"loss_changes":[1.1601646E14,3.728166E13,2.4783035E13,5.920042E12,6.139562E13,2.2091055E13,6.569827E13,0E0,0E0,0E0,0E0,0E0,0E0,0E0,0E0],"parents":[2147483647,0,0,1,1,2,2,3,3,4,4,5,5,6,6],"right_children":[2,4,6,8,10,12,14,-1,-1,-1,-1,-1,-1,-1,-1],"split_conditions":[3.3E1,3E0,3.9E1,2E0,1.8941853E2,3.6E1,4.2E1,9.703196E3,1.3047738E4,8.629419E3,6.0994243E3,4.932376E3,1.5714012E3,8.778283E3,3.3517568E3],"split_indices":[0,0,0,0,4,0,0,0,0,0,0,0,0,0,0],"split_type":[0,0,0,0,0,0,0,0,0,0,0,0,0,0,0],"sum_hessian":[5.832E3,4.135E3,1.697E3,2.56E2,3.879E3,7.84E2,9.13E2,1.3E2,1.26E2,2.037E3,1.842E3,3.92E2,3.92E2,3.92E2,5.21E2],"tree_param":{"num_deleted":"0","num_feature":"16","num_nodes":"15","size_leaf_vector":"1"}},{"base_weights":[6.7061694E5,7.601303E5,4.5218484E5,1.128065E6,7.3556344E5,3.2235538E5,5.631957E5,9.606905E3,1.2918287E4,8.543167E3,6.0384634E3,4.8831777E3,1.5557272E3,8.690723E3,3.3183037E3],"categories":[],"categories_nodes":[],"categories_segments":[],"categories_sizes":[],"default_left":[0,0,0,0,0,0,0,0,0,0,0,0,0,0,0],"id":43,"left_children":[1,3,5,7,9,11,13,-1,-1,-1,-1,-1,-1,-1,-1],"loss_changes":[1.13706575E14,3.655527E13,2.4290859E13,5.803306E12,6.017437E13,2.1652558E13,6.439468E13,0E0,0E0,0E0,0E0,0E0,0E0,0E0,0E0],"parents":[2147483647,0,0,1,1,2,2,3,3,4,4,5,5,6,6],"right_children":[2,4,6,8,10,12,14,-1,-1,-1,-1,-1,-1,-1,-1],"split_conditions":[3.3E1,3E0,3.9E1,2E0,1.8941853E2,3.6E1,4.2E1,9.606905E3,1.2918287E4,8.543167E3,6.0384634E3,4.8831777E3,1.5557272E3,8.690723E3,3.3183037E3],"split_indices":[0,0,0,0,4,0,0,0,0,0,0,0,0,0,0],"split_type":[0,0,0,0,0,0,0,0,0,0,0,0,0,0,0],"sum_hessian":[5.832E3,4.135E3,1.697E3,2.56E2,3.879E3,7.84E2,9.13E2,1.3E2,1.26E2,2.037E3,1.842E3,3.92E2,3.92E2,3.92E2,5.21E2],"tree_param":{"num_deleted":"0","num_feature":"16","num_nodes":"15","size_leaf_vector":"1"}},{"base_weights":[6.639203E5,7.724095E5,4.870087E5,8.806739E5,6.5134744E5,3.1446772E5,5.5839794E5,1.1375957E4,7.6167715E3,3.7761536E3,7.952084E3,1.1094132E3,3.6494185E3,2.8948005E3,6.118368E3],"categories":[],"categories_nodes":[],"categories_segments":[],"categories_sizes":[],"default_left":[0,0,0,0,0,0,0,0,0,0,0,0,0,0,0],"id":44,"left_children":[1,3,5,7,9,11,13,-1,-1,-1,-1,-1,-1,-1,-1],"loss_changes":[1.1157681E14,4.6793937E13,2.7169426E13,5.7374857E13,6.70384E13,6.657388E12,2.2370471E13,0E0,0E0,0E0,0E0,0E0,0E0,0E0,0E0],"parents":[2147483647,0,0,1,1,2,2,3,3,4,4,5,5,6,6],"right_children":[2,4,6,8,10,12,14,-1,-1,-1,-1,-1,-1,-1,-1],"split_conditions":[2.9E1,1.8941853E2,1.3152791E2,1.5E1,6.842E0,3.4E1,3.1E1,1.1375957E4,7.6167715E3,3.7761536E3,7.952084E3,1.1094132E3,3.6494185E3,2.8948005E3,6.118368E3],"split_indices":[0,4,4,0,5,0,0,0,0,0,0,0,0,0,0],"split_type":[0,0,0,0,0,0,0,0,0,0,0,0,0,0,0],"sum_hessian":[5.832E3,3.613E3,2.219E3,1.904E3,1.709E3,6.51E2,1.568E3,6E2,1.304E3,5.9E2,1.119E3,1.3E2,5.21E2,2.61E2,1.307E3],"tree_param":{"num_deleted":"0","num_feature":"16","num_nodes":"15","size_leaf_vector":"1"}},{"base_weights":[6.5728875E5,7.452274E5,4.4270012E5,1.1090321E6,7.2093794E5,3.1467984E5,5.5216756E5,9.432656E3,1.2712871E4,8.373629E3,5.918033E3,4.798241E3,1.4873484E3,8.543009E3,3.2364153E3],"categories":[],"categories_nodes":[],"categories_segments":[],"categories_sizes":[],"default_left":[0,0,0,0,0,0,0,0,0,0,0,0,0,0,0],"id":45,"left_children":[1,3,5,7,9,11,13,-1,-1,-1,-1,-1,-1,-1,-1],"loss_changes":[1.0974232E14,3.574889E13,2.3622119E13,5.7132125E12,5.7838177E13,2.1441458E13,6.2830942E13,0E0,0E0,0E0,0E0,0E0,0E0,0E0,0E0],"parents":[2147483647,0,0,1,1,2,2,3,3,4,4,5,5,6,6],"right_children":[2,4,6,8,10,12,14,-1,-1,-1,-1,-1,-1,-1,-1],"split_conditions":[3.3E1,3E0,3.9E1,2E0,1.8941853E2,3.6E1,4.2E1,9.432656E3,1.2712871E4,8.373629E3,5.918033E3,4.798241E3,1.4873484E3,8.543009E3,3.2364153E3],"split_indices":[0,0,0,0,4,0,0,0,0,0,0,0,0,0,0],"split_type":[0,0,0,0,0,0,0,0,0,0,0,0,0,0,0],"sum_hessian":[5.832E3,4.135E3,1.697E3,2.56E2,3.879E3,7.84E2,9.13E2,1.3E2,1.26E2,2.037E3,1.842E3,3.92E2,3.92E2,3.92E2,5.21E2],"tree_param":{"num_deleted":"0","num_feature":"16","num_nodes":"15","size_leaf_vector":"1"}},{"base_weights":[6.507252E5,7.3778394E5,4.3828378E5,1.098028E6,7.1373225E5,3.1154106E5,5.4665875E5,9.339049E3,1.2586743E4,6.163236E2,7.3650186E3,4.750381E3,1.4725128E3,8.457797E3,3.204113E3],"categories":[],"categories_nodes":[],"categories_segments":[],"categories_sizes":[],"default_left":[0,0,0,0,0,0,0,0,0,0,0,0,0,0,0],"id":46,"left_children":[1,3,5,7,9,11,13,-1,-1,-1,-1,-1,-1,-1,-1],"loss_changes":[1.0755699E14,3.5052839E13,2.3152994E13,5.6005367E12,5.7565312E13,2.1015854E13,6.158426E13,0E0,0E0,0E0,0E0,0E0,0E0,0E0,0E0],"parents":[2147483647,0,0,1,1,2,2,3,3,4,4,5,5,6,6],"right_children":[2,4,6,8,10,12,14,-1,-1,-1,-1,-1,-1,-1,-1],"split_conditions":[3.3E1,3E0,3.9E1,2E0,4E0,3.6E1,4.2E1,9.339049E3,1.2586743E4,6.163236E2,7.3650186E3,4.750381E3,1.4725128E3,8.457797E3,3.204113E3],"split_indices":[0,0,0,0,0,0,0,0,0,0,0,0,0,0,0],"split_type":[0,0,0,0,0,0,0,0,0,0,0,0,0,0,0],"sum_hessian":[5.832E3,4.135E3,1.697E3,2.56E2,3.879E3,7.84E2,9.13E2,1.3E2,1.26E2,1.31E2,3.748E3,3.92E2,3.92E2,3.92E2,5.21E2],"tree_param":{"num_deleted":"0","num_feature":"16","num_nodes":"15","size_leaf_vector":"1"}},{"base_weights":[6.442261E5,7.4974906E5,4.7215222E5,8.5614675E5,6.307798E5,3.043495E5,5.4158194E5,1.1105263E4,7.3833965E3,3.6083733E3,7.7265947E3,1.0036466E3,3.5495806E3,2.7213616E3,5.951394E3],"categories":[],"categories_nodes":[],"categories_segments":[],"categories_sizes":[],"default_left":[0,0,0,0,0,0,0,0,0,0,0,0,0,0,0],"id":47,"left_children":[1,3,5,7,9,11,13,-1,-1,-1,-1,-1,-1,-1,-1],"loss_changes":[1.0556036E14,4.5206007E13,2.5699272E13,5.62685E13,6.521304E13,6.6952165E12,2.248006E13,0E0,0E0,0E0,0E0,0E0,0E0,0E0,0E0],"parents":[2147483647,0,0,1,1,2,2,3,3,4,4,5,5,6,6],"right_children":[2,4,6,8,10,12,14,-1,-1,-1,-1,-1,-1,-1,-1],"split_conditions":[2.9E1,1.8941853E2,1.3152791E2,1.5E1,6.842E0,3.4E1,3.1E1,1.1105263E4,7.3833965E3,3.6083733E3,7.7265947E3,1.0036466E3,3.5495806E3,2.7213616E3,5.951394E3],"split_indices":[0,4,4,0,5,0,0,0,0,0,0,0,0,0,0],"split_type":[0,0,0,0,0,0,0,0,0,0,0,0,0,0,0],"sum_hessian":[5.832E3,3.613E3,2.219E3,1.904E3,1.709E3,6.51E2,1.568E3,6E2,1.304E3,5.9E2,1.119E3,1.3E2,5.21E2,2.61E2,1.307E3],"tree_param":{"num_deleted":"0","num_feature":"16","num_nodes":"15","size_leaf_vector":"1"}},{"base_weights":[6.3779125E5,7.2332194E5,4.290793E5,1.0795166E6,6.9954225E5,3.041077E5,5.3594325E5,9.169694E3,1.2386831E4,5.431982E2,7.220735E3,4.668008E3,1.4064076E3,8.314071E3,3.1246963E3],"categories":[],"categories_nodes":[],"categories_segments":[],"categories_sizes":[],"default_left":[0,0,0,0,0,0,0,0,0,0,0,0,0,0,0],"id":48,"left_children":[1,3,5,7,9,11,13,-1,-1,-1,-1,-1,-1,-1,-1],"loss_changes":[1.0381607E14,3.4277597E13,2.2513715E13,5.513295E12,5.636715E13,2.081139E13,6.009015E13,0E0,0E0,0E0,0E0,0E0,0E0,0E0,0E0],"parents":[2147483647,0,0,1,1,2,2,3,3,4,4,5,5,6,6],"right_children":[2,4,6,8,10,12,14,-1,-1,-1,-1,-1,-1,-1,-1],"split_conditions":[3.3E1,3E0,3.9E1,2E0,4E0,3.6E1,4.2E1,9.169694E3,1.2386831E4,5.431982E2,7.220735E3,4.668008E3,1.4064076E3,8.314071E3,3.1246963E3],"split_indices":[0,0,0,0,0,0,0,0,0,0,0,0,0,0,0],"split_type":[0,0,0,0,0,0,0,0,0,0,0,0,0,0,0],"sum_hessian":[5.832E3,4.135E3,1.697E3,2.56E2,3.879E3,7.84E2,9.13E2,1.3E2,1.26E2,1.31E2,3.748E3,3.92E2,3.92E2,3.92E2,5.21E2],"tree_param":{"num_deleted":"0","num_feature":"16","num_nodes":"15","size_leaf_vector":"1"}},{"base_weights":[6.314214E5,7.350329E5,4.624648E5,8.40378E5,6.172449E5,2.979179E5,5.3054775E5,1.0922308E4,7.237467E3,3.4102395E3,7.5288843E3,9.4736304E2,3.4833718E3,2.6223198E3,5.838873E3],"categories":[],"categories_nodes":[],"categories_segments":[],"categories_sizes":[],"default_left":[0,0,0,0,0,0,0,0,0,0,0,0,0,0,0],"id":49,"left_children":[1,3,5,7,9,11,13,-1,-1,-1,-1,-1,-1,-1,-1],"loss_changes":[1.0177167E14,4.4325136E13,2.4712235E13,5.516684E13,6.381288E13,6.646265E12,2.2302155E13,0E0,0E0,0E0,0E0,0E0,0E0,0E0,0E0],"parents":[2147483647,0,0,1,1,2,2,3,3,4,4,5,5,6,6],"right_children":[2,4,6,8,10,12,14,-1,-1,-1,-1,-1,-1,-1,-1],"split_conditions":[2.9E1,1.8941853E2,1.3152791E2,1.5E1,6.833E0,3.4E1,3.1E1,1.0922308E4,7.237467E3,3.4102395E3,7.5288843E3,9.4736304E2,3.4833718E3,2.6223198E3,5.838873E3],"split_indices":[0,4,4,0,5,0,0,0,0,0,0,0,0,0,0],"split_type":[0,0,0,0,0,0,0,0,0,0,0,0,0,0,0],"sum_hessian":[5.832E3,3.613E3,2.219E3,1.904E3,1.709E3,6.51E2,1.568E3,6E2,1.304E3,5.64E2,1.145E3,1.3E2,5.21E2,2.61E2,1.307E3],"tree_param":{"num_deleted":"0","num_feature":"16","num_nodes":"15","size_leaf_vector":"1"}},{"base_weights":[6.251143E5,7.0914625E5,4.2006066E5,1.0613859E6,6.856322E5,2.9683616E5,5.2543394E5,9.003984E3,1.2190863E4,4.6870535E2,7.0793965E3,4.587239E3,1.3419309E3,8.172902E3,3.0469646E3],"categories":[],"categories_nodes":[],"categories_segments":[],"categories_sizes":[],"default_left":[0,0,0,0,0,0,0,0,0,0,0,0,0,0,0],"id":50,"left_children":[1,3,5,7,9,11,13,-1,-1,-1,-1,-1,-1,-1,-1],"loss_changes":[1.0021071E14,3.35292E13,2.189185E13,5.426993E12,5.525368E13,2.0607425E13,5.8634155E13,0E0,0E0,0E0,0E0,0E0,0E0,0E0,0E0],"parents":[2147483647,0,0,1,1,2,2,3,3,4,4,5,5,6,6],"right_children":[2,4,6,8,10,12,14,-1,-1,-1,-1,-1,-1,-1,-1],"split_conditions":[3.3E1,3E0,3.9E1,2E0,4E0,3.6E1,4.2E1,9.003984E3,1.2190863E4,4.6870535E2,7.0793965E3,4.587239E3,1.3419309E3,8.172902E3,3.0469646E3],"split_indices":[0,0,0,0,0,0,0,0,0,0,0,0,0,0,0],"split_type":[0,0,0,0,0,0,0,0,0,0,0,0,0,0,0],"sum_hessian":[5.832E3,4.135E3,1.697E3,2.56E2,3.879E3,7.84E2,9.13E2,1.3E2,1.26E2,1.31E2,3.748E3,3.92E2,3.92E2,3.92E2,5.21E2],"tree_param":{"num_deleted":"0","num_feature":"16","num_nodes":"15","size_leaf_vector":"1"}},{"base_weights":[6.1887106E5,7.0206175E5,4.1587012E5,8.903492E5,6.590685E5,2.9387534E5,5.2019184E5,1.2513002E4,7.15123E3,4.4222783E3,7.186287E3,4.5414834E3,1.3285457E3,8.0913804E3,3.0165535E3],"categories":[],"categories_nodes":[],"categories_segments":[],"categories_sizes":[],"default_left":[0,0,0,0,0,0,0,0,0,0,0,0,0,0,0],"id":51,"left_children":[1,3,5,7,9,11,13,-1,-1,-1,-1,-1,-1,-1,-1],"loss_changes":[9.821476E13,3.289435E13,2.1457053E13,4.7553207E13,4.321905E13,2.019838E13,5.747074E13,0E0,0E0,0E0,0E0,0E0,0E0,0E0,0E0],"parents":[2147483647,0,0,1,1,2,2,3,3,4,4,5,5,6,6],"right_children":[2,4,6,8,10,12,14,-1,-1,-1,-1,-1,-1,-1,-1],"split_conditions":[3.3E1,1.3152791E2,3.9E1,1.1E1,6.842E0,3.6E1,4.2E1,1.2513002E4,7.15123E3,4.4222783E3,7.186287E3,4.5414834E3,1.3285457E3,8.0913804E3,3.0165535E3],"split_indices":[0,4,0,0,5,0,0,0,0,0,0,0,0,0,0],"split_type":[0,0,0,0,0,0,0,0,0,0,0,0,0,0,0],"sum_hessian":[5.832E3,4.135E3,1.697E3,7.65E2,3.37E3,7.84E2,9.13E2,2.48E2,5.17E2,7.28E2,2.642E3,3.92E2,3.92E2,3.92E2,5.21E2],"tree_param":{"num_deleted":"0","num_feature":"16","num_nodes":"15","size_leaf_vector":"1"}},{"base_weights":[6.126906E5,7.1361044E5,4.4812447E5,8.172288E5,5.977586E5,2.9377003E5,5.1681438E5,1.0649016E4,7.0254023E3,3.263038E3,7.3106943E3,1.0769628E3,3.4431763E3,2.4273303E3,5.6842793E3],"categories":[],"categories_nodes":[],"categories_segments":[],"categories_sizes":[],"default_left":[0,0,0,0,0,0,0,0,0,0,0,0,0,0,0],"id":52,"left_children":[1,3,5,7,9,11,13,-1,-1,-1,-1,-1,-1,-1,-1],"loss_changes":[9.655462E13,4.2895315E13,2.338593E13,5.3363895E13,6.164278E13,6.41515E12,2.1576607E13,0E0,0E0,0E0,0E0,0E0,0E0,0E0,0E0],"parents":[2147483647,0,0,1,1,2,2,3,3,4,4,5,5,6,6],"right_children":[2,4,6,8,10,12,14,-1,-1,-1,-1,-1,-1,-1,-1],"split_conditions":[2.9E1,1.8941853E2,1.3236484E2,1.5E1,6.833E0,3.4E1,3.1E1,1.0649016E4,7.0254023E3,3.263038E3,7.3106943E3,1.0769628E3,3.4431763E3,2.4273303E3,5.6842793E3],"split_indices":[0,4,4,0,5,0,0,0,0,0,0,0,0,0,0],"split_type":[0,0,0,0,0,0,0,0,0,0,0,0,0,0,0],"sum_hessian":[5.832E3,3.613E3,2.219E3,1.904E3,1.709E3,6.85E2,1.534E3,6E2,1.304E3,5.64E2,1.145E3,1.47E2,5.38E2,2.44E2,1.29E3],"tree_param":{"num_deleted":"0","num_feature":"16","num_nodes":"15","size_leaf_vector":"1"}},{"base_weights":[6.0657075E5,6.8831375E5,4.0710334E5,1.0365464E6,6.6507044E5,2.8677516E5,5.1000325E5,8.770768E3,1.1928769E4,3.3219296E2,6.871401E3,4.462197E3,1.2660093E3,7.9549443E3,2.9408743E3],"categories":[],"categories_nodes":[],"categories_segments":[],"categories_sizes":[],"default_left":[0,0,0,0,0,0,0,0,0,0,0,0,0,0,0],"id":53,"left_children":[1,3,5,7,9,11,13,-1,-1,-1,-1,-1,-1,-1,-1],"loss_changes":[9.482711E13,3.278778E13,2.0877987E13,5.3607735E12,5.4082765E13,1.9991554E13,5.610692E13,0E0,0E0,0E0,0E0,0E0,0E0,0E0,0E0],"parents":[2147483647,0,0,1,1,2,2,3,3,4,4,5,5,6,6],"right_children":[2,4,6,8,10,12,14,-1,-1,-1,-1,-1,-1,-1,-1],"split_conditions":[3.3E1,3E0,3.9E1,2E0,4E0,3.6E1,4.2E1,8.770768E3,1.1928769E4,3.3219296E2,6.871401E3,4.462197E3,1.2660093E3,7.9549443E3,2.9408743E3],"split_indices":[0,0,0,0,0,0,0,0,0,0,0,0,0,0,0],"split_type":[0,0,0,0,0,0,0,0,0,0,0,0,0,0,0],"sum_hessian":[5.832E3,4.135E3,1.697E3,2.56E2,3.879E3,7.84E2,9.13E2,1.3E2,1.26E2,1.31E2,3.748E3,3.92E2,3.92E2,3.92E2,5.21E2],"tree_param":{"num_deleted":"0","num_feature":"16","num_nodes":"15","size_leaf_vector":"1"}},{"base_weights":[6.005127E5,6.9960506E5,4.389269E5,8.02198E5,5.8490375E5,2.8741928E5,5.0635053E5,1.0474104E4,6.8865405E3,3.1635088E3,7.1679507E3,1.01917804E3,3.3782148E3,2.3347227E3,5.5774385E3],"categories":[],"categories_nodes":[],"categories_segments":[],"categories_sizes":[],"default_left":[0,0,0,0,0,0,0,0,0,0,0,0,0,0,0],"id":54,"left_children":[1,3,5,7,9,11,13,-1,-1,-1,-1,-1,-1,-1,-1],"loss_changes":[9.309033E13,4.20586E13,2.253217E13,5.231834E13,6.034107E13,6.3794525E12,2.1396822E13,0E0,0E0,0E0,0E0,0E0,0E0,0E0,0E0],"parents":[2147483647,0,0,1,1,2,2,3,3,4,4,5,5,6,6],"right_children":[2,4,6,8,10,12,14,-1,-1,-1,-1,-1,-1,-1,-1],"split_conditions":[2.9E1,1.8941853E2,1.3236484E2,1.5E1,6.833E0,3.4E1,3.1E1,1.0474104E4,6.8865405E3,3.1635088E3,7.1679507E3,1.01917804E3,3.3782148E3,2.3347227E3,5.5774385E3],"split_indices":[0,4,4,0,5,0,0,0,0,0,0,0,0,0,0],"split_type":[0,0,0,0,0,0,0,0,0,0,0,0,0,0,0],"sum_hessian":[5.832E3,3.613E3,2.219E3,1.904E3,1.709E3,6.85E2,1.534E3,6E2,1.304E3,5.64E2,1.145E3,1.47E2,5.38E2,2.44E2,1.29E3],"tree_param":{"num_deleted":"0","num_feature":"16","num_nodes":"15","size_leaf_vector":"1"}},{"base_weights":[5.945144E5,6.7483706E5,3.9851372E5,1.0191993E6,6.5185356E5,2.7983044E5,5.0001028E5,8.612598E3,1.1740881E4,2.6322052E2,6.737043E3,4.384465E3,1.2050237E3,7.820916E3,2.8668083E3],"categories":[],"categories_nodes":[],"categories_segments":[],"categories_sizes":[],"default_left":[0,0,0,0,0,0,0,0,0,0,0,0,0,0,0],"id":55,"left_children":[1,3,5,7,9,11,13,-1,-1,-1,-1,-1,-1,-1,-1],"loss_changes":[9.156172E13,3.2070655E13,2.0314088E13,5.275797E12,5.3015197E13,1.9785681E13,5.4776906E13,0E0,0E0,0E0,0E0,0E0,0E0,0E0,0E0],"parents":[2147483647,0,0,1,1,2,2,3,3,4,4,5,5,6,6],"right_children":[2,4,6,8,10,12,14,-1,-1,-1,-1,-1,-1,-1,-1],"split_conditions":[3.3E1,3E0,3.9E1,2E0,4E0,3.6E1,4.2E1,8.612598E3,1.1740881E4,2.6322052E2,6.737043E3,4.384465E3,1.2050237E3,7.820916E3,2.8668083E3],"split_indices":[0,0,0,0,0,0,0,0,0,0,0,0,0,0,0],"split_type":[0,0,0,0,0,0,0,0,0,0,0,0,0,0,0],"sum_hessian":[5.832E3,4.135E3,1.697E3,2.56E2,3.879E3,7.84E2,9.13E2,1.3E2,1.26E2,1.31E2,3.748E3,3.92E2,3.92E2,3.92E2,5.21E2],"tree_param":{"num_deleted":"0","num_feature":"16","num_nodes":"15","size_leaf_vector":"1"}},{"base_weights":[5.8857675E5,6.8587425E5,4.299183E5,7.879665E5,5.728708E5,2.8120766E5,4.960978E5,1.0320675E4,6.7608315E3,3.0662983E3,7.026139E3,9.6280444E2,3.3146372E3,2.2443752E3,5.4726797E3],"categories":[],"categories_nodes":[],"categories_segments":[],"categories_sizes":[],"default_left":[0,0,0,0,0,0,0,0,0,0,0,0,0,0,0],"id":56,"left_children":[1,3,5,7,9,11,13,-1,-1,-1,-1,-1,-1,-1,-1],"loss_changes":[8.974965E13,4.1242423E13,2.1708879E13,5.1083536E13,5.9163846E13,6.3435786E12,2.1215058E13,0E0,0E0,0E0,0E0,0E0,0E0,0E0,0E0],"parents":[2147483647,0,0,1,1,2,2,3,3,4,4,5,5,6,6],"right_children":[2,4,6,8,10,12,14,-1,-1,-1,-1,-1,-1,-1,-1],"split_conditions":[2.9E1,1.8850244E2,1.3236484E2,1.5E1,6.833E0,3.4E1,3.1E1,1.0320675E4,6.7608315E3,3.0662983E3,7.026139E3,9.6280444E2,3.3146372E3,2.2443752E3,5.4726797E3],"split_indices":[0,4,4,0,5,0,0,0,0,0,0,0,0,0,0],"split_type":[0,0,0,0,0,0,0,0,0,0,0,0,0,0,0],"sum_hessian":[5.832E3,3.613E3,2.219E3,1.895E3,1.718E3,6.85E2,1.534E3,5.93E2,1.302E3,5.64E2,1.154E3,1.47E2,5.38E2,2.44E2,1.29E3],"tree_param":{"num_deleted":"0","num_feature":"16","num_nodes":"15","size_leaf_vector":"1"}},{"base_weights":[5.826977E5,6.6162706E5,3.9009775E5,1.00216475E6,6.389003E5,2.7303794E5,4.902092E5,8.457404E3,1.1556248E4,1.9627905E2,6.6053403E3,4.308256E3,1.145555E3,7.6892515E3,2.7943218E3],"categories":[],"categories_nodes":[],"categories_segments":[],"categories_sizes":[],"default_left":[0,0,0,0,0,0,0,0,0,0,0,0,0,0,0],"id":57,"left_children":[1,3,5,7,9,11,13,-1,-1,-1,-1,-1,-1,-1,-1],"loss_changes":[8.8413915E13,3.1369502E13,1.9765054E13,5.191894E12,5.1968165E13,1.9580806E13,5.3479825E13,0E0,0E0,0E0,0E0,0E0,0E0,0E0,0E0],"parents":[2147483647,0,0,1,1,2,2,3,3,4,4,5,5,6,6],"right_children":[2,4,6,8,10,12,14,-1,-1,-1,-1,-1,-1,-1,-1],"split_conditions":[3.3E1,3E0,3.9E1,2E0,4E0,3.6E1,4.2E1,8.457404E3,1.1556248E4,1.9627905E2,6.6053403E3,4.308256E3,1.145555E3,7.6892515E3,2.7943218E3],"split_indices":[0,0,0,0,0,0,0,0,0,0,0,0,0,0,0],"split_type":[0,0,0,0,0,0,0,0,0,0,0,0,0,0,0],"sum_hessian":[5.832E3,4.135E3,1.697E3,2.56E2,3.879E3,7.84E2,9.13E2,1.3E2,1.26E2,1.31E2,3.748E3,3.92E2,3.92E2,3.92E2,5.21E2],"tree_param":{"num_deleted":"0","num_feature":"16","num_nodes":"15","size_leaf_vector":"1"}},{"base_weights":[5.76878E5,6.550173E5,3.8620616E5,9.92221E5,6.3251306E5,2.703145E5,4.853186E5,8.373476E3,1.1441596E4,1.9433112E2,6.5393047E3,4.265283E3,1.1341285E3,7.6125547E3,2.7664324E3],"categories":[],"categories_nodes":[],"categories_segments":[],"categories_sizes":[],"default_left":[0,0,0,0,0,0,0,0,0,0,0,0,0,0,0],"id":58,"left_children":[1,3,5,7,9,11,13,-1,-1,-1,-1,-1,-1,-1,-1],"loss_changes":[8.665258E13,3.0758408E13,1.937255E13,5.089469E12,5.093415E13,1.9192133E13,5.241865E13,0E0,0E0,0E0,0E0,0E0,0E0,0E0,0E0],"parents":[2147483647,0,0,1,1,2,2,3,3,4,4,5,5,6,6],"right_children":[2,4,6,8,10,12,14,-1,-1,-1,-1,-1,-1,-1,-1],"split_conditions":[3.3E1,3E0,3.9E1,2E0,4E0,3.6E1,4.2E1,8.373476E3,1.1441596E4,1.9433112E2,6.5393047E3,4.265283E3,1.1341285E3,7.6125547E3,2.7664324E3],"split_indices":[0,0,0,0,0,0,0,0,0,0,0,0,0,0,0],"split_type":[0,0,0,0,0,0,0,0,0,0,0,0,0,0,0],"sum_hessian":[5.832E3,4.135E3,1.697E3,2.56E2,3.879E3,7.84E2,9.13E2,1.3E2,1.26E2,1.31E2,3.748E3,3.92E2,3.92E2,3.92E2,5.21E2],"tree_param":{"num_deleted":"0","num_feature":"16","num_nodes":"15","size_leaf_vector":"1"}},{"base_weights":[5.711165E5,6.658682E5,4.1661034E5,7.669581E5,5.5398194E5,2.85679E5,4.8860138E5,1.0086417E4,6.561929E3,2.9076667E3,6.822613E3,1.3269019E3,3.3696848E3,1.9411498E3,5.3407944E3],"categories":[],"categories_nodes":[],"categories_segments":[],"categories_sizes":[],"default_left":[0,0,0,0,0,0,0,0,0,0,0,0,0,0,0],"id":59,"left_children":[1,3,5,7,9,11,13,-1,-1,-1,-1,-1,-1,-1,-1],"loss_changes":[8.511592E13,4.0451613E13,2.0785863E13,5.0094284E13,5.784378E13,6.154193E12,1.9061233E13,0E0,0E0,0E0,0E0,0E0,0E0,0E0,0E0],"parents":[2147483647,0,0,1,1,2,2,3,3,4,4,5,5,6,6],"right_children":[2,4,6,8,10,12,14,-1,-1,-1,-1,-1,-1,-1,-1],"split_conditions":[2.9E1,1.8850244E2,1.3485516E2,1.5E1,6.833E0,3.4E1,3.1E1,1.0086417E4,6.561929E3,2.9076667E3,6.822613E3,1.3269019E3,3.3696848E3,1.9411498E3,5.3407944E3],"split_indices":[0,4,4,0,5,0,0,0,0,0,0,0,0,0,0],"split_type":[0,0,0,0,0,0,0,0,0,0,0,0,0,0,0],"sum_hessian":[5.832E3,3.613E3,2.219E3,1.895E3,1.718E3,7.89E2,1.43E3,5.93E2,1.302E3,5.64E2,1.154E3,1.99E2,5.9E2,1.92E2,1.238E3],"tree_param":{"num_deleted":"0","num_feature":"16","num_nodes":"15","size_leaf_vector":"1"}},{"base_weights":[5.6541194E5,6.422123E5,3.7800794E5,9.75656E5,6.1996044E5,2.636043E5,4.758513E5,8.222675E3,1.1261933E4,1.300316E2,6.4116567E3,4.1893145E3,1.0760645E3,7.4868115E3,2.695333E3],"categories":[],"categories_nodes":[],"categories_segments":[],"categories_sizes":[],"default_left":[0,0,0,0,0,0,0,0,0,0,0,0,0,0,0],"id":60,"left_children":[1,3,5,7,9,11,13,-1,-1,-1,-1,-1,-1,-1,-1],"loss_changes":[8.370985E13,3.0083159E13,1.8881347E13,5.008284E12,4.99298E13,1.8976021E13,5.1247013E13,0E0,0E0,0E0,0E0,0E0,0E0,0E0,0E0],"parents":[2147483647,0,0,1,1,2,2,3,3,4,4,5,5,6,6],"right_children":[2,4,6,8,10,12,14,-1,-1,-1,-1,-1,-1,-1,-1],"split_conditions":[3.3E1,3E0,3.9E1,2E0,4E0,3.6E1,4.2E1,8.222675E3,1.1261933E4,1.300316E2,6.4116567E3,4.1893145E3,1.0760645E3,7.4868115E3,2.695333E3],"split_indices":[0,0,0,0,0,0,0,0,0,0,0,0,0,0,0],"split_type":[0,0,0,0,0,0,0,0,0,0,0,0,0,0,0],"sum_hessian":[5.832E3,4.135E3,1.697E3,2.56E2,3.879E3,7.84E2,9.13E2,1.3E2,1.26E2,1.31E2,3.748E3,3.92E2,3.92E2,3.92E2,5.21E2],"tree_param":{"num_deleted":"0","num_feature":"16","num_nodes":"15","size_leaf_vector":"1"}},{"base_weights":[5.597649E5,6.528003E5,4.0805775E5,7.52889E5,5.4202606E5,2.7916603E5,4.7892875E5,9.921714E3,6.432293E3,2.8162104E3,6.6894106E3,1.2643484E3,3.3037937E3,1.8580543E3,5.2420225E3],"categories":[],"categories_nodes":[],"categories_segments":[],"categories_sizes":[],"default_left":[0,0,0,0,0,0,0,0,0,0,0,0,0,0,0],"id":61,"left_children":[1,3,5,7,9,11,13,-1,-1,-1,-1,-1,-1,-1,-1],"loss_changes":[8.206139E13,3.9661204E13,2.014531E13,4.911208E13,5.6623372E13,6.1375083E12,1.889299E13,0E0,0E0,0E0,0E0,0E0,0E0,0E0,0E0],"parents":[2147483647,0,0,1,1,2,2,3,3,4,4,5,5,6,6],"right_children":[2,4,6,8,10,12,14,-1,-1,-1,-1,-1,-1,-1,-1],"split_conditions":[2.9E1,1.8850244E2,1.3485516E2,1.5E1,6.833E0,3.4E1,3.1E1,9.921714E3,6.432293E3,2.8162104E3,6.6894106E3,1.2643484E3,3.3037937E3,1.8580543E3,5.2420225E3],"split_indices":[0,4,4,0,5,0,0,0,0,0,0,0,0,0,0],"split_type":[0,0,0,0,0,0,0,0,0,0,0,0,0,0,0],"sum_hessian":[5.832E3,3.613E3,2.219E3,1.895E3,1.718E3,7.89E2,1.43E3,5.93E2,1.302E3,5.64E2,1.154E3,1.99E2,5.9E2,1.92E2,1.238E3],"tree_param":{"num_deleted":"0","num_feature":"16","num_nodes":"15","size_leaf_vector":"1"}},{"base_weights":[5.541737E5,6.296605E5,3.6997603E5,9.593872E5,6.0765806E5,2.570428E5,4.665653E5,8.074692E3,1.1085357E4,6.7635475E1,6.2865303E3,4.1148594E3,1.0194557E3,7.3632505E3,2.6257656E3],"categories":[],"categories_nodes":[],"categories_segments":[],"categories_sizes":[],"default_left":[0,0,0,0,0,0,0,0,0,0,0,0,0,0,0],"id":62,"left_children":[1,3,5,7,9,11,13,-1,-1,-1,-1,-1,-1,-1,-1],"loss_changes":[8.087182E13,2.9422942E13,1.8402106E13,4.928089E12,4.8945045E13,1.8761713E13,5.0102203E13,0E0,0E0,0E0,0E0,0E0,0E0,0E0,0E0],"parents":[2147483647,0,0,1,1,2,2,3,3,4,4,5,5,6,6],"right_children":[2,4,6,8,10,12,14,-1,-1,-1,-1,-1,-1,-1,-1],"split_conditions":[3.3E1,3E0,3.9E1,2E0,4E0,3.6E1,4.2E1,8.074692E3,1.1085357E4,6.7635475E1,6.2865303E3,4.1148594E3,1.0194557E3,7.3632505E3,2.6257656E3],"split_indices":[0,0,0,0,0,0,0,0,0,0,0,0,0,0,0],"split_type":[0,0,0,0,0,0,0,0,0,0,0,0,0,0,0],"sum_hessian":[5.832E3,4.135E3,1.697E3,2.56E2,3.879E3,7.84E2,9.13E2,1.3E2,1.26E2,1.31E2,3.748E3,3.92E2,3.92E2,3.92E2,5.21E2],"tree_param":{"num_deleted":"0","num_feature":"16","num_nodes":"15","size_leaf_vector":"1"}},{"base_weights":[5.4863894E5,6.2337006E5,3.662852E5,9.498678E5,6.015831E5,2.544789E5,4.619106E5,7.994561E3,1.0975376E4,6.696435E1,6.223682E3,4.073816E3,1.009287E3,7.2898047E3,2.599558E3],"categories":[],"categories_nodes":[],"categories_segments":[],"categories_sizes":[],"default_left":[0,0,0,0,0,0,0,0,0,0,0,0,0,0,0],"id":63,"left_children":[1,3,5,7,9,11,13,-1,-1,-1,-1,-1,-1,-1,-1],"loss_changes":[7.92608E13,2.8849698E13,1.8036665E13,4.830865E12,4.797116E13,1.83893E13,4.910805E13,0E0,0E0,0E0,0E0,0E0,0E0,0E0,0E0],"parents":[2147483647,0,0,1,1,2,2,3,3,4,4,5,5,6,6],"right_children":[2,4,6,8,10,12,14,-1,-1,-1,-1,-1,-1,-1,-1],"split_conditions":[3.3E1,3E0,3.9E1,2E0,4E0,3.6E1,4.2E1,7.994561E3,1.0975376E4,6.696435E1,6.223682E3,4.073816E3,1.009287E3,7.2898047E3,2.599558E3],"split_indices":[0,0,0,0,0,0,0,0,0,0,0,0,0,0,0],"split_type":[0,0,0,0,0,0,0,0,0,0,0,0,0,0,0],"sum_hessian":[5.832E3,4.135E3,1.697E3,2.56E2,3.879E3,7.84E2,9.13E2,1.3E2,1.26E2,1.31E2,3.748E3,3.92E2,3.92E2,3.92E2,5.21E2],"tree_param":{"num_deleted":"0","num_feature":"16","num_nodes":"15","size_leaf_vector":"1"}},{"base_weights":[5.4315944E5,6.337603E5,3.95423E5,7.328651E5,5.2408234E5,2.6924875E5,4.648026E5,9.697772E3,6.243013E3,2.666315E3,6.4956772E3,1.1553816E3,3.2081028E3,1.7151161E3,5.101136E3],"categories":[],"categories_nodes":[],"categories_segments":[],"categories_sizes":[],"default_left":[0,0,0,0,0,0,0,0,0,0,0,0,0,0,0],"id":64,"left_children":[1,3,5,7,9,11,13,-1,-1,-1,-1,-1,-1,-1,-1],"loss_changes":[7.7824405E13,3.8898713E13,1.9308562E13,4.8159804E13,5.536139E13,6.2241164E12,1.8929531E13,0E0,0E0,0E0,0E0,0E0,0E0,0E0,0E0],"parents":[2147483647,0,0,1,1,2,2,3,3,4,4,5,5,6,6],"right_children":[2,4,6,8,10,12,14,-1,-1,-1,-1,-1,-1,-1,-1],"split_conditions":[2.9E1,1.8850244E2,1.3485516E2,1.5E1,6.833E0,3.4E1,3.1E1,9.697772E3,6.243013E3,2.666315E3,6.4956772E3,1.1553816E3,3.2081028E3,1.7151161E3,5.101136E3],"split_indices":[0,4,4,0,5,0,0,0,0,0,0,0,0,0,0],"split_type":[0,0,0,0,0,0,0,0,0,0,0,0,0,0,0],"sum_hessian":[5.832E3,3.613E3,2.219E3,1.895E3,1.718E3,7.89E2,1.43E3,5.93E2,1.302E3,5.64E2,1.154E3,1.99E2,5.9E2,1.92E2,1.238E3],"tree_param":{"num_deleted":"0","num_feature":"16","num_nodes":"15","size_leaf_vector":"1"}},{"base_weights":[5.3773406E5,6.1119E5,3.5849288E5,9.3404706E5,5.896473E5,2.4812881E5,4.528882E5,7.8507646E3,1.0803549E4,7.0568295E0,6.102263E3,4.001662E3,9.546003E2,7.1695347E3,2.5321277E3],"categories":[],"categories_nodes":[],"categories_segments":[],"categories_sizes":[],"default_left":[0,0,0,0,0,0,0,0,0,0,0,0,0,0,0],"id":65,"left_children":[1,3,5,7,9,11,13,-1,-1,-1,-1,-1,-1,-1,-1],"loss_changes":[7.658021E13,2.8216056E13,1.757712E13,4.753304E12,4.7024255E13,1.8182727E13,4.801124E13,0E0,0E0,0E0,0E0,0E0,0E0,0E0,0E0],"parents":[2147483647,0,0,1,1,2,2,3,3,4,4,5,5,6,6],"right_children":[2,4,6,8,10,12,14,-1,-1,-1,-1,-1,-1,-1,-1],"split_conditions":[3.3E1,3E0,3.9E1,2E0,4E0,3.6E1,4.2E1,7.8507646E3,1.0803549E4,7.0568295E0,6.102263E3,4.001662E3,9.546003E2,7.1695347E3,2.5321277E3],"split_indices":[0,0,0,0,0,0,0,0,0,0,0,0,0,0,0],"split_type":[0,0,0,0,0,0,0,0,0,0,0,0,0,0,0],"sum_hessian":[5.832E3,4.135E3,1.697E3,2.56E2,3.879E3,7.84E2,9.13E2,1.3E2,1.26E2,1.31E2,3.748E3,3.92E2,3.92E2,3.92E2,5.21E2],"tree_param":{"num_deleted":"0","num_feature":"16","num_nodes":"15","size_leaf_vector":"1"}},{"base_weights":[5.323635E5,6.0508406E5,3.549166E5,9.247792E5,5.8375244E5,2.4565384E5,4.483699E5,7.772857E3,1.0696363E4,6.98674E0,6.041257E3,3.9617473E3,9.450787E2,7.0980225E3,2.506855E3],"categories":[],"categories_nodes":[],"categories_segments":[],"categories_sizes":[],"default_left":[0,0,0,0,0,0,0,0,0,0,0,0,0,0,0],"id":66,"left_children":[1,3,5,7,9,11,13,-1,-1,-1,-1,-1,-1,-1,-1],"loss_changes":[7.505455E13,2.7666032E13,1.7228087E13,4.6595026E12,4.6089026E13,1.7821803E13,4.705858E13,0E0,0E0,0E0,0E0,0E0,0E0,0E0,0E0],"parents":[2147483647,0,0,1,1,2,2,3,3,4,4,5,5,6,6],"right_children":[2,4,6,8,10,12,14,-1,-1,-1,-1,-1,-1,-1,-1],"split_conditions":[3.3E1,3E0,3.9E1,2E0,4E0,3.6E1,4.2E1,7.772857E3,1.0696363E4,6.98674E0,6.041257E3,3.9617473E3,9.450787E2,7.0980225E3,2.506855E3],"split_indices":[0,0,0,0,0,0,0,0,0,0,0,0,0,0,0],"split_type":[0,0,0,0,0,0,0,0,0,0,0,0,0,0,0],"sum_hessian":[5.832E3,4.135E3,1.697E3,2.56E2,3.879E3,7.84E2,9.13E2,1.3E2,1.26E2,1.31E2,3.748E3,3.92E2,3.92E2,3.92E2,5.21E2],"tree_param":{"num_deleted":"0","num_feature":"16","num_nodes":"15","size_leaf_vector":"1"}},{"base_weights":[5.2704656E5,6.152778E5,3.8317497E5,7.134078E5,5.0668575E5,2.5965303E5,4.5109888E5,9.479728E3,6.059289E3,2.5215151E3,6.307594E3,1.0502284E3,3.11542E3,1.5772479E3,4.964339E3],"categories":[],"categories_nodes":[],"categories_segments":[],"categories_sizes":[],"default_left":[0,0,0,0,0,0,0,0,0,0,0,0,0,0,0],"id":67,"left_children":[1,3,5,7,9,11,13,-1,-1,-1,-1,-1,-1,-1,-1],"loss_changes":[7.380821E13,3.814978E13,1.8508893E13,4.722518E13,5.4128735E13,6.3059263E12,1.895416E13,0E0,0E0,0E0,0E0,0E0,0E0,0E0,0E0],"parents":[2147483647,0,0,1,1,2,2,3,3,4,4,5,5,6,6],"right_children":[2,4,6,8,10,12,14,-1,-1,-1,-1,-1,-1,-1,-1],"split_conditions":[2.9E1,1.8850244E2,1.3485516E2,1.5E1,6.833E0,3.4E1,3.1E1,9.479728E3,6.059289E3,2.5215151E3,6.307594E3,1.0502284E3,3.11542E3,1.5772479E3,4.964339E3],"split_indices":[0,4,4,0,5,0,0,0,0,0,0,0,0,0,0],"split_type":[0,0,0,0,0,0,0,0,0,0,0,0,0,0,0],"sum_hessian":[5.832E3,3.613E3,2.219E3,1.895E3,1.718E3,7.89E2,1.43E3,5.93E2,1.302E3,5.64E2,1.154E3,1.99E2,5.9E2,1.92E2,1.238E3],"tree_param":{"num_deleted":"0","num_feature":"16","num_nodes":"15","size_leaf_vector":"1"}},{"base_weights":[5.2178206E5,5.932648E5,3.4735666E5,9.093938E5,5.7217244E5,2.3950847E5,4.3960334E5,7.6331265E3,1.0529153E4,-5.0517963E1,5.923435E3,3.891824E3,8.922507E2,6.9809517E3,2.4414954E3],"categories":[],"categories_nodes":[],"categories_segments":[],"categories_sizes":[],"default_left":[0,0,0,0,0,0,0,0,0,0,0,0,0,0,0],"id":68,"left_children":[1,3,5,7,9,11,13,-1,-1,-1,-1,-1,-1,-1,-1],"loss_changes":[7.2522E13,2.705816E13,1.6787517E13,4.5845085E12,4.517876E13,1.7622679E13,4.600779E13,0E0,0E0,0E0,0E0,0E0,0E0,0E0,0E0],"parents":[2147483647,0,0,1,1,2,2,3,3,4,4,5,5,6,6],"right_children":[2,4,6,8,10,12,14,-1,-1,-1,-1,-1,-1,-1,-1],"split_conditions":[3.3E1,3E0,3.9E1,2E0,4E0,3.6E1,4.2E1,7.6331265E3,1.0529153E4,-5.0517963E1,5.923435E3,3.891824E3,8.922507E2,6.9809517E3,2.4414954E3],"split_indices":[0,0,0,0,0,0,0,0,0,0,0,0,0,0,0],"split_type":[0,0,0,0,0,0,0,0,0,0,0,0,0,0,0],"sum_hessian":[5.832E3,4.135E3,1.697E3,2.56E2,3.879E3,7.84E2,9.13E2,1.3E2,1.26E2,1.31E2,3.748E3,3.92E2,3.92E2,3.92E2,5.21E2],"tree_param":{"num_deleted":"0","num_feature":"16","num_nodes":"15","size_leaf_vector":"1"}},{"base_weights":[5.165708E5,6.0320444E5,3.753048E5,7.003616E5,4.956924E5,2.5369855E5,4.421767E5,1.1050059E4,6.38798E3,2.438711E3,6.1844854E3,9.940459E2,3.0548381E3,1.5026296E3,4.872914E3],"categories":[],"categories_nodes":[],"categories_segments":[],"categories_sizes":[],"default_left":[0,0,0,0,0,0,0,0,0,0,0,0,0,0,0],"id":69,"left_children":[1,3,5,7,9,11,13,-1,-1,-1,-1,-1,-1,-1,-1],"loss_changes":[7.116009E13,3.740326E13,1.794095E13,4.652604E13,5.2987918E13,6.2818594E12,1.8772497E13,0E0,0E0,0E0,0E0,0E0,0E0,0E0,0E0],"parents":[2147483647,0,0,1,1,2,2,3,3,4,4,5,5,6,6],"right_children":[2,4,6,8,10,12,14,-1,-1,-1,-1,-1,-1,-1,-1],"split_conditions":[2.9E1,1.8850244E2,1.3485516E2,1.1E1,6.833E0,3.4E1,3.1E1,1.1050059E4,6.38798E3,2.438711E3,6.1844854E3,9.940459E2,3.0548381E3,1.5026296E3,4.872914E3],"split_indices":[0,4,4,0,5,0,0,0,0,0,0,0,0,0,0],"split_type":[0,0,0,0,0,0,0,0,0,0,0,0,0,0,0],"sum_hessian":[5.832E3,3.613E3,2.219E3,1.895E3,1.718E3,7.89E2,1.43E3,2.48E2,1.647E3,5.64E2,1.154E3,1.99E2,5.9E2,1.92E2,1.238E3],"tree_param":{"num_deleted":"0","num_feature":"16","num_nodes":"15","size_leaf_vector":"1"}},{"base_weights":[5.1141134E5,5.816797E5,3.399501E5,8.94283E5,5.608238E5,2.3349962E5,4.3100444E5,7.4960054E3,1.0364808E4,-1.0628507E2,5.807947E3,3.8232913E3,8.407598E2,6.8659062E3,2.3775469E3],"categories":[],"categories_nodes":[],"categories_segments":[],"categories_sizes":[],"default_left":[0,0,0,0,0,0,0,0,0,0,0,0,0,0,0],"id":70,"left_children":[1,3,5,7,9,11,13,-1,-1,-1,-1,-1,-1,-1,-1],"loss_changes":[7.0079908E13,2.6463575E13,1.6357718E13,4.510454E12,4.4286213E13,1.742519E13,4.498099E13,0E0,0E0,0E0,0E0,0E0,0E0,0E0,0E0],"parents":[2147483647,0,0,1,1,2,2,3,3,4,4,5,5,6,6],"right_children":[2,4,6,8,10,12,14,-1,-1,-1,-1,-1,-1,-1,-1],"split_conditions":[3.3E1,3E0,3.9E1,2E0,4E0,3.6E1,4.2E1,7.4960054E3,1.0364808E4,-1.0628507E2,5.807947E3,3.8232913E3,8.407598E2,6.8659062E3,2.3775469E3],"split_indices":[0,0,0,0,0,0,0,0,0,0,0,0,0,0,0],"split_type":[0,0,0,0,0,0,0,0,0,0,0,0,0,0,0],"sum_hessian":[5.832E3,4.135E3,1.697E3,2.56E2,3.879E3,7.84E2,9.13E2,1.3E2,1.26E2,1.31E2,3.748E3,3.92E2,3.92E2,3.92E2,5.21E2],"tree_param":{"num_deleted":"0","num_feature":"16","num_nodes":"15","size_leaf_vector":"1"}},{"base_weights":[5.0630366E5,5.7586856E5,3.3655878E5,8.854097E5,5.5521706E5,2.3117056E5,4.267045E5,7.421617E3,1.0261976E4,6.5637744E3,4.4305205E3,3.7851555E3,8.3237366E2,6.797421E3,2.3538171E3],"categories":[],"categories_nodes":[],"categories_segments":[],"categories_sizes":[],"default_left":[0,0,0,0,0,0,0,0,0,0,0,0,0,0,0],"id":71,"left_children":[1,3,5,7,9,11,13,-1,-1,-1,-1,-1,-1,-1,-1],"loss_changes":[6.868391E13,2.5947776E13,1.6032878E13,4.4214675E12,4.3734176E13,1.7079307E13,4.4088443E13,0E0,0E0,0E0,0E0,0E0,0E0,0E0,0E0],"parents":[2147483647,0,0,1,1,2,2,3,3,4,4,5,5,6,6],"right_children":[2,4,6,8,10,12,14,-1,-1,-1,-1,-1,-1,-1,-1],"split_conditions":[3.3E1,3E0,3.9E1,2E0,1.8941853E2,3.6E1,4.2E1,7.421617E3,1.0261976E4,6.5637744E3,4.4305205E3,3.7851555E3,8.3237366E2,6.797421E3,2.3538171E3],"split_indices":[0,0,0,0,4,0,0,0,0,0,0,0,0,0,0],"split_type":[0,0,0,0,0,0,0,0,0,0,0,0,0,0,0],"sum_hessian":[5.832E3,4.135E3,1.697E3,2.56E2,3.879E3,7.84E2,9.13E2,1.3E2,1.26E2,2.037E3,1.842E3,3.92E2,3.92E2,3.92E2,5.21E2],"tree_param":{"num_deleted":"0","num_feature":"16","num_nodes":"15","size_leaf_vector":"1"}},{"base_weights":[5.012479E5,5.701168E5,3.332013E5,8.766244E5,5.4966775E5,2.2886473E5,4.2244747E5,7.347968E3,1.0160164E4,-1.4919998E2,5.6939985E3,3.7474001E3,8.2407104E2,6.7296196E3,2.330324E3],"categories":[],"categories_nodes":[],"categories_segments":[],"categories_sizes":[],"default_left":[0,0,0,0,0,0,0,0,0,0,0,0,0,0,0],"id":72,"left_children":[1,3,5,7,9,11,13,-1,-1,-1,-1,-1,-1,-1,-1],"loss_changes":[6.73165E13,2.5441776E13,1.5714463E13,4.334226E12,4.3233678E13,1.6740289E13,4.3213612E13,0E0,0E0,0E0,0E0,0E0,0E0,0E0,0E0],"parents":[2147483647,0,0,1,1,2,2,3,3,4,4,5,5,6,6],"right_children":[2,4,6,8,10,12,14,-1,-1,-1,-1,-1,-1,-1,-1],"split_conditions":[3.3E1,3E0,3.9E1,2E0,4E0,3.6E1,4.2E1,7.347968E3,1.0160164E4,-1.4919998E2,5.6939985E3,3.7474001E3,8.2407104E2,6.7296196E3,2.330324E3],"split_indices":[0,0,0,0,0,0,0,0,0,0,0,0,0,0,0],"split_type":[0,0,0,0,0,0,0,0,0,0,0,0,0,0,0],"sum_hessian":[5.832E3,4.135E3,1.697E3,2.56E2,3.879E3,7.84E2,9.13E2,1.3E2,1.26E2,1.31E2,3.748E3,3.92E2,3.92E2,3.92E2,5.21E2],"tree_param":{"num_deleted":"0","num_feature":"16","num_nodes":"15","size_leaf_vector":"1"}},{"base_weights":[4.9624172E5,5.798081E5,3.5997806E5,6.75311E5,4.7413434E5,2.4132086E5,4.2523256E5,9.062365E3,5.695204E3,2.2577554E3,5.952154E3,8.480154E2,2.9388015E3,1.3223292E3,4.7053013E3],"categories":[],"categories_nodes":[],"categories_segments":[],"categories_sizes":[],"default_left":[0,0,0,0,0,0,0,0,0,0,0,0,0,0,0],"id":73,"left_children":[1,3,5,7,9,11,13,-1,-1,-1,-1,-1,-1,-1,-1],"loss_changes":[6.621202E13,3.6152753E13,1.7086655E13,4.580274E13,5.15586E13,6.4740466E12,1.893027E13,0E0,0E0,0E0,0E0,0E0,0E0,0E0,0E0],"parents":[2147483647,0,0,1,1,2,2,3,3,4,4,5,5,6,6],"right_children":[2,4,6,8,10,12,14,-1,-1,-1,-1,-1,-1,-1,-1],"split_conditions":[2.9E1,1.8850244E2,1.3485516E2,1.5E1,6.833E0,3.4E1,3.1E1,9.062365E3,5.695204E3,2.2577554E3,5.952154E3,8.480154E2,2.9388015E3,1.3223292E3,4.7053013E3],"split_indices":[0,4,4,0,5,0,0,0,0,0,0,0,0,0,0],"split_type":[0,0,0,0,0,0,0,0,0,0,0,0,0,0,0],"sum_hessian":[5.832E3,3.613E3,2.219E3,1.895E3,1.718E3,7.89E2,1.43E3,5.93E2,1.302E3,5.64E2,1.154E3,1.99E2,5.9E2,1.92E2,1.238E3],"tree_param":{"num_deleted":"0","num_feature":"16","num_nodes":"15","size_leaf_vector":"1"}},{"base_weights":[4.9128494E5,5.5898806E5,3.260839E5,8.620692E5,5.3876875E5,2.2310872E5,4.1416862E5,7.2159824E3,1.0001764E4,-2.0175223E2,5.5830513E3,3.6817358E3,7.747614E2,6.618663E3,2.2689011E3],"categories":[],"categories_nodes":[],"categories_segments":[],"categories_sizes":[],"default_left":[0,0,0,0,0,0,0,0,0,0,0,0,0,0,0],"id":74,"left_children":[1,3,5,7,9,11,13,-1,-1,-1,-1,-1,-1,-1,-1],"loss_changes":[6.5057614E13,2.4881148E13,1.5309377E13,4.2640972E12,4.237992E13,1.6555518E13,4.224887E13,0E0,0E0,0E0,0E0,0E0,0E0,0E0,0E0],"parents":[2147483647,0,0,1,1,2,2,3,3,4,4,5,5,6,6],"right_children":[2,4,6,8,10,12,14,-1,-1,-1,-1,-1,-1,-1,-1],"split_conditions":[3.3E1,3E0,3.9E1,2E0,4E0,3.6E1,4.2E1,7.2159824E3,1.0001764E4,-2.0175223E2,5.5830513E3,3.6817358E3,7.747614E2,6.618663E3,2.2689011E3],"split_indices":[0,0,0,0,0,0,0,0,0,0,0,0,0,0,0],"split_type":[0,0,0,0,0,0,0,0,0,0,0,0,0,0,0],"sum_hessian":[5.832E3,4.135E3,1.697E3,2.56E2,3.879E3,7.84E2,9.13E2,1.3E2,1.26E2,1.31E2,3.748E3,3.92E2,3.92E2,3.92E2,5.21E2],"tree_param":{"num_deleted":"0","num_feature":"16","num_nodes":"15","size_leaf_vector":"1"}},{"base_weights":[4.8637822E5,5.684318E5,3.525818E5,6.6298556E5,4.6381147E5,2.3575612E5,4.168304E5,1.0614203E4,6.0238286E3,2.180938E3,5.836094E3,7.963848E2,2.881889E3,1.2536328E3,4.6189604E3],"categories":[],"categories_nodes":[],"categories_segments":[],"categories_sizes":[],"default_left":[0,0,0,0,0,0,0,0,0,0,0,0,0,0,0],"id":75,"left_children":[1,3,5,7,9,11,13,-1,-1,-1,-1,-1,-1,-1,-1],"loss_changes":[6.383704E13,3.5443144E13,1.6564783E13,4.514192E13,5.047402E13,6.4437386E12,1.8738523E13,0E0,0E0,0E0,0E0,0E0,0E0,0E0,0E0],"parents":[2147483647,0,0,1,1,2,2,3,3,4,4,5,5,6,6],"right_children":[2,4,6,8,10,12,14,-1,-1,-1,-1,-1,-1,-1,-1],"split_conditions":[2.9E1,1.8850244E2,1.3485516E2,1.1E1,6.833E0,3.4E1,3.1E1,1.0614203E4,6.0238286E3,2.180938E3,5.836094E3,7.963848E2,2.881889E3,1.2536328E3,4.6189604E3],"split_indices":[0,4,4,0,5,0,0,0,0,0,0,0,0,0,0],"split_type":[0,0,0,0,0,0,0,0,0,0,0,0,0,0,0],"sum_hessian":[5.832E3,3.613E3,2.219E3,1.895E3,1.718E3,7.89E2,1.43E3,2.48E2,1.647E3,5.64E2,1.154E3,1.99E2,5.9E2,1.92E2,1.238E3],"tree_param":{"num_deleted":"0","num_feature":"16","num_nodes":"15","size_leaf_vector":"1"}},{"base_weights":[4.815203E5,5.480797E5,3.191109E5,8.477732E5,5.280876E5,2.1748083E5,4.06048E5,7.0864575E3,9.846071E3,-2.5268451E2,5.4743003E3,3.617375E3,7.2670746E2,6.5096226E3,2.2088064E3],"categories":[],"categories_nodes":[],"categories_segments":[],"categories_sizes":[],"default_left":[0,0,0,0,0,0,0,0,0,0,0,0,0,0,0],"id":76,"left_children":[1,3,5,7,9,11,13,-1,-1,-1,-1,-1,-1,-1,-1],"loss_changes":[6.2878992E13,2.4333137E13,1.491424E13,4.1948576E12,4.1542534E13,1.6372222E13,4.1306227E13,0E0,0E0,0E0,0E0,0E0,0E0,0E0,0E0],"parents":[2147483647,0,0,1,1,2,2,3,3,4,4,5,5,6,6],"right_children":[2,4,6,8,10,12,14,-1,-1,-1,-1,-1,-1,-1,-1],"split_conditions":[3.3E1,3E0,3.9E1,2E0,4E0,3.6E1,4.2E1,7.0864575E3,9.846071E3,-2.5268451E2,5.4743003E3,3.617375E3,7.2670746E2,6.5096226E3,2.2088064E3],"split_indices":[0,0,0,0,0,0,0,0,0,0,0,0,0,0,0],"split_type":[0,0,0,0,0,0,0,0,0,0,0,0,0,0,0],"sum_hessian":[5.832E3,4.135E3,1.697E3,2.56E2,3.879E3,7.84E2,9.13E2,1.3E2,1.26E2,1.31E2,3.748E3,3.92E2,3.92E2,3.92E2,5.21E2],"tree_param":{"num_deleted":"0","num_feature":"16","num_nodes":"15","size_leaf_vector":"1"}},{"base_weights":[4.7671112E5,5.4260425E5,3.159275E5,6.2044344E5,4.667687E5,2.1531155E5,4.0199706E5,8.766519E3,5.129318E3,2.1534614E3,5.610346E3,3.5812935E3,7.194588E2,6.444692E3,2.1867607E3],"categories":[],"categories_nodes":[],"categories_segments":[],"categories_sizes":[],"default_left":[0,0,0,0,0,0,0,0,0,0,0,0,0,0,0],"id":77,"left_children":[1,3,5,7,9,11,13,-1,-1,-1,-1,-1,-1,-1,-1],"loss_changes":[6.1626472E13,2.41251E13,1.4618072E13,5.5687808E13,4.9626703E13,1.6047239E13,4.0486576E13,0E0,0E0,0E0,0E0,0E0,0E0,0E0,0E0],"parents":[2147483647,0,0,1,1,2,2,3,3,4,4,5,5,6,6],"right_children":[2,4,6,8,10,12,14,-1,-1,-1,-1,-1,-1,-1,-1],"split_conditions":[3.3E1,1.8941853E2,3.9E1,1.5E1,6.833E0,3.6E1,4.2E1,8.766519E3,5.129318E3,2.1534614E3,5.610346E3,3.5812935E3,7.194588E2,6.444692E3,2.1867607E3],"split_indices":[0,4,0,0,5,0,0,0,0,0,0,0,0,0,0],"split_type":[0,0,0,0,0,0,0,0,0,0,0,0,0,0,0],"sum_hessian":[5.832E3,4.135E3,1.697E3,2.037E3,2.098E3,7.84E2,9.13E2,6E2,1.437E3,5.73E2,1.525E3,3.92E2,3.92E2,3.92E2,5.21E2],"tree_param":{"num_deleted":"0","num_feature":"16","num_nodes":"15","size_leaf_vector":"1"}},{"base_weights":[4.7194994E5,5.5185894E5,3.4165128E5,6.446289E5,4.4921575E5,2.2728272E5,4.04551E5,1.0366652E4,5.8500405E3,2.0844622E3,5.6660586E3,7.0508704E2,2.7995195E3,1.1331511E3,4.4959053E3],"categories":[],"categories_nodes":[],"categories_segments":[],"categories_sizes":[],"default_left":[0,0,0,0,0,0,0,0,0,0,0,0,0,0,0],"id":78,"left_children":[1,3,5,7,9,11,13,-1,-1,-1,-1,-1,-1,-1,-1],"loss_changes":[6.0544946E13,3.4123716E13,1.5878192E13,4.3712768E13,4.8467632E13,6.5034235E12,1.8719632E13,0E0,0E0,0E0,0E0,0E0,0E0,0E0,0E0],"parents":[2147483647,0,0,1,1,2,2,3,3,4,4,5,5,6,6],"right_children":[2,4,6,8,10,12,14,-1,-1,-1,-1,-1,-1,-1,-1],"split_conditions":[2.9E1,1.8850244E2,1.3485516E2,1.1E1,6.833E0,3.4E1,3.1E1,1.0366652E4,5.8500405E3,2.0844622E3,5.6660586E3,7.0508704E2,2.7995195E3,1.1331511E3,4.4959053E3],"split_indices":[0,4,4,0,5,0,0,0,0,0,0,0,0,0,0],"split_type":[0,0,0,0,0,0,0,0,0,0,0,0,0,0,0],"sum_hessian":[5.832E3,3.613E3,2.219E3,1.895E3,1.718E3,7.89E2,1.43E3,2.48E2,1.647E3,5.64E2,1.154E3,1.99E2,5.9E2,1.92E2,1.238E3],"tree_param":{"num_deleted":"0","num_feature":"16","num_nodes":"15","size_leaf_vector":"1"}},{"base_weights":[4.6723612E5,5.3201906E5,3.0916225E5,8.282657E5,5.122594E5,2.0986552E5,3.941062E5,6.9042305E3,9.63928E3,-3.5248868E2,5.314002E3,3.518921E3,6.7304913E2,6.338543E3,2.1285117E3],"categories":[],"categories_nodes":[],"categories_segments":[],"categories_sizes":[],"default_left":[0,0,0,0,0,0,0,0,0,0,0,0,0,0,0],"id":79,"left_children":[1,3,5,7,9,11,13,-1,-1,-1,-1,-1,-1,-1,-1],"loss_changes":[5.9568244E13,2.3786871E13,1.4239327E13,4.1403988E12,4.068012E13,1.5870527E13,3.958346E13,0E0,0E0,0E0,0E0,0E0,0E0,0E0,0E0],"parents":[2147483647,0,0,1,1,2,2,3,3,4,4,5,5,6,6],"right_children":[2,4,6,8,10,12,14,-1,-1,-1,-1,-1,-1,-1,-1],"split_conditions":[3.3E1,3E0,3.9E1,2E0,4E0,3.6E1,4.2E1,6.9042305E3,9.63928E3,-3.5248868E2,5.314002E3,3.518921E3,6.7304913E2,6.338543E3,2.1285117E3],"split_indices":[0,0,0,0,0,0,0,0,0,0,0,0,0,0,0],"split_type":[0,0,0,0,0,0,0,0,0,0,0,0,0,0,0],"sum_hessian":[5.832E3,4.135E3,1.697E3,2.56E2,3.879E3,7.84E2,9.13E2,1.3E2,1.26E2,1.31E2,3.748E3,3.92E2,3.92E2,3.92E2,5.21E2],"tree_param":{"num_deleted":"0","num_feature":"16","num_nodes":"15","size_leaf_vector":"1"}},{"base_weights":[4.6256962E5,5.2670406E5,3.0607806E5,8.2004744E5,5.071381E5,2.077722E5,3.9017438E5,6.835715E3,9.543647E3,-3.4899036E2,5.260876E3,3.4838215E3,6.663357E2,6.275319E3,2.1072673E3],"categories":[],"categories_nodes":[],"categories_segments":[],"categories_sizes":[],"default_left":[0,0,0,0,0,0,0,0,0,0,0,0,0,0,0],"id":80,"left_children":[1,3,5,7,9,11,13,-1,-1,-1,-1,-1,-1,-1,-1],"loss_changes":[5.838176E13,2.332288E13,1.3956563E13,4.0586938E12,3.9871255E13,1.5555499E13,3.879799E13,0E0,0E0,0E0,0E0,0E0,0E0,0E0,0E0],"parents":[2147483647,0,0,1,1,2,2,3,3,4,4,5,5,6,6],"right_children":[2,4,6,8,10,12,14,-1,-1,-1,-1,-1,-1,-1,-1],"split_conditions":[3.3E1,3E0,3.9E1,2E0,4E0,3.6E1,4.2E1,6.835715E3,9.543647E3,-3.4899036E2,5.260876E3,3.4838215E3,6.663357E2,6.275319E3,2.1072673E3],"split_indices":[0,0,0,0,0,0,0,0,0,0,0,0,0,0,0],"split_type":[0,0,0,0,0,0,0,0,0,0,0,0,0,0,0],"sum_hessian":[5.832E3,4.135E3,1.697E3,2.56E2,3.879E3,7.84E2,9.13E2,1.3E2,1.26E2,1.31E2,3.748E3,3.92E2,3.92E2,3.92E2,5.21E2],"tree_param":{"num_deleted":"0","num_feature":"16","num_nodes":"15","size_leaf_vector":"1"}},{"base_weights":[4.5794972E5,5.357698E5,3.3105794E5,6.276219E5,4.341484E5,2.1906095E5,3.926558E5,8.511857E3,5.252239E3,1.9609233E3,5.5022417E3,6.160701E2,2.7197417E3,1.0166774E3,4.3766636E3],"categories":[],"categories_nodes":[],"categories_segments":[],"categories_sizes":[],"default_left":[0,0,0,0,0,0,0,0,0,0,0,0,0,0,0],"id":81,"left_children":[1,3,5,7,9,11,13,-1,-1,-1,-1,-1,-1,-1,-1],"loss_changes":[5.742197E13,3.3461084E13,1.5229266E13,4.295712E13,4.7392448E13,6.5650504E12,1.8698073E13,0E0,0E0,0E0,0E0,0E0,0E0,0E0,0E0],"parents":[2147483647,0,0,1,1,2,2,3,3,4,4,5,5,6,6],"right_children":[2,4,6,8,10,12,14,-1,-1,-1,-1,-1,-1,-1,-1],"split_conditions":[2.9E1,1.8850244E2,1.3485516E2,1.5E1,6.833E0,3.4E1,3.1E1,8.511857E3,5.252239E3,1.9609233E3,5.5022417E3,6.160701E2,2.7197417E3,1.0166774E3,4.3766636E3],"split_indices":[0,4,4,0,5,0,0,0,0,0,0,0,0,0,0],"split_type":[0,0,0,0,0,0,0,0,0,0,0,0,0,0,0],"sum_hessian":[5.832E3,3.613E3,2.219E3,1.895E3,1.718E3,7.89E2,1.43E3,5.93E2,1.302E3,5.64E2,1.154E3,1.99E2,5.9E2,1.92E2,1.238E3],"tree_param":{"num_deleted":"0","num_feature":"16","num_nodes":"15","size_leaf_vector":"1"}},{"base_weights":[4.5337534E5,5.1643212E5,2.9951422E5,8.0649875E5,4.9708584E5,2.0250234E5,3.8250634E5,6.7132773E3,9.395768E3,-3.9530338E2,5.1584717E3,3.4233794E3,6.2151483E2,6.1719785E3,2.050805E3],"categories":[],"categories_nodes":[],"categories_segments":[],"categories_sizes":[],"default_left":[0,0,0,0,0,0,0,0,0,0,0,0,0,0,0],"id":82,"left_children":[1,3,5,7,9,11,13,-1,-1,-1,-1,-1,-1,-1,-1],"loss_changes":[5.6436944E13,2.2809095E13,1.3593521E13,3.9922392E12,3.908286E13,1.5385164E13,3.7932707E13,0E0,0E0,0E0,0E0,0E0,0E0,0E0,0E0],"parents":[2147483647,0,0,1,1,2,2,3,3,4,4,5,5,6,6],"right_children":[2,4,6,8,10,12,14,-1,-1,-1,-1,-1,-1,-1,-1],"split_conditions":[3.3E1,3E0,3.9E1,2E0,4E0,3.6E1,4.2E1,6.7132773E3,9.395768E3,-3.9530338E2,5.1584717E3,3.4233794E3,6.2151483E2,6.1719785E3,2.050805E3],"split_indices":[0,0,0,0,0,0,0,0,0,0,0,0,0,0,0],"split_type":[0,0,0,0,0,0,0,0,0,0,0,0,0,0,0],"sum_hessian":[5.832E3,4.135E3,1.697E3,2.56E2,3.879E3,7.84E2,9.13E2,1.3E2,1.26E2,1.31E2,3.748E3,3.92E2,3.92E2,3.92E2,5.21E2],"tree_param":{"num_deleted":"0","num_feature":"16","num_nodes":"15","size_leaf_vector":"1"}},{"base_weights":[4.4884728E5,5.2525856E5,3.24253E5,6.1619706E5,4.2465084E5,2.139767E5,3.849057E5,1.0021924E4,5.575023E3,1.8912496E3,5.394971E3,5.6989166E2,2.6674072E3,9.5524585E2,4.2967217E3],"categories":[],"categories_nodes":[],"categories_segments":[],"categories_sizes":[],"default_left":[0,0,0,0,0,0,0,0,0,0,0,0,0,0,0],"id":83,"left_children":[1,3,5,7,9,11,13,-1,-1,-1,-1,-1,-1,-1,-1],"loss_changes":[5.536213E13,3.2803282E13,1.4766215E13,4.2396964E13,4.639568E13,6.528602E12,1.8496965E13,0E0,0E0,0E0,0E0,0E0,0E0,0E0,0E0],"parents":[2147483647,0,0,1,1,2,2,3,3,4,4,5,5,6,6],"right_children":[2,4,6,8,10,12,14,-1,-1,-1,-1,-1,-1,-1,-1],"split_conditions":[2.9E1,1.8850244E2,1.3485516E2,1.1E1,6.833E0,3.4E1,3.1E1,1.0021924E4,5.575023E3,1.8912496E3,5.394971E3,5.6989166E2,2.6674072E3,9.5524585E2,4.2967217E3],"split_indices":[0,4,4,0,5,0,0,0,0,0,0,0,0,0,0],"split_type":[0,0,0,0,0,0,0,0,0,0,0,0,0,0,0],"sum_hessian":[5.832E3,3.613E3,2.219E3,1.895E3,1.718E3,7.89E2,1.43E3,2.48E2,1.647E3,5.64E2,1.154E3,1.99E2,5.9E2,1.92E2,1.238E3],"tree_param":{"num_deleted":"0","num_feature":"16","num_nodes":"15","size_leaf_vector":"1"}},{"base_weights":[4.4436416E5,5.0636372E5,2.9308356E5,7.931906E5,4.8723462E5,1.9735014E5,3.7498472E5,