{"learner":{"attributes":{"best_iteration":"99","best_score":"0.08572797421047573","scikit_learn":"{\"_estimator_type\": \"regressor\"}"},"feature_names":["Store","Holiday_Flag","Temperature","Fuel_Price","CPI","Unemployment","hour","DayOfWeek","week","month","quarter","year","DayOfYear"],"feature_types":["int","int","float","float","float","float","int","int","int","int","int","int","int"],"gradient_booster":{"model":{"gbtree_model_param":{"num_parallel_tree":"1","num_trees":"100"},"iteration_indptr":[0,1,2,3,4,5,6,7,8,9,10,11,12,13,14,15,16,17,18,19,20,21,22,23,24,25,26,27,28,29,30,31,32,33,34,35,36,37,38,39,40,41,42,43,44,45,46,47,48,49,50,51,52,53,54,55,56,57,58,59,60,61,62,63,64,65,66,67,68,69,70,71,72,73,74,75,76,77,78,79,80,81,82,83,84,85,86,87,88,89,90,91,92,93,94,95,96,97,98,99,100],"tree_info":[0,0,0,0,0,0,0,0,0,0,0,0,0,0,0,0,0,0,0,0,0,0,0,0,0,0,0,0,0,0,0,0,0,0,0,0,0,0,0,0,0,0,0,0,0,0,0,0,0,0,0,0,0,0,0,0,0,0,0,0,0,0,0,0,0,0,0,0,0,0,0,0,0,0,0,0,0,0,0,0,0,0,0,0,0,0,0,0,0,0,0,0,0,0,0,0,0,0,0,0],"trees":[{"base_weights":[-3.408789E-8,1.8983376E-1,-2.9754475E-1,3.9691976E-1,-4.8278436E-2,-7.2694206E-1,-1.2018614E-1,6.8649316E-1,2.4961142E-1,6.4657116E-1,-1.7154153E-1,-9.790345E-1,-4.6263596E-1,-6.0762054E-1,-2.1505993E-2,8.084973E-1,1.0976258E-1,-1.7739408E-1,3.5596785E-1,5.321424E-2,7.63059E-2,-9.2487884E-1,-8.983301E-3,-1.2660766E-1,-8.3964926E-1,-1.0865107E-1,-8.2969373E-1,-5.018262E-1,-7.038893E-2,3.5003933E-1,-1.13391265E-1,7.741736E-2,1.0447549E0,7.476171E-2,3.4257284E-1,-3.307396E-1,-3.1235555E-2,2.9294246E-1,5.4006183E-1,-8.082876E-1,-1.0340011E-1,-4.968641E-1,1.3365741E-1,-4.711307E-2,-1.109252E-1,-1.0089382E0,7.673323E-2,-5.0258208E-2,-8.906373E-2,-5.4130685E-2,-1.5553904E-1,2.402986E-1,4.400393E-1,-4.2412618E-1,7.931299E-2,1.08313285E-1,5.6715813E-2,9.367592E-3,2.6030089E-3,8.9793205E-3,3.6294617E-2,-3.849451E-2,7.0931814E-3,-5.7153446E-3,7.924783E-3,2.6376566E-2,5.191781E-2,6.912758E-2,3.8020696E-2,-8.3502576E-2,-5.376185E-2,-5.4427095E-2,-5.4918737E-3,-2.0486912E-2,2.7766451E-2,-2.5317669E-2,-1.038502E-1,4.641224E-3,2.4809185E-2,3.5543443E-4,-1.9575668E-2,2.2614982E-2,4.419763E-2,4.1336946E-2,5.3755175E-2,5.0834795E-3,-6.7604505E-2,2.7978608E-2,-2.3869911E-2],"categories":[],"categories_nodes":[],"categories_segments":[],"categories_sizes":[],"default_left":[0,0,0,0,0,0,0,0,0,0,0,0,0,0,0,0,0,0,0,0,0,0,0,0,0,0,0,0,0,0,0,0,0,0,0,0,0,0,0,0,0,0,0,0,0,0,0,0,0,0,0,0,0,0,0,0,0,0,0,0,0,0,0,0,0,0,0,0,0,0,0,0,0,0,0,0,0,0,0,0,0,0,0,0,0,0,0,0,0],"id":0,"left_children":[1,3,5,7,9,11,13,15,17,19,21,23,25,27,29,31,33,35,37,-1,-1,39,41,-1,43,45,47,49,-1,51,53,-1,55,57,59,61,63,65,67,69,-1,71,73,-1,-1,75,77,-1,-1,-1,79,81,83,85,87,-1,-1,-1,-1,-1,-1,-1,-1,-1,-1,-1,-1,-1,-1,-1,-1,-1,-1,-1,-1,-1,-1,-1,-1,-1,-1,-1,-1,-1,-1,-1,-1,-1,-1],"loss_changes":[2.0548895E2,1.0953601E2,1.0782754E2,5.050464E1,8.86723E1,2.7131699E1,4.8279434E1,2.8056671E1,3.58954E1,1.6733551E0,1.0763507E2,7.378937E0,2.6416168E1,1.367981E0,2.858035E1,1.8672333E0,5.529366E-1,3.5308847E0,7.1746445E0,0E0,0E0,1.1489716E0,5.045077E1,0E0,1.3883675E1,1.7601824E1,1.5459213E0,1.0642223E0,0E0,1.5337849E0,4.021308E1,0E0,1.0052872E-1,5.562994E-2,1.3759613E-2,1.7038097E0,2.39336E-1,2.9852524E0,3.6047401E0,1.3004684E-1,0E0,3.4061127E0,2.7405762E1,0E0,0E0,1.3925362E-1,4.4571263E-1,0E0,0E0,0E0,6.4679384E-2,1.19766235E-1,1.184845E-2,3.0784824E1,2.6524223E1,0E0,0E0,0E0,0E0,0E0,0E0,0E0,0E0,0E0,0E0,0E0,0E0,0E0,0E0,0E0,0E0,0E0,0E0,0E0,0E0,0E0,0E0,0E0,0E0,0E0,0E0,0E0,0E0,0E0,0E0,0E0,0E0,0E0,0E0],"parents":[2147483647,0,0,1,1,2,2,3,3,4,4,5,5,6,6,7,7,8,8,9,9,10,10,11,11,12,12,13,13,14,14,15,15,16,16,17,17,18,18,21,21,22,22,24,24,25,25,26,26,27,27,29,29,30,30,32,32,33,33,34,34,35,35,36,36,37,37,38,38,39,39,41,41,42,42,45,45,46,46,50,50,51,51,52,52,53,53,54,54],"right_children":[2,4,6,8,10,12,14,16,18,20,22,24,26,28,30,32,34,36,38,-1,-1,40,42,-1,44,46,48,50,-1,52,54,-1,56,58,60,62,64,66,68,70,-1,72,74,-1,-1,76,78,-1,-1,-1,80,82,84,86,88,-1,-1,-1,-1,-1,-1,-1,-1,-1,-1,-1,-1,-1,-1,-1,-1,-1,-1,-1,-1,-1,-1,-1,-1,-1,-1,-1,-1,-1,-1,-1,-1,-1,-1],"split_conditions":[2.9E1,1.8865446E2,1.31637E2,1.5E1,3E0,9.521E0,3.1E1,9.816E0,1.8E1,2E0,6E0,3.4E1,3.5E1,1.3669814E2,3.3E1,4.7E1,4.7E1,1.6E1,2.7E1,5.321424E-2,7.63059E-2,4E0,1.9617139E2,-1.2660766E-1,4.3E1,3.4E1,1.289E1,4.7E1,-7.038893E-2,1.9571848E2,3.8E1,7.741736E-2,5.2E1,1.418E1,3.044E0,4.7E1,1.2928326E2,4.7E1,2.8E1,4.7E1,-1.0340011E-1,4.7E1,6.566E0,-4.711307E-2,-1.109252E-1,3E1,4.7E1,-5.0258208E-2,-8.906373E-2,-5.4130685E-2,2.981E1,4.7E1,4.7E1,3.6E1,4.2E1,1.08313285E-1,5.6715813E-2,9.367592E-3,2.6030089E-3,8.9793205E-3,3.6294617E-2,-3.849451E-2,7.0931814E-3,-5.7153446E-3,7.924783E-3,2.6376566E-2,5.191781E-2,6.912758E-2,3.8020696E-2,-8.3502576E-2,-5.376185E-2,-5.4427095E-2,-5.4918737E-3,-2.0486912E-2,2.7766451E-2,-2.5317669E-2,-1.038502E-1,4.641224E-3,2.4809185E-2,3.5543443E-4,-1.9575668E-2,2.2614982E-2,4.419763E-2,4.1336946E-2,5.3755175E-2,5.0834795E-3,-6.7604505E-2,2.7978608E-2,-2.3869911E-2],"split_indices":[0,4,4,0,0,5,0,5,0,0,0,0,0,4,0,8,8,0,0,0,0,0,4,0,0,0,5,8,0,4,0,0,8,5,3,8,4,8,0,8,0,8,5,0,0,0,8,0,0,0,2,8,8,0,0,0,0,0,0,0,0,0,0,0,0,0,0,0,0,0,0,0,0,0,0,0,0,0,0,0,0,0,0,0,0,0,0,0,0],"split_type":[0,0,0,0,0,0,0,0,0,0,0,0,0,0,0,0,0,0,0,0,0,0,0,0,0,0,0,0,0,0,0,0,0,0,0,0,0,0,0,0,0,0,0,0,0,0,0,0,0,0,0,0,0,0,0,0,0,0,0,0,0,0,0,0,0,0,0,0,0,0,0,0,0,0,0,0,0,0,0,0,0,0,0,0,0,0,0,0,0],"sum_hessian":[3.636E3,2.22E3,1.416E3,1.187E3,1.033E3,4.13E2,1.003E3,3.99E2,7.88E2,1.55E2,8.78E2,2.1E2,2.03E2,1.68E2,8.35E2,3.29E2,7E1,1.57E2,6.31E2,8.1E1,7.4E1,1.55E2,7.23E2,6.6E1,1.44E2,1.04E2,9.9E1,8.3E1,8.5E1,1.65E2,6.7E2,2.91E2,3.8E1,6.2E1,8E0,7.6E1,8.1E1,4.72E2,1.59E2,7.9E1,7.6E1,1.63E2,5.6E2,6.2E1,8.2E1,1.7E1,8.7E1,1.7E1,8.2E1,7.4E1,9E0,7.6E1,8.9E1,2.56E2,4.14E2,3.4E1,4E0,4.4E1,1.8E1,1E0,7E0,6.7E1,9E0,6.6E1,1.5E1,4.2E2,5.2E1,8E1,7.9E1,7E1,9E0,1.47E2,1.6E1,1.67E2,3.93E2,1E0,1.6E1,7.5E1,1.2E1,2E0,7E0,7.3E1,3E0,7.4E1,1.5E1,8.9E1,1.67E2,2.54E2,1.6E2],"tree_param":{"num_deleted":"0","num_feature":"13","num_nodes":"89","size_leaf_vector":"1"}},{"base_weights":[-7.483262E-5,1.7098187E-1,-2.6818836E-1,3.5761142E-1,-4.3608904E-2,-6.5551263E-1,-1.0820784E-1,6.18593E-1,2.2484809E-1,5.827442E-1,-1.5472093E-1,-8.824797E-1,-4.1754422E-1,-5.4770917E-1,-1.9231848E-2,7.2838223E-1,9.959244E-2,-1.5983963E-1,3.2066426E-1,4.795773E-2,6.877702E-2,-8.3393353E-1,-8.157556E-3,-1.1413584E-1,-7.567738E-1,-9.873581E-2,-7.4811757E-1,-4.525169E-1,-6.343189E-2,3.1601053E-1,-1.0213945E-1,6.970213E-2,9.445107E-1,6.747542E-2,3.133457E-1,-2.9807383E-1,-2.808508E-2,2.6381359E-1,4.867249E-1,-7.2917455E-1,-9.319437E-2,-4.4754297E-1,1.2030477E-1,-4.247651E-2,-9.996628E-2,-9.1522014E-1,6.939435E-2,-4.551156E-2,-8.026467E-2,-4.8789803E-2,-1.4190693E-1,2.1713598E-1,3.9709195E-1,-3.81957E-1,7.139126E-2,9.641546E-2,3.8739905E-2,-3.3331492E-3,7.487473E-3,3.3438634E-2,7.2510242E-3,-3.470171E-2,6.4547732E-3,-5.152338E-3,7.1818116E-3,3.169196E-2,1.4388514E-2,6.2300123E-2,3.426611E-2,-7.52699E-2,-4.892332E-2,-4.902115E-2,-4.97496E-3,2.590391E-2,-2.2901716E-2,-2.4051761E-2,-9.4076045E-2,4.1831783E-3,2.2519134E-2,5.3449157E-3,-1.6955195E-2,2.0384E-2,4.0882777E-2,3.725836E-2,4.8715662E-2,4.580819E-3,-6.0884334E-2,2.5191689E-2,-2.1497784E-2],"categories":[],"categories_nodes":[],"categories_segments":[],"categories_sizes":[],"default_left":[0,0,0,0,0,0,0,0,0,0,0,0,0,0,0,0,0,0,0,0,0,0,0,0,0,0,0,0,0,0,0,0,0,0,0,0,0,0,0,0,0,0,0,0,0,0,0,0,0,0,0,0,0,0,0,0,0,0,0,0,0,0,0,0,0,0,0,0,0,0,0,0,0,0,0,0,0,0,0,0,0,0,0,0,0,0,0,0,0],"id":1,"left_children":[1,3,5,7,9,11,13,15,17,19,21,23,25,27,29,31,33,35,37,-1,-1,39,41,-1,43,45,47,49,-1,51,53,-1,55,57,59,61,63,65,67,69,-1,71,73,-1,-1,75,77,-1,-1,-1,79,81,83,85,87,-1,-1,-1,-1,-1,-1,-1,-1,-1,-1,-1,-1,-1,-1,-1,-1,-1,-1,-1,-1,-1,-1,-1,-1,-1,-1,-1,-1,-1,-1,-1,-1,-1,-1],"loss_changes":[1.6684819E2,8.896437E1,8.773255E1,4.1023666E1,7.2051765E1,2.1992065E1,3.9250957E1,2.2719727E1,2.9133244E1,1.3604546E0,8.749563E1,6.0027466E0,2.142561E1,1.1062889E0,2.3268179E1,1.5783844E0,4.6628016E-1,2.8692794E0,5.8380966E0,0E0,0E0,9.221573E-1,4.091964E1,0E0,1.1268356E1,1.4477454E1,1.2324181E0,8.539009E-1,0E0,1.2445812E0,3.260897E1,0E0,5.329895E-2,4.948747E-2,2.1359563E-2,1.3889871E0,1.957083E-1,2.9668999E0,2.927723E0,8.331299E-2,0E0,2.7592316E0,2.7247036E1,0E0,0E0,8.390808E-2,3.6846635E-1,0E0,0E0,0E0,6.306861E-2,1.1291695E-1,1.7154694E-2,2.497079E1,2.1508396E1,0E0,0E0,0E0,0E0,0E0,0E0,0E0,0E0,0E0,0E0,0E0,0E0,0E0,0E0,0E0,0E0,0E0,0E0,0E0,0E0,0E0,0E0,0E0,0E0,0E0,0E0,0E0,0E0,0E0,0E0,0E0,0E0,0E0,0E0],"parents":[2147483647,0,0,1,1,2,2,3,3,4,4,5,5,6,6,7,7,8,8,9,9,10,10,11,11,12,12,13,13,14,14,15,15,16,16,17,17,18,18,21,21,22,22,24,24,25,25,26,26,27,27,29,29,30,30,32,32,33,33,34,34,35,35,36,36,37,37,38,38,39,39,41,41,42,42,45,45,46,46,50,50,51,51,52,52,53,53,54,54],"right_children":[2,4,6,8,10,12,14,16,18,20,22,24,26,28,30,32,34,36,38,-1,-1,40,42,-1,44,46,48,50,-1,52,54,-1,56,58,60,62,64,66,68,70,-1,72,74,-1,-1,76,78,-1,-1,-1,80,82,84,86,88,-1,-1,-1,-1,-1,-1,-1,-1,-1,-1,-1,-1,-1,-1,-1,-1,-1,-1,-1,-1,-1,-1,-1,-1,-1,-1,-1,-1,-1,-1,-1,-1,-1,-1],"split_conditions":[2.9E1,1.8865446E2,1.31637E2,1.5E1,3E0,9.521E0,3.1E1,9.816E0,1.8E1,2E0,6E0,3.4E1,3.5E1,1.3669814E2,3.3E1,4.7E1,4.7E1,1.6E1,2.7E1,4.795773E-2,6.877702E-2,4E0,1.9617139E2,-1.1413584E-1,4.3E1,3.4E1,1.289E1,4.7E1,-6.343189E-2,1.9571848E2,3.8E1,6.970213E-2,3.65E2,4E0,3.623E0,4.7E1,1.2928326E2,8.36E0,2.8E1,4.7E1,-9.319437E-2,4.7E1,2.1E1,-4.247651E-2,-9.996628E-2,3E1,4.7E1,-4.551156E-2,-8.026467E-2,-4.8789803E-2,4.8E1,4.7E1,4.7E1,3.6E1,4.2E1,9.641546E-2,3.8739905E-2,-3.3331492E-3,7.487473E-3,3.3438634E-2,7.2510242E-3,-3.470171E-2,6.4547732E-3,-5.152338E-3,7.1818116E-3,3.169196E-2,1.4388514E-2,6.2300123E-2,3.426611E-2,-7.52699E-2,-4.892332E-2,-4.902115E-2,-4.97496E-3,2.590391E-2,-2.2901716E-2,-2.4051761E-2,-9.4076045E-2,4.1831783E-3,2.2519134E-2,5.3449157E-3,-1.6955195E-2,2.0384E-2,4.0882777E-2,3.725836E-2,4.8715662E-2,4.580819E-3,-6.0884334E-2,2.5191689E-2,-2.1497784E-2],"split_indices":[0,4,4,0,0,5,0,5,0,0,0,0,0,4,0,8,8,0,0,0,0,0,4,0,0,0,5,8,0,4,0,0,12,8,3,8,4,5,0,8,0,8,0,0,0,0,8,0,0,0,8,8,8,0,0,0,0,0,0,0,0,0,0,0,0,0,0,0,0,0,0,0,0,0,0,0,0,0,0,0,0,0,0,0,0,0,0,0,0],"split_type":[0,0,0,0,0,0,0,0,0,0,0,0,0,0,0,0,0,0,0,0,0,0,0,0,0,0,0,0,0,0,0,0,0,0,0,0,0,0,0,0,0,0,0,0,0,0,0,0,0,0,0,0,0,0,0,0,0,0,0,0,0,0,0,0,0,0,0,0,0,0,0,0,0,0,0,0,0,0,0,0,0,0,0,0,0,0,0,0,0],"sum_hessian":[3.636E3,2.22E3,1.416E3,1.187E3,1.033E3,4.13E2,1.003E3,3.99E2,7.88E2,1.55E2,8.78E2,2.1E2,2.03E2,1.68E2,8.35E2,3.29E2,7E1,1.57E2,6.31E2,8.1E1,7.4E1,1.55E2,7.23E2,6.6E1,1.44E2,1.04E2,9.9E1,8.3E1,8.5E1,1.65E2,6.7E2,2.91E2,3.8E1,6.2E1,8E0,7.6E1,8.1E1,4.72E2,1.59E2,7.9E1,7.6E1,1.63E2,5.6E2,6.2E1,8.2E1,1.7E1,8.7E1,1.7E1,8.2E1,7.4E1,9E0,7.6E1,8.9E1,2.56E2,4.14E2,3.6E1,2E0,4E0,5.8E1,7E0,1E0,6.7E1,9E0,6.6E1,1.5E1,3.26E2,1.46E2,8E1,7.9E1,7E1,9E0,1.47E2,1.6E1,4.01E2,1.59E2,1E0,1.6E1,7.5E1,1.2E1,1E0,8E0,7.3E1,3E0,7.4E1,1.5E1,8.9E1,1.67E2,2.54E2,1.6E2],"tree_param":{"num_deleted":"0","num_feature":"13","num_nodes":"89","size_leaf_vector":"1"}},{"base_weights":[-1.4656509E-4,1.5398034E-1,-2.4172434E-1,3.2114443E-1,-4.0678937E-2,-5.911057E-1,-9.7415976E-2,5.553543E-1,2.0082062E-1,-4.2334032E-1,1.133808E-1,-7.954478E-1,-3.7685424E-1,-4.9367097E-1,-1.7195268E-2,6.522677E-1,9.026494E-2,-1.4804725E-1,2.8882384E-1,-8.37521E-1,-2.7320528E-1,5.252182E-1,2.0312932E-3,-1.02892615E-1,-6.820789E-1,-8.973267E-2,-6.7456335E-1,-4.079841E-1,-5.7162475E-2,2.8529662E-1,-9.20037E-2,6.207415E-1,8.631936E-1,6.079398E-2,2.865322E-1,-2.7363205E-1,-2.5251586E-2,2.3753005E-1,4.38656E-1,-8.691805E-2,-5.9096273E-2,5.8514312E-2,-4.939543E-1,4.322047E-2,6.1991006E-2,-6.579121E-1,1.0629828E-1,-3.8296264E-2,-9.009012E-2,-8.302607E-1,6.275866E-2,-4.1213274E-2,-7.233488E-2,-4.3975856E-2,-1.2887716E-1,1.9621821E-1,3.583382E-1,-3.4398016E-1,6.426125E-2,6.2755786E-2,-3.2038451E-3,8.93306E-2,4.677231E-2,7.815705E-3,1.6471262E-3,6.858397E-3,3.0520273E-2,-3.1720456E-2,5.873871E-3,-5.9370263E-3,3.2794308E-3,2.7163306E-2,6.6603543E-3,5.6147065E-2,3.0882299E-2,5.404073E-2,-3.2254835E-4,-5.215041E-2,-2.2646645E-2,-6.789005E-2,-4.4520207E-2,-3.8884144E-2,2.4532406E-2,-2.2849178E-2,-8.522182E-2,3.7704003E-3,2.0440446E-2,-1.8005617E-2,-7.0946215E-4,1.8373162E-2,3.781655E-2,3.636607E-2,1.5298915E-2,4.1278587E-3,-5.483213E-2,2.2682438E-2,-1.9361366E-2],"categories":[],"categories_nodes":[],"categories_segments":[],"categories_sizes":[],"default_left":[0,0,0,0,0,0,0,0,0,0,0,0,0,0,0,0,0,0,0,0,0,0,0,0,0,0,0,0,0,0,0,0,0,0,0,0,0,0,0,0,0,0,0,0,0,0,0,0,0,0,0,0,0,0,0,0,0,0,0,0,0,0,0,0,0,0,0,0,0,0,0,0,0,0,0,0,0,0,0,0,0,0,0,0,0,0,0,0,0,0,0,0,0,0,0,0,0],"id":2,"left_children":[1,3,5,7,9,11,13,15,17,19,21,23,25,27,29,31,33,35,37,39,41,43,45,-1,47,49,51,53,-1,55,57,59,61,63,65,67,69,71,73,-1,-1,75,77,-1,-1,79,81,-1,-1,83,85,-1,-1,-1,87,89,91,93,95,-1,-1,-1,-1,-1,-1,-1,-1,-1,-1,-1,-1,-1,-1,-1,-1,-1,-1,-1,-1,-1,-1,-1,-1,-1,-1,-1,-1,-1,-1,-1,-1,-1,-1,-1,-1,-1,-1],"loss_changes":[1.3545595E2,7.22845E1,7.138566E1,3.3564796E1,6.0592434E1,1.7825378E1,3.1906513E1,1.8195847E1,2.4327646E1,1.8115177E1,3.3612762E1,4.883194E0,1.7377127E1,8.956413E-1,1.8944046E1,1.6918182E0,3.9325756E-1,2.460493E0,4.7530174E0,9.5207214E-2,1.599234E1,1.1060638E0,3.9842293E1,0E0,9.145706E0,1.1909138E1,9.821625E-1,6.8827724E-1,0E0,1.0097551E0,2.6442791E1,1.3327408E0,7.043457E-2,4.7196075E-2,1.5690863E-2,1.1627283E0,1.6434382E-1,2.7390804E0,2.3778648E0,0E0,0E0,2.6199167E0,8.4726524E-1,0E0,0E0,5.0441742E-2,3.451398E1,0E0,0E0,4.311371E-2,3.0459523E-1,0E0,0E0,0E0,6.1049655E-2,1.054554E-1,4.2731285E-2,2.0254755E1,1.744111E1,0E0,0E0,0E0,0E0,0E0,0E0,0E0,0E0,0E0,0E0,0E0,0E0,0E0,0E0,0E0,0E0,0E0,0E0,0E0,0E0,0E0,0E0,0E0,0E0,0E0,0E0,0E0,0E0,0E0,0E0,0E0,0E0,0E0,0E0,0E0,0E0,0E0,0E0],"parents":[2147483647,0,0,1,1,2,2,3,3,4,4,5,5,6,6,7,7,8,8,9,9,10,10,11,11,12,12,13,13,14,14,15,15,16,16,17,17,18,18,19,19,20,20,21,21,22,22,24,24,25,25,26,26,27,27,29,29,30,30,31,31,32,32,33,33,34,34,35,35,36,36,37,37,38,38,41,41,42,42,45,45,46,46,49,49,50,50,54,54,55,55,56,56,57,57,58,58],"right_children":[2,4,6,8,10,12,14,16,18,20,22,24,26,28,30,32,34,36,38,40,42,44,46,-1,48,50,52,54,-1,56,58,60,62,64,66,68,70,72,74,-1,-1,76,78,-1,-1,80,82,-1,-1,84,86,-1,-1,-1,88,90,92,94,96,-1,-1,-1,-1,-1,-1,-1,-1,-1,-1,-1,-1,-1,-1,-1,-1,-1,-1,-1,-1,-1,-1,-1,-1,-1,-1,-1,-1,-1,-1,-1,-1,-1,-1,-1,-1,-1,-1],"split_conditions":[2.9E1,1.8942265E2,1.31637E2,1.5E1,6.855E0,9.521E0,3.1E1,9.816E0,1.8E1,6E0,3E0,3.4E1,3.5E1,1.3669814E2,3.3E1,4.7E1,4.7E1,1.7E1,2.7E1,4.6E1,9E0,2E0,4E0,-1.02892615E-1,4.3E1,3.4E1,1.289E1,4.7E1,-5.7162475E-2,1.9571848E2,3.8E1,1.8865446E2,5.2E1,1.418E1,3.044E0,4.7E1,1.289553E2,2.5E1,2.8E1,-8.691805E-2,-5.9096273E-2,7E0,4.7E1,4.322047E-2,6.1991006E-2,4.7E1,2.0283803E2,-3.8296264E-2,-9.009012E-2,3E1,4.7E1,-4.1213274E-2,-7.233488E-2,-4.3975856E-2,5.1E1,4.7E1,5.2E1,3.6E1,4.2E1,6.2755786E-2,-3.2038451E-3,8.93306E-2,4.677231E-2,7.815705E-3,1.6471262E-3,6.858397E-3,3.0520273E-2,-3.1720456E-2,5.873871E-3,-5.9370263E-3,3.2794308E-3,2.7163306E-2,6.6603543E-3,5.6147065E-2,3.0882299E-2,5.404073E-2,-3.2254835E-4,-5.215041E-2,-2.2646645E-2,-6.789005E-2,-4.4520207E-2,-3.8884144E-2,2.4532406E-2,-2.2849178E-2,-8.522182E-2,3.7704003E-3,2.0440446E-2,-1.8005617E-2,-7.0946215E-4,1.8373162E-2,3.781655E-2,3.636607E-2,1.5298915E-2,4.1278587E-3,-5.483213E-2,2.2682438E-2,-1.9361366E-2],"split_indices":[0,4,4,0,5,5,0,5,0,0,0,0,0,4,0,8,8,0,0,8,0,0,0,0,0,0,5,8,0,4,0,4,8,5,3,8,4,0,0,0,0,0,8,0,0,8,4,0,0,0,8,0,0,0,8,8,8,0,0,0,0,0,0,0,0,0,0,0,0,0,0,0,0,0,0,0,0,0,0,0,0,0,0,0,0,0,0,0,0,0,0,0,0,0,0,0,0],"split_type":[0,0,0,0,0,0,0,0,0,0,0,0,0,0,0,0,0,0,0,0,0,0,0,0,0,0,0,0,0,0,0,0,0,0,0,0,0,0,0,0,0,0,0,0,0,0,0,0,0,0,0,0,0,0,0,0,0,0,0,0,0,0,0,0,0,0,0,0,0,0,0,0,0,0,0,0,0,0,0,0,0,0,0,0,0,0,0,0,0,0,0,0,0,0,0,0,0],"sum_hessian":[3.636E3,2.22E3,1.416E3,1.194E3,1.026E3,4.13E2,1.003E3,4.04E2,7.9E2,2.94E2,7.32E2,2.1E2,2.03E2,1.68E2,8.35E2,3.34E2,7E1,1.59E2,6.31E2,7.7E1,2.17E2,1.55E2,5.77E2,6.6E1,1.44E2,1.04E2,9.9E1,8.3E1,8.5E1,1.65E2,6.7E2,2.94E2,4E1,6.2E1,8E0,7.8E1,8.1E1,4.72E2,1.59E2,6.6E1,1.1E1,8.7E1,1.3E2,8.1E1,7.4E1,7.8E1,4.99E2,6.2E1,8.2E1,1.7E1,8.7E1,1.7E1,8.2E1,7.4E1,9E0,7.6E1,8.9E1,2.56E2,4.14E2,2.91E2,3E0,3.6E1,4E0,4.4E1,1.8E1,1E0,7E0,6.9E1,9E0,5.1E1,3E1,3.93E2,7.9E1,8E1,7.9E1,9E0,7.8E1,1.17E2,1.3E1,6.9E1,9E0,1.09E2,3.9E2,1E0,1.6E1,7.5E1,1.2E1,6E0,3E0,7.3E1,3E0,8.6E1,3E0,8.9E1,1.67E2,2.54E2,1.6E2],"tree_param":{"num_deleted":"0","num_feature":"13","num_nodes":"97","size_leaf_vector":"1"}},{"base_weights":[-2.2585169E-4,1.3864817E-1,-2.1789627E-1,2.8931022E-1,-3.6794655E-2,-5.330305E-1,-8.7733425E-2,5.004178E-1,1.8085523E-1,-3.8157266E-1,1.020134E-1,-7.1699905E-1,-3.4013647E-1,-4.4501317E-1,-1.5403273E-2,5.8762515E-1,8.1898406E-2,-1.3342097E-1,2.6013267E-1,-7.5564104E-1,-2.4598135E-1,4.733709E-1,1.6089311E-3,-9.27569E-2,-6.147564E-1,-8.155827E-2,-6.082422E-1,-3.670027E-1,-5.143219E-2,2.5741634E-1,-8.2873695E-2,5.588694E-1,7.8019375E-1,5.4865066E-2,2.6203197E-1,-2.4659625E-1,-2.2759182E-2,2.1384837E-1,3.9533475E-1,-7.835598E-2,-5.367911E-1,5.3273115E-2,-4.451295E-1,3.8951126E-1,5.5874586E-2,-5.9354365E-1,9.5639825E-2,-3.4527384E-2,-8.118968E-2,-7.532382E-1,5.6757603E-2,-3.7320934E-2,-6.51885E-2,-3.9636906E-2,-8.150482E-2,1.773258E-1,3.2307807E-1,-3.097791E-1,5.7843328E-2,5.6501724E-2,-2.9635907E-3,8.063897E-2,4.303055E-2,-3.6917308E-3,6.1713317E-3,2.8137982E-2,5.362463E-3,-2.8593753E-2,5.34524E-3,-4.266292E-3,6.201017E-3,1.873911E-2,4.199741E-2,2.768912E-2,5.0462384E-2,-5.7834353E-2,-2.1935273E-2,4.9177047E-2,-2.907222E-4,-4.697953E-2,-2.0543719E-2,3.6783062E-2,5.0882883E-2,-6.1198022E-2,-4.0513374E-2,-3.5601143E-2,2.1951435E-2,-2.1706725E-2,-7.7200904E-2,3.3982792E-3,1.8553669E-2,-1.64623E-2,1.3960584E-2,1.6560642E-2,3.4980275E-2,2.9994065E-2,4.113424E-2,3.7196942E-3,-4.938152E-2,2.0423112E-2,-1.7437242E-2],"categories":[],"categories_nodes":[],"categories_segments":[],"categories_sizes":[],"default_left":[0,0,0,0,0,0,0,0,0,0,0,0,0,0,0,0,0,0,0,0,0,0,0,0,0,0,0,0,0,0,0,0,0,0,0,0,0,0,0,0,0,0,0,0,0,0,0,0,0,0,0,0,0,0,0,0,0,0,0,0,0,0,0,0,0,0,0,0,0,0,0,0,0,0,0,0,0,0,0,0,0,0,0,0,0,0,0,0,0,0,0,0,0,0,0,0,0,0,0,0,0],"id":3,"left_children":[1,3,5,7,9,11,13,15,17,19,21,23,25,27,29,31,33,35,37,39,41,43,45,-1,47,49,51,53,-1,55,57,59,61,63,65,67,69,71,73,-1,75,77,79,81,-1,83,85,-1,-1,87,89,-1,-1,-1,91,93,95,97,99,-1,-1,-1,-1,-1,-1,-1,-1,-1,-1,-1,-1,-1,-1,-1,-1,-1,-1,-1,-1,-1,-1,-1,-1,-1,-1,-1,-1,-1,-1,-1,-1,-1,-1,-1,-1,-1,-1,-1,-1,-1,-1],"loss_changes":[1.0997223E2,5.8717396E1,5.8076828E1,2.7269821E1,4.9189056E1,1.4447517E1,2.5938614E1,1.4733551E1,1.9742481E1,1.4776649E1,2.7329842E1,3.972435E0,1.4092958E1,7.2499084E-1,1.5409799E1,1.419014E0,3.3136612E-1,1.9982557E0,3.870346E0,5.5976868E-2,1.3015637E1,8.992462E-1,3.2403225E1,0E0,7.4229317E0,9.797671E0,7.8245544E-1,6.6356945E-1,0E0,8.156843E-1,2.1442581E1,1.084053E0,2.879715E-2,4.1876853E-2,2.1201134E-2,9.47824E-1,1.4099814E-1,2.5008183E0,1.9314098E0,0E0,3.1422853E-2,2.1693037E0,6.7798424E-1,2.4961472E-2,0E0,2.6479721E-2,2.8052195E1,0E0,0E0,1.3581276E-2,2.517918E-1,0E0,0E0,0E0,1.8838716E-1,9.771204E-2,6.0420036E-2,1.6429394E1,1.4142937E1,0E0,0E0,0E0,0E0,0E0,0E0,0E0,0E0,0E0,0E0,0E0,0E0,0E0,0E0,0E0,0E0,0E0,0E0,0E0,0E0,0E0,0E0,0E0,0E0,0E0,0E0,0E0,0E0,0E0,0E0,0E0,0E0,0E0,0E0,0E0,0E0,0E0,0E0,0E0,0E0,0E0,0E0],"parents":[2147483647,0,0,1,1,2,2,3,3,4,4,5,5,6,6,7,7,8,8,9,9,10,10,11,11,12,12,13,13,14,14,15,15,16,16,17,17,18,18,19,19,20,20,21,21,22,22,24,24,25,25,26,26,27,27,29,29,30,30,31,31,32,32,33,33,34,34,35,35,36,36,37,37,38,38,40,40,41,41,42,42,43,43,45,45,46,46,49,49,50,50,54,54,55,55,56,56,57,57,58,58],"right_children":[2,4,6,8,10,12,14,16,18,20,22,24,26,28,30,32,34,36,38,40,42,44,46,-1,48,50,52,54,-1,56,58,60,62,64,66,68,70,72,74,-1,76,78,80,82,-1,84,86,-1,-1,88,90,-1,-1,-1,92,94,96,98,100,-1,-1,-1,-1,-1,-1,-1,-1,-1,-1,-1,-1,-1,-1,-1,-1,-1,-1,-1,-1,-1,-1,-1,-1,-1,-1,-1,-1,-1,-1,-1,-1,-1,-1,-1,-1,-1,-1,-1,-1,-1,-1],"split_conditions":[2.9E1,1.8942265E2,1.31637E2,1.5E1,6.855E0,9.521E0,3.1E1,9.816E0,1.8E1,6E0,3E0,3.4E1,3.5E1,1.3662773E2,3.3E1,4.7E1,4.7E1,1.7E1,2.7E1,4.6E1,9E0,2E0,4E0,-9.27569E-2,4.3E1,3.4E1,1.289E1,4.7E1,-5.143219E-2,1.9571848E2,3.8E1,1.8865446E2,5.2E1,4E0,3.623E0,4.7E1,1.2928326E2,4.7E1,1.3015752E2,-7.835598E-2,5.458E1,7E0,4.7E1,4.7E1,5.5874586E-2,4.7E1,1.9617139E2,-3.4527384E-2,-8.118968E-2,3E1,4.7E1,-3.7320934E-2,-6.51885E-2,-3.9636906E-2,5.1E1,4.7E1,4.7E1,3.6E1,4.2E1,5.6501724E-2,-2.9635907E-3,8.063897E-2,4.303055E-2,-3.6917308E-3,6.1713317E-3,2.8137982E-2,5.362463E-3,-2.8593753E-2,5.34524E-3,-4.266292E-3,6.201017E-3,1.873911E-2,4.199741E-2,2.768912E-2,5.0462384E-2,-5.7834353E-2,-2.1935273E-2,4.9177047E-2,-2.907222E-4,-4.697953E-2,-2.0543719E-2,3.6783062E-2,5.0882883E-2,-6.1198022E-2,-4.0513374E-2,-3.5601143E-2,2.1951435E-2,-2.1706725E-2,-7.7200904E-2,3.3982792E-3,1.8553669E-2,-1.64623E-2,1.3960584E-2,1.6560642E-2,3.4980275E-2,2.9994065E-2,4.113424E-2,3.7196942E-3,-4.938152E-2,2.0423112E-2,-1.7437242E-2],"split_indices":[0,4,4,0,5,5,0,5,0,0,0,0,0,4,0,8,8,0,0,8,0,0,0,0,0,0,5,8,0,4,0,4,8,8,3,8,4,8,4,0,2,0,8,8,0,8,4,0,0,0,8,0,0,0,8,8,8,0,0,0,0,0,0,0,0,0,0,0,0,0,0,0,0,0,0,0,0,0,0,0,0,0,0,0,0,0,0,0,0,0,0,0,0,0,0,0,0,0,0,0,0],"split_type":[0,0,0,0,0,0,0,0,0,0,0,0,0,0,0,0,0,0,0,0,0,0,0,0,0,0,0,0,0,0,0,0,0,0,0,0,0,0,0,0,0,0,0,0,0,0,0,0,0,0,0,0,0,0,0,0,0,0,0,0,0,0,0,0,0,0,0,0,0,0,0,0,0,0,0,0,0,0,0,0,0,0,0,0,0,0,0,0,0,0,0,0,0,0,0,0,0,0,0,0,0],"sum_hessian":[3.636E3,2.22E3,1.416E3,1.194E3,1.026E3,4.13E2,1.003E3,4.04E2,7.9E2,2.94E2,7.32E2,2.1E2,2.03E2,1.68E2,8.35E2,3.34E2,7E1,1.59E2,6.31E2,7.7E1,2.17E2,1.55E2,5.77E2,6.6E1,1.44E2,1.04E2,9.9E1,8.2E1,8.6E1,1.65E2,6.7E2,2.94E2,4E1,6.2E1,8E0,7.8E1,8.1E1,4.72E2,1.59E2,6.6E1,1.1E1,8.7E1,1.3E2,8.1E1,7.4E1,7.8E1,4.99E2,6.2E1,8.2E1,1.7E1,8.7E1,1.7E1,8.2E1,7.4E1,8E0,7.6E1,8.9E1,2.56E2,4.14E2,2.91E2,3E0,3.6E1,4E0,4E0,5.8E1,7E0,1E0,6.9E1,9E0,6.6E1,1.5E1,4.2E2,5.2E1,7.8E1,8.1E1,9E0,2E0,9E0,7.8E1,1.17E2,1.3E1,7.2E1,9E0,6.9E1,9E0,1.07E2,3.92E2,1E0,1.6E1,7.5E1,1.2E1,6E0,2E0,7.3E1,3E0,7.4E1,1.5E1,8.9E1,1.67E2,2.54E2,1.6E2],"tree_param":{"num_deleted":"0","num_feature":"13","num_nodes":"101","size_leaf_vector":"1"}},{"base_weights":[-2.6345745E-4,1.2486551E-1,-1.963899E-1,2.6065624E-1,-3.325988E-2,-4.8066428E-1,-7.8973584E-2,4.5090267E-1,1.6291861E-1,-3.4401444E-1,9.185042E-2,-6.462868E-1,-3.0700245E-1,-4.0106544E-1,-1.3767249E-2,5.293919E-1,7.421539E-2,-1.2021177E-1,2.343394E-1,-6.821043E-1,-2.2146843E-1,1.8766326E-1,-2.5245222E-1,-8.361962E-2,-5.540784E-1,-7.4135125E-2,-5.4844314E-1,-3.3155832E-1,-4.6429258E-2,2.3241378E-1,-7.464994E-2,5.031643E-1,7.051908E-1,4.941801E-2,2.395509E-1,-2.2223069E-1,-2.0459268E-2,3.0310634E-1,1.5575345E-1,-7.063735E-2,-4.897592E-1,4.8501447E-2,-4.0113166E-1,-3.1607923E-1,3.064246E-1,-2.891107E-1,5.2804153E-2,-3.112941E-1,-7.316849E-2,-6.834093E-2,5.1331576E-2,-3.907334E-1,-6.0434785E-2,-3.5726096E-2,-1.0563259E-1,1.6026267E-1,2.9156068E-1,-2.789789E-1,5.20662E-2,5.0870933E-2,-2.741289E-3,7.279302E-2,3.958809E-2,1.0322031E-2,3.605175E-3,2.5675893E-2,5.0943377E-3,-2.57752E-2,4.8641586E-3,-4.936312E-3,2.8684584E-3,2.5348967E-2,4.5617744E-2,7.929878E-3,2.2816546E-2,-5.2629232E-2,-2.0472908E-2,4.4751104E-2,-2.620033E-4,-4.2321354E-2,-1.8636057E-2,-3.4601368E-2,-1.0342681E-2,5.689158E-2,8.802431E-3,-2.425064E-2,-3.2928895E-2,1.1743825E-2,-2.0277476E-2,-3.1345706E-2,-8.859634E-3,3.062956E-3,1.6841015E-2,-1.0609913E-2,-3.9710965E-2,6.801033E-3,-1.3248295E-2,1.4926965E-2,3.2356787E-2,2.7034655E-2,3.7277937E-2,3.351894E-3,-4.447279E-2,1.8388828E-2,-1.5704375E-2],"categories":[],"categories_nodes":[],"categories_segments":[],"categories_sizes":[],"default_left":[0,0,0,0,0,0,0,0,0,0,0,0,0,0,0,0,0,0,0,0,0,0,0,0,0,0,0,0,0,0,0,0,0,0,0,0,0,0,0,0,0,0,0,0,0,0,0,0,0,0,0,0,0,0,0,0,0,0,0,0,0,0,0,0,0,0,0,0,0,0,0,0,0,0,0,0,0,0,0,0,0,0,0,0,0,0,0,0,0,0,0,0,0,0,0,0,0,0,0,0,0,0,0,0,0],"id":4,"left_children":[1,3,5,7,9,11,13,15,17,19,21,23,25,27,29,31,33,35,37,39,41,43,45,-1,47,49,51,53,-1,55,57,59,61,63,65,67,69,71,73,-1,75,77,79,81,83,85,87,89,-1,-1,91,93,-1,-1,95,97,99,101,103,-1,-1,-1,-1,-1,-1,-1,-1,-1,-1,-1,-1,-1,-1,-1,-1,-1,-1,-1,-1,-1,-1,-1,-1,-1,-1,-1,-1,-1,-1,-1,-1,-1,-1,-1,-1,-1,-1,-1,-1,-1,-1,-1,-1,-1,-1],"loss_changes":[8.92805E1,4.7697895E1,4.7259304E1,2.2146645E1,3.995991E1,1.1709183E1,2.108092E1,1.1934898E1,1.6023294E1,1.2071247E1,2.4228031E1,3.2315598E0,1.1428965E1,5.887699E-1,1.2547454E1,1.1897888E0,2.7925387E-1,1.6237161E0,3.3681908E0,1.8154144E-2,1.0593251E1,3.4436478E1,1.8057041E0,0E0,6.024639E0,8.06166E0,6.455345E-1,4.5004082E-1,0E0,6.616812E-1,1.7387909E1,8.818512E-1,1.9836426E-4,4.158427E-2,1.6129851E-2,7.7265453E-1,1.1789259E-1,2.436245E0,1.6261687E0,0E0,1.7208815E-2,1.796193E0,5.424042E-1,6.644316E-1,2.6607506E1,1.8791103E-1,3.2115754E-1,2.5744438E-3,0E0,0E0,2.0813279E-1,1.0499001E-2,0E0,0E0,5.5633962E-2,8.993268E-2,5.428791E-2,1.332653E1,1.1468481E1,0E0,0E0,0E0,0E0,0E0,0E0,0E0,0E0,0E0,0E0,0E0,0E0,0E0,0E0,0E0,0E0,0E0,0E0,0E0,0E0,0E0,0E0,0E0,0E0,0E0,0E0,0E0,0E0,0E0,0E0,0E0,0E0,0E0,0E0,0E0,0E0,0E0,0E0,0E0,0E0,0E0,0E0,0E0,0E0,0E0,0E0],"parents":[2147483647,0,0,1,1,2,2,3,3,4,4,5,5,6,6,7,7,8,8,9,9,10,10,11,11,12,12,13,13,14,14,15,15,16,16,17,17,18,18,19,19,20,20,21,21,22,22,24,24,25,25,26,26,27,27,29,29,30,30,31,31,32,32,33,33,34,34,35,35,36,36,37,37,38,38,40,40,41,41,42,42,43,43,44,44,45,45,46,46,47,47,50,50,51,51,54,54,55,55,56,56,57,57,58,58],"right_children":[2,4,6,8,10,12,14,16,18,20,22,24,26,28,30,32,34,36,38,40,42,44,46,-1,48,50,52,54,-1,56,58,60,62,64,66,68,70,72,74,-1,76,78,80,82,84,86,88,90,-1,-1,92,94,-1,-1,96,98,100,102,104,-1,-1,-1,-1,-1,-1,-1,-1,-1,-1,-1,-1,-1,-1,-1,-1,-1,-1,-1,-1,-1,-1,-1,-1,-1,-1,-1,-1,-1,-1,-1,-1,-1,-1,-1,-1,-1,-1,-1,-1,-1,-1,-1,-1,-1,-1],"split_conditions":[2.9E1,1.8942265E2,1.31637E2,1.5E1,6.855E0,9.521E0,3.1E1,9.816E0,1.8E1,6E0,2.1E1,3.4E1,3.5E1,1.3669814E2,3.3E1,4.7E1,4.7E1,1.7E1,8.252E0,4.6E1,9E0,2.0283803E2,4.7E1,-8.361962E-2,4.3E1,3.4E1,1.3503E1,4.7E1,-4.6429258E-2,1.9571848E2,3.8E1,1.8865446E2,5.2E1,5.341E1,3.623E0,4.7E1,1.289553E2,2.7E1,2.3E1,-7.063735E-2,5.458E1,7E0,4.7E1,4.7E1,2.1334367E2,2.2E1,5.2E1,1.3015752E2,-7.316849E-2,-6.834093E-2,4.7E1,1.26114E2,-6.0434785E-2,-3.5726096E-2,4.8E1,4.7E1,4.7E1,3.6E1,4.2E1,5.0870933E-2,-2.741289E-3,7.279302E-2,3.958809E-2,1.0322031E-2,3.605175E-3,2.5675893E-2,5.0943377E-3,-2.57752E-2,4.8641586E-3,-4.936312E-3,2.8684584E-3,2.5348967E-2,4.5617744E-2,7.929878E-3,2.2816546E-2,-5.2629232E-2,-2.0472908E-2,4.4751104E-2,-2.620033E-4,-4.2321354E-2,-1.8636057E-2,-3.4601368E-2,-1.0342681E-2,5.689158E-2,8.802431E-3,-2.425064E-2,-3.2928895E-2,1.1743825E-2,-2.0277476E-2,-3.1345706E-2,-8.859634E-3,3.062956E-3,1.6841015E-2,-1.0609913E-2,-3.9710965E-2,6.801033E-3,-1.3248295E-2,1.4926965E-2,3.2356787E-2,2.7034655E-2,3.7277937E-2,3.351894E-3,-4.447279E-2,1.8388828E-2,-1.5704375E-2],"split_indices":[0,4,4,0,5,5,0,5,0,0,0,0,0,4,0,8,8,0,5,8,0,4,8,0,0,0,5,8,0,4,0,4,8,2,3,8,4,0,0,0,2,0,8,8,4,0,8,4,0,0,8,4,0,0,8,8,8,0,0,0,0,0,0,0,0,0,0,0,0,0,0,0,0,0,0,0,0,0,0,0,0,0,0,0,0,0,0,0,0,0,0,0,0,0,0,0,0,0,0,0,0,0,0,0,0],"split_type":[0,0,0,0,0,0,0,0,0,0,0,0,0,0,0,0,0,0,0,0,0,0,0,0,0,0,0,0,0,0,0,0,0,0,0,0,0,0,0,0,0,0,0,0,0,0,0,0,0,0,0,0,0,0,0,0,0,0,0,0,0,0,0,0,0,0,0,0,0,0,0,0,0,0,0,0,0,0,0,0,0,0,0,0,0,0,0,0,0,0,0,0,0,0,0,0,0,0,0,0,0,0,0,0,0],"sum_hessian":[3.636E3,2.22E3,1.416E3,1.194E3,1.026E3,4.13E2,1.003E3,4.04E2,7.9E2,2.94E2,7.32E2,2.1E2,2.03E2,1.68E2,8.35E2,3.34E2,7E1,1.59E2,6.31E2,7.7E1,2.17E2,5.73E2,1.59E2,6.6E1,1.44E2,1.04E2,9.9E1,8.3E1,8.5E1,1.65E2,6.7E2,2.94E2,4E1,6.2E1,8E0,7.8E1,8.1E1,3.35E2,2.96E2,6.6E1,1.1E1,8.7E1,1.3E2,1.09E2,4.64E2,1.42E2,1.7E1,6.2E1,8.2E1,1.7E1,8.7E1,2.8E1,7.1E1,7.4E1,9E0,7.6E1,8.9E1,2.56E2,4.14E2,2.91E2,3E0,3.6E1,4E0,1.1E1,5.1E1,7E0,1E0,6.9E1,9E0,5.1E1,3E1,2.55E2,8E1,1.45E2,1.51E2,9E0,2E0,9E0,7.8E1,1.17E2,1.3E1,9.5E1,1.4E1,2.1E2,2.54E2,6.9E1,7.3E1,1.4E1,3E0,6.1E1,1E0,7.5E1,1.2E1,1E0,2.7E1,1E0,8E0,7.3E1,3E0,7.4E1,1.5E1,8.9E1,1.67E2,2.54E2,1.6E2],"tree_param":{"num_deleted":"0","num_feature":"13","num_nodes":"105","size_leaf_vector":"1"}},{"base_weights":[-3.176113E-4,1.12414464E-1,-1.7701319E-1,2.3482826E-1,-3.0133637E-2,-4.3345824E-1,-7.109161E-2,4.0631917E-1,1.4672631E-1,3.9138886E-1,-1.0550907E-1,-5.825916E-1,-2.7708277E-1,-3.6148277E-1,-1.2303088E-2,4.7693187E-1,6.742367E-2,-1.0833436E-1,2.1106647E-1,3.1713012E-1,4.6735993E-1,-5.8344024E-1,-1.3768876E-3,-7.538242E-2,-4.9945244E-1,-6.718303E-2,-4.947067E-1,-2.979224E-1,-4.1796587E-2,2.0984462E-1,-6.724231E-2,4.5301104E-1,6.3741274E-2,4.469758E-2,2.1901481E-1,-2.0027247E-1,-1.8438688E-2,2.7300707E-1,1.402816E-1,2.9717806E-1,4.3106717E-1,4.367022E-2,6.2296534E-1,-6.0211938E-2,-4.346877E-1,-3.1175852E-1,8.548816E-2,-2.808032E-2,-6.593976E-2,-6.188648E-1,4.64244E-2,-3.0207355E-2,-5.3052224E-2,-3.104315E-1,1.391309E-2,1.4485052E-1,2.6311907E-1,-2.5124118E-1,4.686601E-2,-2.3749877E-2,4.5616757E-2,5.85258E-3,4.1931868E-5,3.8247586E-3,2.3682976E-2,-2.3234526E-2,4.426422E-3,-3.534468E-3,5.350757E-3,2.2824002E-2,4.1112255E-2,1.1570774E-2,3.5513204E-2,2.5470123E-2,3.3162303E-2,4.5973565E-2,8.652545E-3,6.5302946E-2,1.761942E-2,-4.8039656E-2,-2.4034945E-2,-4.059098E-2,-2.3901245E-2,2.0989476E-2,-2.2761775E-2,-1.7204333E-2,-6.350282E-2,2.7606662E-3,1.5286468E-2,-3.2201078E-2,-1.4202078E-2,1.3454447E-2,2.9929996E-2,2.6838958E-2,8.270598E-3,3.020402E-3,-4.0051993E-2,1.6557166E-2,-1.4143713E-2],"categories":[],"categories_nodes":[],"categories_segments":[],"categories_sizes":[],"default_left":[0,0,0,0,0,0,0,0,0,0,0,0,0,0,0,0,0,0,0,0,0,0,0,0,0,0,0,0,0,0,0,0,0,0,0,0,0,0,0,0,0,0,0,0,0,0,0,0,0,0,0,0,0,0,0,0,0,0,0,0,0,0,0,0,0,0,0,0,0,0,0,0,0,0,0,0,0,0,0,0,0,0,0,0,0,0,0,0,0,0,0,0,0,0,0,0,0,0,0],"id":5,"left_children":[1,3,5,7,9,11,13,15,17,19,21,23,25,27,29,31,33,35,37,39,41,43,45,-1,47,49,51,53,-1,55,57,59,-1,61,63,65,67,69,71,73,75,-1,77,-1,79,81,83,-1,-1,85,87,-1,-1,89,-1,91,93,95,97,-1,-1,-1,-1,-1,-1,-1,-1,-1,-1,-1,-1,-1,-1,-1,-1,-1,-1,-1,-1,-1,-1,-1,-1,-1,-1,-1,-1,-1,-1,-1,-1,-1,-1,-1,-1,-1,-1,-1,-1],"loss_changes":[7.246625E1,3.8763206E1,3.8459248E1,1.7995255E1,3.2671593E1,9.493385E0,1.7135504E1,9.659622E0,1.3003687E1,7.31863E-1,4.3396904E1,2.6273193E0,9.285325E0,4.8220444E-1,1.0217174E1,9.972534E-1,2.3481083E-1,1.3186815E0,2.7326794E0,5.830574E-2,8.5739136E-2,1.7172241E-1,1.9357914E1,0E0,4.885765E0,6.6096206E0,5.296688E-1,4.9696398E-1,0E0,5.3666544E-1,1.409996E1,7.513199E-1,0E0,3.8549706E-2,1.9925088E-2,6.2987924E-1,1.01629674E-1,1.9836617E0,1.5269809E0,2.2342682E-2,5.8995962E-2,0E0,1.9257545E-2,0E0,7.107949E-2,9.782963E-1,2.1900097E1,0E0,0E0,2.0746708E-2,1.7204084E-1,0E0,0E0,1.1222267E-1,0E0,8.229673E-2,6.338072E-2,1.0809639E1,9.299766E0,0E0,0E0,0E0,0E0,0E0,0E0,0E0,0E0,0E0,0E0,0E0,0E0,0E0,0E0,0E0,0E0,0E0,0E0,0E0,0E0,0E0,0E0,0E0,0E0,0E0,0E0,0E0,0E0,0E0,0E0,0E0,0E0,0E0,0E0,0E0,0E0,0E0,0E0,0E0,0E0],"parents":[2147483647,0,0,1,1,2,2,3,3,4,4,5,5,6,6,7,7,8,8,9,9,10,10,11,11,12,12,13,13,14,14,15,15,16,16,17,17,18,18,19,19,20,20,21,21,22,22,24,24,25,25,26,26,27,27,29,29,30,30,31,31,33,33,34,34,35,35,36,36,37,37,38,38,39,39,40,40,42,42,44,44,45,45,46,46,49,49,50,50,53,53,55,55,56,56,57,57,58,58],"right_children":[2,4,6,8,10,12,14,16,18,20,22,24,26,28,30,32,34,36,38,40,42,44,46,-1,48,50,52,54,-1,56,58,60,-1,62,64,66,68,70,72,74,76,-1,78,-1,80,82,84,-1,-1,86,88,-1,-1,90,-1,92,94,96,98,-1,-1,-1,-1,-1,-1,-1,-1,-1,-1,-1,-1,-1,-1,-1,-1,-1,-1,-1,-1,-1,-1,-1,-1,-1,-1,-1,-1,-1,-1,-1,-1,-1,-1,-1,-1,-1,-1,-1,-1],"split_conditions":[2.9E1,1.8942265E2,1.31637E2,1.5E1,3E0,9.521E0,3.1E1,9.816E0,1.8E1,2E0,6E0,3.4E1,3.5E1,1.3662773E2,3.3E1,4.7E1,4.7E1,1.7E1,8.252E0,4.7E1,4.7E1,4.7E1,1.9617139E2,-7.538242E-2,4.3E1,3.4E1,1.289E1,5.1E1,-4.1796587E-2,1.9571848E2,3.8E1,1.364E1,6.3741274E-2,3.6E1,3.044E0,4.7E1,1.2928326E2,2.7E1,4.7E1,2.1200635E2,3.65E2,4.367022E-2,3.65E2,-6.0211938E-2,5.458E1,2.2E1,2.1E1,-2.808032E-2,-6.593976E-2,3E1,4.7E1,-3.0207355E-2,-5.3052224E-2,4.7E1,1.391309E-2,4.7E1,5.2E1,3.6E1,4.2E1,-2.3749877E-2,4.5616757E-2,5.85258E-3,4.1931868E-5,3.8247586E-3,2.3682976E-2,-2.3234526E-2,4.426422E-3,-3.534468E-3,5.350757E-3,2.2824002E-2,4.1112255E-2,1.1570774E-2,3.5513204E-2,2.5470123E-2,3.3162303E-2,4.5973565E-2,8.652545E-3,6.5302946E-2,1.761942E-2,-4.8039656E-2,-2.4034945E-2,-4.059098E-2,-2.3901245E-2,2.0989476E-2,-2.2761775E-2,-1.7204333E-2,-6.350282E-2,2.7606662E-3,1.5286468E-2,-3.2201078E-2,-1.4202078E-2,1.3454447E-2,2.9929996E-2,2.6838958E-2,8.270598E-3,3.020402E-3,-4.0051993E-2,1.6557166E-2,-1.4143713E-2],"split_indices":[0,4,4,0,0,5,0,5,0,0,0,0,0,4,0,8,8,0,5,8,8,8,4,0,0,0,5,8,0,4,0,2,0,8,3,8,4,0,8,4,12,0,12,0,2,8,0,0,0,0,8,0,0,8,0,8,8,0,0,0,0,0,0,0,0,0,0,0,0,0,0,0,0,0,0,0,0,0,0,0,0,0,0,0,0,0,0,0,0,0,0,0,0,0,0,0,0,0,0],"split_type":[0,0,0,0,0,0,0,0,0,0,0,0,0,0,0,0,0,0,0,0,0,0,0,0,0,0,0,0,0,0,0,0,0,0,0,0,0,0,0,0,0,0,0,0,0,0,0,0,0,0,0,0,0,0,0,0,0,0,0,0,0,0,0,0,0,0,0,0,0,0,0,0,0,0,0,0,0,0,0,0,0,0,0,0,0,0,0,0,0,0,0,0,0,0,0,0,0,0,0],"sum_hessian":[3.636E3,2.22E3,1.416E3,1.194E3,1.026E3,4.13E2,1.003E3,4.04E2,7.9E2,1.55E2,8.71E2,2.1E2,2.03E2,1.68E2,8.35E2,3.34E2,7E1,1.59E2,6.31E2,8.1E1,7.4E1,1.55E2,7.16E2,6.6E1,1.44E2,1.04E2,9.9E1,8.2E1,8.6E1,1.65E2,6.7E2,2.94E2,4E1,6.2E1,8E0,7.8E1,8.1E1,3.35E2,2.96E2,7.2E1,9E0,6.5E1,9E0,1.35E2,2E1,1.56E2,5.6E2,6.2E1,8.2E1,1.7E1,8.7E1,1.7E1,8.2E1,8E1,2E0,7.6E1,8.9E1,2.56E2,4.14E2,1E0,2.93E2,4.7E1,1.5E1,1E0,7E0,6.9E1,9E0,6.6E1,1.5E1,2.55E2,8E1,2.67E2,2.9E1,3.6E1,3.6E1,8E0,1E0,8E0,1E0,1.5E1,5E0,6.6E1,9E1,4.01E2,1.59E2,1E0,1.6E1,7.5E1,1.2E1,7.4E1,6E0,7.3E1,3E0,8.6E1,3E0,8.9E1,1.67E2,2.54E2,1.6E2],"tree_param":{"num_deleted":"0","num_feature":"13","num_nodes":"99","size_leaf_vector":"1"}},{"base_weights":[-3.1101293E-4,1.0128742E-1,-1.5955575E-1,2.1225806E-1,-2.6308727E-2,-3.8974312E-1,-6.350412E-2,3.6725172E-1,1.3341177E-1,-3.0144796E-1,8.393149E-2,-5.231596E-1,-2.505487E-1,-3.2611462E-1,-1.0905972E-2,4.319967E-1,6.1151706E-2,-9.432697E-2,1.9013536E-1,-5.586284E-1,-2.0847297E-1,1.6349165E-1,-2.0499866E-1,-6.795671E-2,-4.4780037E-1,-6.5478064E-2,-4.460688E-1,-3.8274117E-2,-2.734148E-1,1.8933286E-1,-6.0501106E-2,4.1255176E-1,5.6650776E-1,4.032129E-2,2.0016998E-1,-3.836101E-2,-2.1099357E-1,1.6753884E-1,3.60874E-1,-5.753096E-2,-3.668161E-2,2.340618E-2,-3.6147973E-1,7.397955E-2,6.5648556E-2,-2.3799737E-1,6.8546616E-2,-2.508738E-1,-5.9425216E-2,-5.350498E-1,4.1986857E-2,-3.1556416E-1,-4.9243774E-2,-2.9320216E-2,-8.5795596E-2,1.309289E-1,2.37197E-1,-2.2626084E-1,4.2544186E-2,3.9216395E-2,4.54648E-2,5.7825275E-2,2.3281734E-2,-4.556007E-3,4.691596E-3,3.6334991E-3,2.161075E-2,-1.1676251E-3,-1.3127117E-2,-2.3993308E-2,5.187988E-4,1.3179195E-2,2.7383814E-2,4.169389E-2,7.0040855E-3,3.883445E-2,-2.308482E-3,-2.2831686E-2,-3.9840687E-2,3.5378743E-2,-5.576528E-3,-3.4497287E-2,-2.2082629E-2,1.2772153E-2,-1.70496E-2,-2.5499016E-2,-8.217748E-3,-2.3039246E-2,-5.752604E-2,2.4882103E-3,1.3875412E-2,-8.56905E-3,-3.2071356E-2,7.980347E-5,-1.4365769E-2,1.2127184E-2,2.7685238E-2,2.1719087E-2,3.1615097E-2,2.7217295E-3,-3.6070593E-2,3.148447E-2,-2.876398E-3],"categories":[],"categories_nodes":[],"categories_segments":[],"categories_sizes":[],"default_left":[0,0,0,0,0,0,0,0,0,0,0,0,0,0,0,0,0,0,0,0,0,0,0,0,0,0,0,0,0,0,0,0,0,0,0,0,0,0,0,0,0,0,0,0,0,0,0,0,0,0,0,0,0,0,0,0,0,0,0,0,0,0,0,0,0,0,0,0,0,0,0,0,0,0,0,0,0,0,0,0,0,0,0,0,0,0,0,0,0,0,0,0,0,0,0,0,0,0,0,0,0,0,0],"id":6,"left_children":[1,3,5,7,9,11,13,15,17,19,21,23,25,27,29,31,33,35,37,39,41,43,45,-1,47,49,51,-1,53,55,57,59,61,63,65,67,69,71,73,-1,-1,75,77,79,-1,81,83,85,-1,87,89,91,-1,-1,93,95,97,99,101,-1,-1,-1,-1,-1,-1,-1,-1,-1,-1,-1,-1,-1,-1,-1,-1,-1,-1,-1,-1,-1,-1,-1,-1,-1,-1,-1,-1,-1,-1,-1,-1,-1,-1,-1,-1,-1,-1,-1,-1,-1,-1,-1,-1],"loss_changes":[5.8859245E1,3.1453672E1,3.1304932E1,1.4469166E1,3.1387974E1,7.612961E0,1.3823084E1,7.900963E0,1.0210362E1,6.961302E0,1.702115E1,2.194481E0,7.4249096E0,3.937149E-1,8.303734E0,6.2942123E-1,1.9753131E-1,1.023545E0,2.3778572E0,3.8539886E-2,7.7783794E0,2.5546207E1,1.460577E0,0E0,4.061594E0,5.4219513E0,4.4973946E-1,0E0,3.0896902E-1,4.3298912E-1,1.1453735E1,7.23114E-2,1.8220901E-2,3.7818134E-2,1.5647799E-2,2.6623005E-1,3.2031012E-1,2.091837E0,1.1611013E0,0E0,0E0,1.5020034E0,5.5812263E-1,1.7881113E1,0E0,1.8649483E-1,2.7639186E-1,2.3488522E-2,0E0,1.1247349E-1,1.4220333E-1,6.8454742E-3,0E0,0E0,5.021953E-2,7.493341E-2,7.3495865E-2,8.768088E0,8.047797E0,0E0,0E0,0E0,0E0,0E0,0E0,0E0,0E0,0E0,0E0,0E0,0E0,0E0,0E0,0E0,0E0,0E0,0E0,0E0,0E0,0E0,0E0,0E0,0E0,0E0,0E0,0E0,0E0,0E0,0E0,0E0,0E0,0E0,0E0,0E0,0E0,0E0,0E0,0E0,0E0,0E0,0E0,0E0,0E0],"parents":[2147483647,0,0,1,1,2,2,3,3,4,4,5,5,6,6,7,7,8,8,9,9,10,10,11,11,12,12,13,13,14,14,15,15,16,16,17,17,18,18,19,19,20,20,21,21,22,22,24,24,25,25,26,26,28,28,29,29,30,30,31,31,32,32,33,33,34,34,35,35,36,36,37,37,38,38,41,41,42,42,43,43,45,45,46,46,47,47,49,49,50,50,51,51,54,54,55,55,56,56,57,57,58,58],"right_children":[2,4,6,8,10,12,14,16,18,20,22,24,26,28,30,32,34,36,38,40,42,44,46,-1,48,50,52,-1,54,56,58,60,62,64,66,68,70,72,74,-1,-1,76,78,80,-1,82,84,86,-1,88,90,92,-1,-1,94,96,98,100,102,-1,-1,-1,-1,-1,-1,-1,-1,-1,-1,-1,-1,-1,-1,-1,-1,-1,-1,-1,-1,-1,-1,-1,-1,-1,-1,-1,-1,-1,-1,-1,-1,-1,-1,-1,-1,-1,-1,-1,-1,-1,-1,-1,-1],"split_conditions":[2.9E1,1.8865446E2,1.31735E2,1.5E1,6.855E0,9.521E0,3.1E1,9.816E0,1.8E1,6E0,2.1E1,3.4E1,3.5E1,8.211E0,3.3E1,4.7E1,4.7E1,1.3275166E2,4.7E1,2.1872626E2,9E0,1.7E1,4.7E1,-6.795671E-2,4.3E1,3.4E1,1.3503E1,-3.8274117E-2,4.7E1,1.9571848E2,3.8E1,1.2978217E2,3.65E2,4E0,3.044E0,8.075E0,4.7E1,2.7E1,5.2E1,-5.753096E-2,-3.668161E-2,7E0,6.339E0,3E0,6.5648556E-2,3.699E1,5.2E1,1.3015752E2,-5.9425216E-2,3E1,4.7E1,1.26114E2,-4.9243774E-2,-2.9320216E-2,3.157E0,4.7E1,4.7E1,3.6E1,4E1,3.9216395E-2,4.54648E-2,5.7825275E-2,2.3281734E-2,-4.556007E-3,4.691596E-3,3.6334991E-3,2.161075E-2,-1.1676251E-3,-1.3127117E-2,-2.3993308E-2,5.187988E-4,1.3179195E-2,2.7383814E-2,4.169389E-2,7.0040855E-3,3.883445E-2,-2.308482E-3,-2.2831686E-2,-3.9840687E-2,3.5378743E-2,-5.576528E-3,-3.4497287E-2,-2.2082629E-2,1.2772153E-2,-1.70496E-2,-2.5499016E-2,-8.217748E-3,-2.3039246E-2,-5.752604E-2,2.4882103E-3,1.3875412E-2,-8.56905E-3,-3.2071356E-2,7.980347E-5,-1.4365769E-2,1.2127184E-2,2.7685238E-2,2.1719087E-2,3.1615097E-2,2.7217295E-3,-3.6070593E-2,3.148447E-2,-2.876398E-3],"split_indices":[0,4,4,0,5,5,0,5,0,0,0,0,0,5,0,8,8,4,8,4,0,0,8,0,0,0,5,0,8,4,0,4,12,8,3,5,8,0,8,0,0,0,5,0,0,2,8,4,0,0,8,4,0,0,3,8,8,0,0,0,0,0,0,0,0,0,0,0,0,0,0,0,0,0,0,0,0,0,0,0,0,0,0,0,0,0,0,0,0,0,0,0,0,0,0,0,0,0,0,0,0,0,0],"split_type":[0,0,0,0,0,0,0,0,0,0,0,0,0,0,0,0,0,0,0,0,0,0,0,0,0,0,0,0,0,0,0,0,0,0,0,0,0,0,0,0,0,0,0,0,0,0,0,0,0,0,0,0,0,0,0,0,0,0,0,0,0,0,0,0,0,0,0,0,0,0,0,0,0,0,0,0,0,0,0,0,0,0,0,0,0,0,0,0,0,0,0,0,0,0,0,0,0,0,0,0,0,0,0],"sum_hessian":[3.636E3,2.22E3,1.416E3,1.187E3,1.033E3,4.16E2,1E3,3.99E2,7.88E2,2.95E2,7.38E2,2.11E2,2.05E2,1.66E2,8.34E2,3.29E2,7E1,1.57E2,6.31E2,7.7E1,2.18E2,5.79E2,1.59E2,6.6E1,1.45E2,1.06E2,9.9E1,7.7E1,8.9E1,1.65E2,6.69E2,2.91E2,3.8E1,6.2E1,8E0,1.07E2,5E1,5.59E2,7.2E1,6.9E1,8E0,8.7E1,1.31E2,4.91E2,8.8E1,1.42E2,1.7E1,6.3E1,8.2E1,1.9E1,8.7E1,2.8E1,7.1E1,8E1,9E0,7.6E1,8.9E1,2.56E2,4.13E2,2.03E2,8.8E1,3.6E1,2E0,4E0,5.8E1,1E0,7E0,8.4E1,2.3E1,4.4E1,6E0,4.2E2,1.39E2,6E1,1.2E1,9E0,7.8E1,3E1,1.01E2,1.55E2,3.36E2,1.7E1,1.25E2,1.4E1,3E0,6.1E1,2E0,3E0,1.6E1,7.5E1,1.2E1,1E0,2.7E1,4E0,5E0,7.3E1,3E0,7.4E1,1.5E1,8.9E1,1.67E2,8.5E1,3.28E2],"tree_param":{"num_deleted":"0","num_feature":"13","num_nodes":"103","size_leaf_vector":"1"}},{"base_weights":[-3.2156945E-4,9.122943E-2,-1.43818E-1,1.9068669E-1,-2.4586203E-2,-3.515245E-1,-5.7147242E-2,3.302502E-1,1.18987694E-1,-2.7175125E-1,7.492031E-2,-4.7160336E-1,-2.2624178E-1,-2.939938E-1,-9.709489E-3,3.875174E-1,5.539432E-2,-4.087644E-2,1.8827829E-1,-5.0397307E-1,-1.8741614E-1,1.4720783E-1,-1.8487942E-1,-6.126244E-2,-4.0365806E-1,-5.953025E-2,-4.023607E-1,-2.410427E-1,-3.399139E-2,1.7096086E-1,-5.4458097E-2,3.6729217E-1,5.235887E-1,1.3446465E-1,2.391738E-2,-1.6271824E-1,1.8792558E-2,3.2421178E-1,1.631872E-1,-5.1860005E-2,-3.3421062E-2,2.148094E-2,-3.263133E-1,-2.5072134E-1,2.4102503E-1,-2.1459356E-1,6.145403E-2,-2.2631292E-1,-5.3554278E-2,-4.8557347E-1,3.797424E-2,-4.3074358E-1,-2.3844776E-1,-2.522571E-1,1.3461749E-2,1.18353315E-1,2.1406996E-1,-2.0376438E-1,3.835875E-2,-2.2283554E-2,3.7005734E-2,5.4225046E-2,2.807743E-2,-2.1591664E-3,1.632741E-2,-3.4793378E-3,3.3823352E-3,-1.7837565E-2,1.7545223E-2,-1.1865146E-3,1.2268657E-2,1.0074973E-2,3.311586E-2,-7.164876E-4,1.9993108E-2,3.5339337E-2,-2.0805204E-3,-2.0622147E-2,-3.5994235E-2,-2.7646387E-2,-6.9254427E-3,4.9862615E-3,4.327965E-2,-2.2960354E-2,-1.2160218E-2,1.1580048E-2,-1.5770866E-2,-2.299021E-2,-7.6698936E-3,-2.1311332E-2,-5.2111864E-2,2.2426706E-3,1.2594642E-2,-4.7877353E-2,-3.7847824E-2,-1.0174847E-2,-2.498911E-2,-2.6112651E-2,-1.2372494E-2,1.1031344E-2,2.7989928E-2,1.9576145E-2,2.8651167E-2,-2.9170796E-2,1.2453215E-2,1.0390198E-2,-2.2827847E-2],"categories":[],"categories_nodes":[],"categories_segments":[],"categories_sizes":[],"default_left":[0,0,0,0,0,0,0,0,0,0,0,0,0,0,0,0,0,0,0,0,0,0,0,0,0,0,0,0,0,0,0,0,0,0,0,0,0,0,0,0,0,0,0,0,0,0,0,0,0,0,0,0,0,0,0,0,0,0,0,0,0,0,0,0,0,0,0,0,0,0,0,0,0,0,0,0,0,0,0,0,0,0,0,0,0,0,0,0,0,0,0,0,0,0,0,0,0,0,0,0,0,0,0,0,0,0,0],"id":7,"left_children":[1,3,5,7,9,11,13,15,17,19,21,23,25,27,29,31,33,35,37,39,41,43,45,-1,47,49,51,53,-1,55,57,59,61,63,65,67,69,71,73,-1,-1,75,77,79,81,83,85,87,-1,89,91,93,95,97,-1,99,101,103,105,-1,-1,-1,-1,-1,-1,-1,-1,-1,-1,-1,-1,-1,-1,-1,-1,-1,-1,-1,-1,-1,-1,-1,-1,-1,-1,-1,-1,-1,-1,-1,-1,-1,-1,-1,-1,-1,-1,-1,-1,-1,-1,-1,-1,-1,-1,-1,-1],"loss_changes":[4.779327E1,2.5587734E1,2.548886E1,1.1918549E1,2.5278944E1,6.1665726E0,1.1243849E1,6.353325E0,8.769666E0,5.6829624E0,1.37931595E1,1.7840347E0,6.0244265E0,3.2413006E-1,6.760073E0,7.2963333E-1,1.7349528E-1,1.7479005E0,1.8298092E0,2.0360947E-2,6.3323245E0,2.1489346E1,1.1843224E0,0E0,3.2936096E0,4.4633403E0,3.6252213E-1,3.751955E-1,0E0,3.5112953E-1,9.292769E0,5.638504E-1,3.3535004E-2,9.3443274E-2,3.141935E-2,4.4959164E-1,5.1745033E-1,9.858513E-2,2.93083E0,0E0,0E0,1.2424585E0,4.5482635E-1,4.947095E-1,1.7025087E1,1.7167854E-1,2.3265556E-1,1.6734362E-2,0E0,8.2634926E-2,1.1753747E-1,2.9659271E-2,1.1669993E-3,5.775261E-2,0E0,6.913173E-2,6.327915E-2,7.456321E0,7.2588916E0,0E0,0E0,0E0,0E0,0E0,0E0,0E0,0E0,0E0,0E0,0E0,0E0,0E0,0E0,0E0,0E0,0E0,0E0,0E0,0E0,0E0,0E0,0E0,0E0,0E0,0E0,0E0,0E0,0E0,0E0,0E0,0E0,0E0,0E0,0E0,0E0,0E0,0E0,0E0,0E0,0E0,0E0,0E0,0E0,0E0,0E0,0E0,0E0],"parents":[2147483647,0,0,1,1,2,2,3,3,4,4,5,5,6,6,7,7,8,8,9,9,10,10,11,11,12,12,13,13,14,14,15,15,16,16,17,17,18,18,19,19,20,20,21,21,22,22,24,24,25,25,26,26,27,27,29,29,30,30,31,31,32,32,33,33,34,34,35,35,36,36,37,37,38,38,41,41,42,42,43,43,44,44,45,45,46,46,47,47,49,49,50,50,51,51,52,52,53,53,55,55,56,56,57,57,58,58],"right_children":[2,4,6,8,10,12,14,16,18,20,22,24,26,28,30,32,34,36,38,40,42,44,46,-1,48,50,52,54,-1,56,58,60,62,64,66,68,70,72,74,-1,-1,76,78,80,82,84,86,88,-1,90,92,94,96,98,-1,100,102,104,106,-1,-1,-1,-1,-1,-1,-1,-1,-1,-1,-1,-1,-1,-1,-1,-1,-1,-1,-1,-1,-1,-1,-1,-1,-1,-1,-1,-1,-1,-1,-1,-1,-1,-1,-1,-1,-1,-1,-1,-1,-1,-1,-1,-1,-1,-1,-1,-1],"split_conditions":[2.9E1,1.8942265E2,1.31735E2,1.5E1,6.855E0,9.521E0,3.1E1,9.816E0,1.9E1,6E0,2.1E1,3.4E1,3.5E1,1.3662773E2,3.3E1,4.7E1,5.341E1,1.7E1,2E1,2.1872626E2,9E0,2.0283803E2,4.7E1,-6.126244E-2,4.3E1,3.4E1,3.9E1,5.1E1,-3.399139E-2,1.9571848E2,3.8E1,1.364E1,5.2E1,3E0,3.034E0,3.51E2,9.137E0,4E0,2.3E1,-5.1860005E-2,-3.3421062E-2,7E0,6.339E0,4.7E1,4E0,8.268E1,5.2E1,1.3015752E2,-5.3554278E-2,3E1,4.7E1,3.239E0,5.243E1,4.7E1,1.3461749E-2,5E1,4.7E1,8.745E0,9.003E0,-2.2283554E-2,3.7005734E-2,5.4225046E-2,2.807743E-2,-2.1591664E-3,1.632741E-2,-3.4793378E-3,3.3823352E-3,-1.7837565E-2,1.7545223E-2,-1.1865146E-3,1.2268657E-2,1.0074973E-2,3.311586E-2,-7.164876E-4,1.9993108E-2,3.5339337E-2,-2.0805204E-3,-2.0622147E-2,-3.5994235E-2,-2.7646387E-2,-6.9254427E-3,4.9862615E-3,4.327965E-2,-2.2960354E-2,-1.2160218E-2,1.1580048E-2,-1.5770866E-2,-2.299021E-2,-7.6698936E-3,-2.1311332E-2,-5.2111864E-2,2.2426706E-3,1.2594642E-2,-4.7877353E-2,-3.7847824E-2,-1.0174847E-2,-2.498911E-2,-2.6112651E-2,-1.2372494E-2,1.1031344E-2,2.7989928E-2,1.9576145E-2,2.8651167E-2,-2.9170796E-2,1.2453215E-2,1.0390198E-2,-2.2827847E-2],"split_indices":[0,4,4,0,5,5,0,5,0,0,0,0,0,4,0,8,2,0,0,4,0,4,8,0,0,0,0,8,0,4,0,2,8,8,3,12,5,8,0,0,0,0,5,8,0,2,8,4,0,0,8,3,2,8,0,8,8,5,5,0,0,0,0,0,0,0,0,0,0,0,0,0,0,0,0,0,0,0,0,0,0,0,0,0,0,0,0,0,0,0,0,0,0,0,0,0,0,0,0,0,0,0,0,0,0,0,0],"split_type":[0,0,0,0,0,0,0,0,0,0,0,0,0,0,0,0,0,0,0,0,0,0,0,0,0,0,0,0,0,0,0,0,0,0,0,0,0,0,0,0,0,0,0,0,0,0,0,0,0,0,0,0,0,0,0,0,0,0,0,0,0,0,0,0,0,0,0,0,0,0,0,0,0,0,0,0,0,0,0,0,0,0,0,0,0,0,0,0,0,0,0,0,0,0,0,0,0,0,0,0,0,0,0,0,0,0,0],"sum_hessian":[3.636E3,2.22E3,1.416E3,1.194E3,1.026E3,4.16E2,1E3,4.04E2,7.9E2,2.94E2,7.32E2,2.11E2,2.05E2,1.66E2,8.34E2,3.34E2,7E1,2.39E2,5.51E2,7.7E1,2.17E2,5.73E2,1.59E2,6.6E1,1.45E2,1.06E2,9.9E1,8E1,8.6E1,1.65E2,6.69E2,2.94E2,4E1,1.9E1,5.1E1,7.8E1,1.61E2,8.4E1,4.67E2,6.9E1,8E0,8.7E1,1.3E2,1.09E2,4.64E2,1.42E2,1.7E1,6.3E1,8.2E1,1.9E1,8.7E1,8.3E1,1.6E1,7.8E1,2E0,7.6E1,8.9E1,2.56E2,4.13E2,1E0,2.93E2,3.6E1,4E0,3E0,1.6E1,7E0,4.4E1,7.5E1,3E0,1.25E2,3.6E1,3E0,8.1E1,8.3E1,3.84E2,9E0,7.8E1,3E1,1E2,9.5E1,1.4E1,2.33E2,2.31E2,1.21E2,2.1E1,1.4E1,3E0,6.1E1,2E0,3E0,1.6E1,7.5E1,1.2E1,3.9E1,4.4E1,2E0,1.4E1,7.2E1,6E0,7.4E1,2E0,7.4E1,1.5E1,2.02E2,5.4E1,3.32E2,8.1E1],"tree_param":{"num_deleted":"0","num_feature":"13","num_nodes":"107","size_leaf_vector":"1"}},{"base_weights":[-3.65134E-4,8.212919E-2,-1.2966615E-1,1.7177242E-1,-2.2258146E-2,-3.1715143E-1,-5.143335E-2,2.9749966E-1,1.0718165E-1,3.136819E-1,-8.2331985E-2,-4.2512923E-1,-2.0448904E-1,-2.6494762E-1,-8.668899E-3,3.490556E-1,5.0052725E-2,-3.6743976E-2,1.6956384E-1,2.4692649E-1,3.824854E-1,-4.7366935E-1,2.9273704E-3,-5.5227663E-2,-3.6386892E-1,-5.4124992E-2,-3.6333367E-1,-3.1868856E-2,-2.2667447E-1,1.5439047E-1,-4.9055744E-2,3.36525E-1,5.510372E-1,3.2345213E-2,1.6844389E-1,-1.4645013E-1,1.698152E-2,1.4982921E-1,3.151167E-1,2.2845235E-1,3.5709506E-1,3.539405E-2,5.326333E-1,-4.8954135E-1,-3.4832346E-1,-2.3990522E-1,7.088065E-2,-2.0416069E-1,-4.8263352E-2,-4.4068742E-1,3.434516E-2,-2.569829E-1,-4.0112313E-2,-2.3621587E-1,3.7637712E-3,1.0471813E-1,1.9132334E-1,-1.8345281E-1,3.4492817E-2,-2.1169377E-2,3.389222E-2,6.162219E-2,2.5831262E-2,4.65207E-3,-2.9306914E-4,1.8510306E-2,1.7585278E-3,-1.718164E-2,4.575882E-3,-1.0688192E-3,1.1074915E-2,2.6946936E-2,1.2813476E-2,3.564743E-2,7.968183E-3,1.9064648E-2,2.6008386E-2,4.026494E-2,1.165851E-2,5.8359828E-2,2.1918233E-2,-4.9106766E-2,-1.4174605E-2,-3.8588334E-2,-1.9010989E-2,-3.153896E-2,-1.816925E-2,1.652387E-2,-1.6663697E-2,-1.26863895E-2,-2.1293767E-2,-1.971295E-2,-4.7207236E-2,2.0213178E-3,1.1432098E-2,-1.9535316E-2,-2.9484749E-2,-2.4118457E-2,-1.2065998E-2,7.726264E-3,-1.4511585E-2,9.552973E-3,2.3933554E-2,1.9625474E-2,3.1303407E-3,2.0202694E-2,-2.4513667E-2,2.7345672E-2,-2.8076756E-3],"categories":[],"categories_nodes":[],"categories_segments":[],"categories_sizes":[],"default_left":[0,0,0,0,0,0,0,0,0,0,0,0,0,0,0,0,0,0,0,0,0,0,0,0,0,0,0,0,0,0,0,0,0,0,0,0,0,0,0,0,0,0,0,0,0,0,0,0,0,0,0,0,0,0,0,0,0,0,0,0,0,0,0,0,0,0,0,0,0,0,0,0,0,0,0,0,0,0,0,0,0,0,0,0,0,0,0,0,0,0,0,0,0,0,0,0,0,0,0,0,0,0,0,0,0,0,0,0,0],"id":8,"left_children":[1,3,5,7,9,11,13,15,17,19,21,23,25,27,29,31,33,35,37,39,41,43,45,-1,47,49,51,-1,53,55,57,59,61,63,65,67,69,71,73,75,77,-1,79,81,83,85,87,89,-1,91,93,95,-1,97,99,101,103,105,107,-1,-1,-1,-1,-1,-1,-1,-1,-1,-1,-1,-1,-1,-1,-1,-1,-1,-1,-1,-1,-1,-1,-1,-1,-1,-1,-1,-1,-1,-1,-1,-1,-1,-1,-1,-1,-1,-1,-1,-1,-1,-1,-1,-1,-1,-1,-1,-1,-1,-1],"loss_changes":[3.8805073E1,2.0787094E1,2.0767529E1,9.672489E0,2.0751928E1,4.9858856E0,9.137654E0,5.1492577E0,7.10814E0,6.2206364E-1,2.9095818E1,1.4503288E0,4.900547E0,2.7125263E-1,5.506428E0,6.624336E-1,1.4339694E-1,1.4170511E0,1.5383701E0,8.531284E-2,1.3292694E-1,1.3983917E-1,1.1848416E1,0E0,2.6707458E0,3.6744537E0,2.9881096E-1,0E0,2.2295856E-1,2.844987E-1,7.529544E0,4.8966217E-1,1.8428373E-1,3.1639688E-2,1.9363523E-2,3.9303637E-1,4.2149642E-1,1.2320881E0,6.0450125E-1,3.7713528E-2,6.2619805E-2,0E0,3.1835794E-2,2.5901794E-3,5.1431894E-2,6.3257694E-1,1.2600498E1,1.6405344E-2,0E0,5.9821367E-2,9.714831E-2,1.00746155E-2,0E0,2.6592255E-2,6.592445E-2,6.743133E-2,6.803393E-2,6.1604414E0,6.1977515E0,0E0,0E0,0E0,0E0,0E0,0E0,0E0,0E0,0E0,0E0,0E0,0E0,0E0,0E0,0E0,0E0,0E0,0E0,0E0,0E0,0E0,0E0,0E0,0E0,0E0,0E0,0E0,0E0,0E0,0E0,0E0,0E0,0E0,0E0,0E0,0E0,0E0,0E0,0E0,0E0,0E0,0E0,0E0,0E0,0E0,0E0,0E0,0E0,0E0,0E0],"parents":[2147483647,0,0,1,1,2,2,3,3,4,4,5,5,6,6,7,7,8,8,9,9,10,10,11,11,12,12,13,13,14,14,15,15,16,16,17,17,18,18,19,19,20,20,21,21,22,22,24,24,25,25,26,26,28,28,29,29,30,30,31,31,32,32,33,33,34,34,35,35,36,36,37,37,38,38,39,39,40,40,42,42,43,43,44,44,45,45,46,46,47,47,49,49,50,50,51,51,53,53,54,54,55,55,56,56,57,57,58,58],"right_children":[2,4,6,8,10,12,14,16,18,20,22,24,26,28,30,32,34,36,38,40,42,44,46,-1,48,50,52,-1,54,56,58,60,62,64,66,68,70,72,74,76,78,-1,80,82,84,86,88,90,-1,92,94,96,-1,98,100,102,104,106,108,-1,-1,-1,-1,-1,-1,-1,-1,-1,-1,-1,-1,-1,-1,-1,-1,-1,-1,-1,-1,-1,-1,-1,-1,-1,-1,-1,-1,-1,-1,-1,-1,-1,-1,-1,-1,-1,-1,-1,-1,-1,-1,-1,-1,-1,-1,-1,-1,-1,-1],"split_conditions":[2.9E1,1.8942265E2,1.31735E2,1.5E1,3E0,9.521E0,3.1E1,9.816E0,1.9E1,2E0,6E0,3.4E1,3.5E1,8.177E0,3.3E1,5E1,4.7E1,1.7E1,4.7E1,4.7E1,4.7E1,4.7E1,1.9617139E2,-5.5227663E-2,4.3E1,3.4E1,1.3503E1,-3.1868856E-2,5E1,1.95179E2,3.8E1,1.364E1,1E0,1.418E1,3.623E0,4.7E1,9.137E0,2E1,5.2E1,2.1200635E2,5.2E1,3.539405E-2,5.2E1,2.2215895E2,5.458E1,2.2E1,2.1E1,8E0,-4.8263352E-2,3E1,4.7E1,3.058E0,-4.0112313E-2,4.7E1,1E0,4.7E1,5.2E1,1.3662773E2,4E1,-2.1169377E-2,3.389222E-2,6.162219E-2,2.5831262E-2,4.65207E-3,-2.9306914E-4,1.8510306E-2,1.7585278E-3,-1.718164E-2,4.575882E-3,-1.0688192E-3,1.1074915E-2,2.6946936E-2,1.2813476E-2,3.564743E-2,7.968183E-3,1.9064648E-2,2.6008386E-2,4.026494E-2,1.165851E-2,5.8359828E-2,2.1918233E-2,-4.9106766E-2,-1.4174605E-2,-3.8588334E-2,-1.9010989E-2,-3.153896E-2,-1.816925E-2,1.652387E-2,-1.6663697E-2,-1.26863895E-2,-2.1293767E-2,-1.971295E-2,-4.7207236E-2,2.0213178E-3,1.1432098E-2,-1.9535316E-2,-2.9484749E-2,-2.4118457E-2,-1.2065998E-2,7.726264E-3,-1.4511585E-2,9.552973E-3,2.3933554E-2,1.9625474E-2,3.1303407E-3,2.0202694E-2,-2.4513667E-2,2.7345672E-2,-2.8076756E-3],"split_indices":[0,4,4,0,0,5,0,5,0,0,0,0,0,5,0,8,8,0,8,8,8,8,4,0,0,0,5,0,8,4,0,2,1,5,3,8,5,0,8,4,8,0,8,4,2,8,0,8,0,0,8,3,0,8,1,8,8,4,0,0,0,0,0,0,0,0,0,0,0,0,0,0,0,0,0,0,0,0,0,0,0,0,0,0,0,0,0,0,0,0,0,0,0,0,0,0,0,0,0,0,0,0,0,0,0,0,0,0,0],"split_type":[0,0,0,0,0,0,0,0,0,0,0,0,0,0,0,0,0,0,0,0,0,0,0,0,0,0,0,0,0,0,0,0,0,0,0,0,0,0,0,0,0,0,0,0,0,0,0,0,0,0,0,0,0,0,0,0,0,0,0,0,0,0,0,0,0,0,0,0,0,0,0,0,0,0,0,0,0,0,0,0,0,0,0,0,0,0,0,0,0,0,0,0,0,0,0,0,0,0,0,0,0,0,0,0,0,0,0,0,0],"sum_hessian":[3.636E3,2.22E3,1.416E3,1.194E3,1.026E3,4.16E2,1E3,4.04E2,7.9E2,1.55E2,8.71E2,2.11E2,2.05E2,1.66E2,8.34E2,3.34E2,7E1,2.39E2,5.51E2,8.1E1,7.4E1,1.55E2,7.16E2,6.6E1,1.45E2,1.06E2,9.9E1,6.6E1,1E2,1.65E2,6.69E2,3.17E2,1.7E1,6.2E1,8E0,7.8E1,1.61E2,4.87E2,6.4E1,7.2E1,9E0,6.5E1,9E0,1.35E2,2E1,1.56E2,5.6E2,6.3E1,8.2E1,1.9E1,8.7E1,2.8E1,7.1E1,9.6E1,4E0,7.2E1,9.3E1,2.56E2,4.13E2,1E0,3.16E2,1.3E1,4E0,4.4E1,1.8E1,7E0,1E0,6.9E1,9E0,1.25E2,3.6E1,7.3E1,4.14E2,5.4E1,1E1,3.6E1,3.6E1,7E0,2E0,7E0,2E0,1.34E2,1E0,1.5E1,5E0,6.6E1,9E1,4.01E2,1.59E2,8E0,5.5E1,3E0,1.6E1,7.5E1,1.2E1,1.3E1,1.5E1,9.1E1,5E0,3E0,1E0,6.9E1,3E0,9E1,3E0,3.5E1,2.21E2,8.5E1,3.28E2],"tree_param":{"num_deleted":"0","num_feature":"13","num_nodes":"109","size_leaf_vector":"1"}},{"base_weights":[-3.372685E-4,7.4027546E-2,-1.16896145E-1,1.55301E-1,-1.9422058E-2,-2.86108E-1,-4.628851E-2,2.6879045E-1,9.7568326E-2,-2.378478E-1,6.809275E-2,-4.808934E-1,-2.3478977E-1,-2.3890099E-1,-7.710577E-3,3.1603995E-1,4.539432E-2,-3.084555E-2,1.5275843E-1,-4.0862533E-1,-1.7593686E-1,1.2816025E-1,-1.5007755E-1,-1.8234445E-2,-4.8948742E-2,3.1063177E-2,-3.2932147E-1,-1.9825302E-1,-2.796105E-1,1.0311617E-1,-5.6338992E-2,3.055361E-1,4.91462E-1,1.12601236E-1,1.8672539E-2,-1.2762572E-1,1.5345302E-2,1.2023015E-1,2.3170127E-1,-4.2250227E-2,-2.856928E-1,3.3745982E-3,-2.94145E-1,5.4767307E-2,5.324431E-2,-1.7683251E-1,7.081328E-2,1.493375E-2,8.885248E-2,-2.7351406E-1,-4.3495145E-2,-2.0792969E-1,2.030182E-3,-1.3453198E-2,-2.8346572E-2,5.412403E-2,1.6518538E-1,-4.0220612E-1,1.3029141E-3,3.1388298E-2,2.249496E-2,5.512781E-2,2.3764763E-2,-2.3461343E-3,1.3799235E-2,3.239958E-3,-1.7347463E-3,-1.4138686E-2,1.5886188E-2,-9.627607E-4,9.997345E-3,1.6477553E-2,-5.6113326E-3,1.5575702E-2,3.135902E-2,-7.220459E-3,-2.998212E-2,3.0671606E-2,-3.506577E-3,-3.4488287E-2,-2.1200962E-2,2.8367698E-2,-5.1359334E-3,-2.4651987E-2,-1.5534297E-2,1.20544685E-2,-1.333828E-2,4.5895064E-3,7.7366666E-4,1.1260493E-2,-7.536221E-3,-3.505732E-2,-1.8918306E-2,-2.1233957E-2,-9.666748E-3,7.146764E-3,-1.37859825E-2,1.823855E-2,1.1265895E-3,1.5042518E-2,2.4434501E-2,-3.0583305E-2,-5.1375557E-2,4.1369605E-3,-2.0295538E-2],"categories":[],"categories_nodes":[],"categories_segments":[],"categories_sizes":[],"default_left":[0,0,0,0,0,0,0,0,0,0,0,0,0,0,0,0,0,0,0,0,0,0,0,0,0,0,0,0,0,0,0,0,0,0,0,0,0,0,0,0,0,0,0,0,0,0,0,0,0,0,0,0,0,0,0,0,0,0,0,0,0,0,0,0,0,0,0,0,0,0,0,0,0,0,0,0,0,0,0,0,0,0,0,0,0,0,0,0,0,0,0,0,0,0,0,0,0,0,0,0,0,0,0,0,0],"id":9,"left_children":[1,3,5,7,9,11,13,15,17,19,21,23,25,27,29,31,33,35,37,39,41,43,45,-1,-1,47,49,51,53,55,57,59,61,63,65,67,69,71,73,-1,75,77,79,81,-1,83,85,87,89,91,-1,93,95,-1,-1,97,99,101,103,-1,-1,-1,-1,-1,-1,-1,-1,-1,-1,-1,-1,-1,-1,-1,-1,-1,-1,-1,-1,-1,-1,-1,-1,-1,-1,-1,-1,-1,-1,-1,-1,-1,-1,-1,-1,-1,-1,-1,-1,-1,-1,-1,-1,-1,-1],"loss_changes":[3.153373E1,1.687145E1,1.6916574E1,7.7576084E0,1.9781609E1,4.055443E0,7.436179E0,4.207796E0,5.5964923E0,3.0577164E0,9.703791E0,1.3139534E-1,8.353899E0,2.2091198E-1,4.5058994E0,4.57901E-1,1.2540552E-1,1.0659037E0,1.3896093E0,1.2357712E-2,4.6429315E0,1.7180317E1,9.581094E-1,0E0,0E0,8.0698654E-2,1.3252945E0,1.6903472E-1,7.168293E-3,7.6648974E-1,1.1583595E1,1.4060211E-1,1.2708712E-1,7.23331E-2,2.6273344E-2,3.260256E-1,3.433351E-1,3.096374E0,9.4619465E-1,0E0,1.1530101E-2,1.0368843E0,4.769745E-1,1.196693E1,0E0,1.7585468E-1,1.9886784E-1,1.5243105E-2,8.259566E-2,9.9292946E-1,0E0,2.019763E-2,5.8420546E-2,0E0,0E0,7.895201E-1,9.4106436E-2,7.3515606E-1,4.09219E0,0E0,0E0,0E0,0E0,0E0,0E0,0E0,0E0,0E0,0E0,0E0,0E0,0E0,0E0,0E0,0E0,0E0,0E0,0E0,0E0,0E0,0E0,0E0,0E0,0E0,0E0,0E0,0E0,0E0,0E0,0E0,0E0,0E0,0E0,0E0,0E0,0E0,0E0,0E0,0E0,0E0,0E0,0E0,0E0,0E0,0E0],"parents":[2147483647,0,0,1,1,2,2,3,3,4,4,5,5,6,6,7,7,8,8,9,9,10,10,11,11,12,12,13,13,14,14,15,15,16,16,17,17,18,18,19,19,20,20,21,21,22,22,25,25,26,26,27,27,28,28,29,29,30,30,31,31,32,32,33,33,34,34,35,35,36,36,37,37,38,38,40,40,41,41,42,42,43,43,45,45,46,46,47,47,48,48,49,49,51,51,52,52,55,55,56,56,57,57,58,58],"right_children":[2,4,6,8,10,12,14,16,18,20,22,24,26,28,30,32,34,36,38,40,42,44,46,-1,-1,48,50,52,54,56,58,60,62,64,66,68,70,72,74,-1,76,78,80,82,-1,84,86,88,90,92,-1,94,96,-1,-1,98,100,102,104,-1,-1,-1,-1,-1,-1,-1,-1,-1,-1,-1,-1,-1,-1,-1,-1,-1,-1,-1,-1,-1,-1,-1,-1,-1,-1,-1,-1,-1,-1,-1,-1,-1,-1,-1,-1,-1,-1,-1,-1,-1,-1,-1,-1,-1,-1],"split_conditions":[2.9E1,1.8865446E2,1.31735E2,1.5E1,6.855E0,3.4E1,3.1E1,9.816E0,1.9E1,6E0,2.1E1,3E1,3.5E1,2.101824E2,3.6E1,5E1,5.341E1,1.6E1,2.7E1,2.1820074E2,9E0,1.7E1,4.7E1,-1.8234445E-2,-4.8948742E-2,4.4E1,4.3E1,5E1,3.807E1,1.927252E2,3.7E1,8.359E1,1E0,3E0,3.6E1,3.51E2,9.137E0,2.5E1,1.3566823E2,-4.2250227E-2,3.119E0,7E0,1E1,3E0,5.324431E-2,4.442E1,5.2E1,7.8E1,5.2E1,3.9E1,-4.3495145E-2,1E0,1E0,-1.3453198E-2,-2.8346572E-2,1.3662773E2,4.7E1,2.129033E2,9.003E0,3.1388298E-2,2.249496E-2,5.512781E-2,2.3764763E-2,-2.3461343E-3,1.3799235E-2,3.239958E-3,-1.7347463E-3,-1.4138686E-2,1.5886188E-2,-9.627607E-4,9.997345E-3,1.6477553E-2,-5.6113326E-3,1.5575702E-2,3.135902E-2,-7.220459E-3,-2.998212E-2,3.0671606E-2,-3.506577E-3,-3.4488287E-2,-2.1200962E-2,2.8367698E-2,-5.1359334E-3,-2.4651987E-2,-1.5534297E-2,1.20544685E-2,-1.333828E-2,4.5895064E-3,7.7366666E-4,1.1260493E-2,-7.536221E-3,-3.505732E-2,-1.8918306E-2,-2.1233957E-2,-9.666748E-3,7.146764E-3,-1.37859825E-2,1.823855E-2,1.1265895E-3,1.5042518E-2,2.4434501E-2,-3.0583305E-2,-5.1375557E-2,4.1369605E-3,-2.0295538E-2],"split_indices":[0,4,4,0,5,0,0,5,0,0,0,0,0,4,0,8,2,0,0,4,0,0,8,0,0,8,0,8,2,4,0,2,1,8,8,12,5,0,4,0,3,0,0,0,0,2,8,12,8,0,0,1,1,0,0,4,8,4,5,0,0,0,0,0,0,0,0,0,0,0,0,0,0,0,0,0,0,0,0,0,0,0,0,0,0,0,0,0,0,0,0,0,0,0,0,0,0,0,0,0,0,0,0,0,0],"split_type":[0,0,0,0,0,0,0,0,0,0,0,0,0,0,0,0,0,0,0,0,0,0,0,0,0,0,0,0,0,0,0,0,0,0,0,0,0,0,0,0,0,0,0,0,0,0,0,0,0,0,0,0,0,0,0,0,0,0,0,0,0,0,0,0,0,0,0,0,0,0,0,0,0,0,0,0,0,0,0,0,0,0,0,0,0,0,0,0,0,0,0,0,0,0,0,0,0,0,0,0,0,0,0,0,0],"sum_hessian":[3.636E3,2.22E3,1.416E3,1.187E3,1.033E3,4.16E2,1E3,3.99E2,7.88E2,2.95E2,7.38E2,8.5E1,3.31E2,1.66E2,8.34E2,3.29E2,7E1,2.37E2,5.51E2,7.7E1,2.18E2,5.79E2,1.59E2,3E0,8.2E1,8.7E1,2.44E2,8.6E1,8E1,2.54E2,5.8E2,3.13E2,1.6E1,1.9E1,5.1E1,7.6E1,1.61E2,3.92E2,1.59E2,6.7E1,1E1,8.7E1,1.31E2,4.91E2,8.8E1,1.42E2,1.7E1,6.9E1,1.8E1,1.62E2,8.2E1,8.2E1,4E0,3E0,7.7E1,1.43E2,1.11E2,8.2E1,4.98E2,2.81E2,3.2E1,1.2E1,4E0,3E0,1.6E1,3.7E1,1.4E1,7.3E1,3E0,1.25E2,3.6E1,3.13E2,7.9E1,8.4E1,7.5E1,1E0,9E0,9E0,7.8E1,7.9E1,5.2E1,1.55E2,3.36E2,3.1E1,1.11E2,1.4E1,3E0,1.2E1,5.7E1,1.6E1,2E0,8.3E1,7.9E1,7.8E1,4E0,3E0,1E0,3.5E1,1.08E2,9.6E1,1.5E1,4.6E1,3.6E1,4.17E2,8.1E1],"tree_param":{"num_deleted":"0","num_feature":"13","num_nodes":"105","size_leaf_vector":"1"}},{"base_weights":[-3.4010512E-4,6.66884E-2,-1.0540007E-1,1.3955088E-1,-1.8158082E-2,-2.5787038E-1,-4.1778177E-2,2.4193354E-1,8.695349E-2,-2.1446563E-1,6.0871776E-2,-4.3358567E-1,-2.1157706E-1,-2.1548596E-1,-6.986585E-3,2.837893E-1,4.1037466E-2,-2.9866759E-2,1.3758738E-1,-3.6878103E-1,-1.5826808E-1,-1.9888291E-1,1.0656431E-1,-1.6866876E-2,-4.4112887E-2,2.8060414E-2,-2.9678732E-1,-2.598159E-2,-1.8394543E-1,1.280167E-1,-4.042473E-2,2.6707628E-1,3.9711988E-1,2.6022064E-2,1.4158556E-1,-1.19170345E-1,1.3866884E-2,1.1974886E-1,2.6939672E-1,-3.821511E-2,-2.634E-1,3.345858E-3,-2.6562503E-1,-2.1191819E-1,6.2381905E-2,1.8956725E-1,-1.3532901E-1,1.6024375E-2,9.6266456E-2,-2.4649407E-1,-3.919803E-2,-1.9155656E-1,4.9934385E-4,1.1368649E-1,2.3290378E-1,-1.5654288E-1,3.1755924E-2,-1.9854117E-2,2.6933534E-2,8.347082E-3,4.028743E-2,-4.4258498E-3,3.1536992E-3,8.71048E-3,2.2151215E-2,-1.4097191E-2,4.5357705E-3,-8.672041E-4,9.0246275E-3,9.066377E-3,1.9139849E-2,3.0699292E-2,5.692508E-3,-2.9253751E-2,-7.8475E-3,-4.060829E-3,2.3857554E-2,-1.5756933E-2,-2.9616067E-2,-2.434172E-2,-1.01384735E-2,1.7692138E-2,-1.1113135E-2,2.3529232E-3,3.5621952E-2,-1.594303E-2,6.3660624E-3,2.6644885E-3,2.1212523E-4,1.329526E-2,-7.033825E-3,-3.159335E-2,-1.705015E-2,-1.4595653E-2,-2.0454895E-2,6.610751E-3,-1.3096667E-2,9.443105E-3,1.709692E-2,2.7391566E-2,1.063037E-3,2.7480815E-3,-2.5419522E-2,1.131153E-2,-1.21578425E-2],"categories":[],"categories_nodes":[],"categories_segments":[],"categories_sizes":[],"default_left":[0,0,0,0,0,0,0,0,0,0,0,0,0,0,0,0,0,0,0,0,0,0,0,0,0,0,0,0,0,0,0,0,0,0,0,0,0,0,0,0,0,0,0,0,0,0,0,0,0,0,0,0,0,0,0,0,0,0,0,0,0,0,0,0,0,0,0,0,0,0,0,0,0,0,0,0,0,0,0,0,0,0,0,0,0,0,0,0,0,0,0,0,0,0,0,0,0,0,0,0,0,0,0,0,0],"id":10,"left_children":[1,3,5,7,9,11,13,15,17,19,21,23,25,27,29,31,33,35,37,39,41,43,45,-1,-1,47,49,-1,51,53,55,57,59,61,63,65,67,69,71,-1,73,75,77,79,81,83,85,87,89,91,-1,93,95,97,99,101,103,-1,-1,-1,-1,-1,-1,-1,-1,-1,-1,-1,-1,-1,-1,-1,-1,-1,-1,-1,-1,-1,-1,-1,-1,-1,-1,-1,-1,-1,-1,-1,-1,-1,-1,-1,-1,-1,-1,-1,-1,-1,-1,-1,-1,-1,-1,-1,-1],"loss_changes":[2.5618828E1,1.3733032E1,1.3734766E1,6.41411E0,1.5946095E1,3.3003273E0,6.048108E0,3.3938618E0,4.6829247E0,2.499919E0,8.721061E0,9.745026E-2,6.787627E0,1.8570614E-1,3.7745817E0,5.2845955E-1,1.0350932E-1,9.389895E-1,1.2656479E0,9.239197E-3,3.7832713E0,3.8784266E-1,1.2554237E1,0E0,0E0,7.0699275E-2,1.0763321E0,0E0,1.4188242E-1,2.230289E-1,5.6205664E0,3.6376953E-1,4.0371418E-2,2.5814094E-2,1.989539E-2,2.89765E-1,2.7966714E-1,9.9960756E-1,5.017524E-1,0E0,4.170209E-2,9.195483E-1,3.8557434E-1,3.408985E-1,1.389062E-1,1.2858456E1,7.7749443E-1,1.1165505E-2,8.880877E-2,8.062649E-1,0E0,2.7612686E-2,5.17841E-2,1.4709973E-1,1.7028928E-1,4.625363E0,5.1784797E0,0E0,0E0,0E0,0E0,0E0,0E0,0E0,0E0,0E0,0E0,0E0,0E0,0E0,0E0,0E0,0E0,0E0,0E0,0E0,0E0,0E0,0E0,0E0,0E0,0E0,0E0,0E0,0E0,0E0,0E0,0E0,0E0,0E0,0E0,0E0,0E0,0E0,0E0,0E0,0E0,0E0,0E0,0E0,0E0,0E0,0E0,0E0,0E0],"parents":[2147483647,0,0,1,1,2,2,3,3,4,4,5,5,6,6,7,7,8,8,9,9,10,10,11,11,12,12,13,13,14,14,15,15,16,16,17,17,18,18,19,19,20,20,21,21,22,22,25,25,26,26,28,28,29,29,30,30,31,31,32,32,33,33,34,34,35,35,36,36,37,37,38,38,40,40,41,41,42,42,43,43,44,44,45,45,46,46,47,47,48,48,49,49,51,51,52,52,53,53,54,54,55,55,56,56],"right_children":[2,4,6,8,10,12,14,16,18,20,22,24,26,28,30,32,34,36,38,40,42,44,46,-1,-1,48,50,-1,52,54,56,58,60,62,64,66,68,70,72,-1,74,76,78,80,82,84,86,88,90,92,-1,94,96,98,100,102,104,-1,-1,-1,-1,-1,-1,-1,-1,-1,-1,-1,-1,-1,-1,-1,-1,-1,-1,-1,-1,-1,-1,-1,-1,-1,-1,-1,-1,-1,-1,-1,-1,-1,-1,-1,-1,-1,-1,-1,-1,-1,-1,-1,-1,-1,-1,-1,-1],"split_conditions":[2.9E1,1.8942265E2,1.31735E2,1.5E1,6.855E0,3.4E1,3.1E1,9.816E0,1.9E1,6E0,2.0283803E2,3E1,3.5E1,8.177E0,3.3E1,4.7E1,4.7E1,1.7E1,4.7E1,4.6E1,9E0,5.1E1,2.1E1,-1.6866876E-2,-4.4112887E-2,4.7E1,4.3E1,-2.598159E-2,5E1,4.7E1,3.8E1,1.364E1,2.728E0,4E0,1E0,4.7E1,9.137E0,2.7E1,5.2E1,-3.821511E-2,5.458E1,4.7E1,6.339E0,1.9284706E2,1E0,4E0,4.7E1,6.396E1,5.2E1,3.9E1,-3.919803E-2,1.3275645E2,1E0,2.118613E2,5.2E1,3.6E1,8.549E0,-1.9854117E-2,2.6933534E-2,8.347082E-3,4.028743E-2,-4.4258498E-3,3.1536992E-3,8.71048E-3,2.2151215E-2,-1.4097191E-2,4.5357705E-3,-8.672041E-4,9.0246275E-3,9.066377E-3,1.9139849E-2,3.0699292E-2,5.692508E-3,-2.9253751E-2,-7.8475E-3,-4.060829E-3,2.3857554E-2,-1.5756933E-2,-2.9616067E-2,-2.434172E-2,-1.01384735E-2,1.7692138E-2,-1.1113135E-2,2.3529232E-3,3.5621952E-2,-1.594303E-2,6.3660624E-3,2.6644885E-3,2.1212523E-4,1.329526E-2,-7.033825E-3,-3.159335E-2,-1.705015E-2,-1.4595653E-2,-2.0454895E-2,6.610751E-3,-1.3096667E-2,9.443105E-3,1.709692E-2,2.7391566E-2,1.063037E-3,2.7480815E-3,-2.5419522E-2,1.131153E-2,-1.21578425E-2],"split_indices":[0,4,4,0,5,0,0,5,0,0,4,0,0,5,0,8,8,0,8,8,0,8,0,0,0,8,0,0,8,8,0,2,3,8,1,8,5,0,8,0,2,8,5,4,1,0,8,2,8,0,0,4,1,4,8,0,5,0,0,0,0,0,0,0,0,0,0,0,0,0,0,0,0,0,0,0,0,0,0,0,0,0,0,0,0,0,0,0,0,0,0,0,0,0,0,0,0,0,0,0,0,0,0,0,0],"split_type":[0,0,0,0,0,0,0,0,0,0,0,0,0,0,0,0,0,0,0,0,0,0,0,0,0,0,0,0,0,0,0,0,0,0,0,0,0,0,0,0,0,0,0,0,0,0,0,0,0,0,0,0,0,0,0,0,0,0,0,0,0,0,0,0,0,0,0,0,0,0,0,0,0,0,0,0,0,0,0,0,0,0,0,0,0,0,0,0,0,0,0,0,0,0,0,0,0,0,0,0,0,0,0,0,0],"sum_hessian":[3.636E3,2.22E3,1.416E3,1.194E3,1.026E3,4.16E2,1E3,4.04E2,7.9E2,2.94E2,7.32E2,8.5E1,3.31E2,1.66E2,8.34E2,3.34E2,7E1,2.39E2,5.51E2,7.7E1,2.17E2,1.09E2,6.23E2,3E0,8.2E1,8.7E1,2.44E2,6.6E1,1E2,1.65E2,6.69E2,2.94E2,4E1,6.2E1,8E0,7.8E1,1.61E2,4.87E2,6.4E1,6.6E1,1.1E1,8.7E1,1.3E2,1.04E2,5E0,4.64E2,1.59E2,7.5E1,1.2E1,1.62E2,8.2E1,9.6E1,4E0,1.47E2,1.8E1,2.56E2,4.13E2,1E0,2.93E2,1E0,3.9E1,4E0,5.8E1,6E0,2E0,6.9E1,9E0,1.25E2,3.6E1,3.48E2,1.39E2,5.4E1,1E1,9E0,2E0,7.4E1,1.3E1,3E1,1E2,8E1,2.4E1,3E0,2E0,2.33E2,2.31E2,1.42E2,1.7E1,4.2E1,3.3E1,1E1,2E0,8.3E1,7.9E1,2.4E1,7.2E1,3E0,1E0,1.12E2,3.5E1,1.5E1,3E0,8.9E1,1.67E2,2.7E2,1.43E2],"tree_param":{"num_deleted":"0","num_feature":"13","num_nodes":"105","size_leaf_vector":"1"}},{"base_weights":[-3.4125807E-4,6.004114E-2,-9.4984144E-2,1.2571988E-1,-1.643999E-2,-2.1038869E-1,-2.5582105E-2,2.1795073E-1,7.8337796E-2,2.531532E-1,-6.465111E-2,-1.8357034E-1,-3.5325464E-2,-2.1190873E-1,8.2910503E-4,2.5557664E-1,3.735037E-2,-2.6886085E-2,1.2394539E-1,1.9307044E-1,3.154683E-1,-3.878078E-1,5.749294E-3,-2.9905963E-1,-1.293543E-1,-1.8630672E-1,-2.5551498E-2,1.15546286E-1,-3.0288348E-2,2.4540962E-1,4.209951E-1,9.6487425E-2,1.3887076E-2,-1.0737431E-1,1.2530309E-2,2.3773973E-1,1.0301278E-1,1.7592445E-1,2.9892913E-1,2.8882781E-2,4.5974892E-1,-3.3578336E-2,-4.4383924E-2,3.0118784E-1,-3.1305302E-2,-1.6014937E-1,-3.9754715E-2,2.535833E-2,-1.9037402E-1,-1.0733986E-1,-1.9713733E-1,1.0249712E-1,2.1111107E-1,-1.4097714E-1,4.970409E-2,-1.8861389E-2,2.4737379E-2,4.747057E-2,1.8640634E-2,-1.8382311E-3,1.1783987E-2,-3.4596443E-3,2.2197766E-3,-1.1735229E-2,1.845185E-2,-2.069802E-4,1.2944619E-2,2.176875E-2,3.415834E-2,-4.7966014E-3,1.3568604E-2,1.4220643E-2,2.0488774E-2,3.4053683E-2,8.833217E-3,5.0565254E-2,1.8408967E-2,1.1412869E-2,3.0953137E-2,-1.6839353E-2,5.0136843E-3,-1.7401388E-2,2.9935837E-3,1.7175082E-3,1.1759663E-2,-2.8471628E-2,-1.3156876E-2,1.3188124E-3,-1.5418637E-2,-8.515396E-3,-2.0328615E-2,7.2629075E-3,1.3386629E-2,2.4823619E-2,9.83286E-4,1.6198097E-2,-1.8947046E-2,1.7101726E-2,-9.829021E-3],"categories":[],"categories_nodes":[],"categories_segments":[],"categories_sizes":[],"default_left":[0,0,0,0,0,0,0,0,0,0,0,0,0,0,0,0,0,0,0,0,0,0,0,0,0,0,0,0,0,0,0,0,0,0,0,0,0,0,0,0,0,0,0,0,0,0,0,0,0,0,0,0,0,0,0,0,0,0,0,0,0,0,0,0,0,0,0,0,0,0,0,0,0,0,0,0,0,0,0,0,0,0,0,0,0,0,0,0,0,0,0,0,0,0,0,0,0,0,0],"id":11,"left_children":[1,3,5,7,9,11,13,15,17,19,21,23,-1,25,27,29,31,33,35,37,39,41,43,45,47,49,-1,51,53,55,57,59,61,63,65,67,69,71,73,-1,75,-1,-1,77,79,81,-1,83,85,87,89,91,93,95,97,-1,-1,-1,-1,-1,-1,-1,-1,-1,-1,-1,-1,-1,-1,-1,-1,-1,-1,-1,-1,-1,-1,-1,-1,-1,-1,-1,-1,-1,-1,-1,-1,-1,-1,-1,-1,-1,-1,-1,-1,-1,-1,-1,-1],"loss_changes":[2.0790302E1,1.1158558E1,1.1343812E1,5.205183E0,1.3364686E1,1.9734764E0,4.36028E0,2.7425308E0,3.7993484E0,5.2316666E-1,1.9840544E1,2.7789307E0,0E0,7.5201035E-2,2.7771618E0,4.6009064E-1,9.717614E-2,7.627588E-1,1.2903795E0,9.624529E-2,1.554904E-1,3.0570793E-1,7.858683E0,1.8927069E0,2.912508E0,4.1273117E-2,0E0,1.8537068E-1,5.425818E0,3.1774902E-1,1.383102E-1,5.1221162E-2,2.1720402E-2,2.517411E-1,2.767995E-1,1.0263729E-1,2.3151383E0,4.2154312E-2,5.754423E-2,0E0,3.3452034E-2,0E0,0E0,8.9532375E-2,7.131559E0,1.659708E-1,0E0,6.440346E-2,1.1886082E0,6.414288E-2,2.6068926E-2,1.2894392E-1,1.3953608E-1,3.8063917E0,6.408311E0,0E0,0E0,0E0,0E0,0E0,0E0,0E0,0E0,0E0,0E0,0E0,0E0,0E0,0E0,0E0,0E0,0E0,0E0,0E0,0E0,0E0,0E0,0E0,0E0,0E0,0E0,0E0,0E0,0E0,0E0,0E0,0E0,0E0,0E0,0E0,0E0,0E0,0E0,0E0,0E0,0E0,0E0,0E0,0E0],"parents":[2147483647,0,0,1,1,2,2,3,3,4,4,5,5,6,6,7,7,8,8,9,9,10,10,11,11,13,13,14,14,15,15,16,16,17,17,18,18,19,19,20,20,21,21,22,22,23,23,24,24,25,25,27,27,28,28,29,29,30,30,31,31,32,32,33,33,34,34,35,35,36,36,37,37,38,38,40,40,43,43,44,44,45,45,47,47,48,48,49,49,50,50,51,51,52,52,53,53,54,54],"right_children":[2,4,6,8,10,12,14,16,18,20,22,24,-1,26,28,30,32,34,36,38,40,42,44,46,48,50,-1,52,54,56,58,60,62,64,66,68,70,72,74,-1,76,-1,-1,78,80,82,-1,84,86,88,90,92,94,96,98,-1,-1,-1,-1,-1,-1,-1,-1,-1,-1,-1,-1,-1,-1,-1,-1,-1,-1,-1,-1,-1,-1,-1,-1,-1,-1,-1,-1,-1,-1,-1,-1,-1,-1,-1,-1,-1,-1,-1,-1,-1,-1,-1,-1],"split_conditions":[2.9E1,1.8942265E2,1.3485516E2,1.5E1,3E0,4.3E1,3.1E1,9.816E0,1.9E1,2E0,6E0,3.4E1,-3.5325464E-2,2.129033E2,3.3E1,5E1,5.341E1,1.7E1,2E1,4.7E1,4.7E1,7.224E0,7E0,3E1,3.5E1,4.317E1,-2.5551498E-2,4.7E1,3.8E1,1.364E1,1E0,3E0,3.034E0,5.1E1,4.7E1,4.7E1,2.3E1,2.1200635E2,5.2E1,2.8882781E-2,5.2E1,-3.3578336E-2,-4.4383924E-2,5E0,7.082E0,4.7E1,-3.9754715E-2,5E1,3.9E1,1.3662773E2,1.3557326E2,2.1012868E2,5.2E1,1.3662773E2,4.2E1,-1.8861389E-2,2.4737379E-2,4.747057E-2,1.8640634E-2,-1.8382311E-3,1.1783987E-2,-3.4596443E-3,2.2197766E-3,-1.1735229E-2,1.845185E-2,-2.069802E-4,1.2944619E-2,2.176875E-2,3.415834E-2,-4.7966014E-3,1.3568604E-2,1.4220643E-2,2.0488774E-2,3.4053683E-2,8.833217E-3,5.0565254E-2,1.8408967E-2,1.1412869E-2,3.0953137E-2,-1.6839353E-2,5.0136843E-3,-1.7401388E-2,2.9935837E-3,1.7175082E-3,1.1759663E-2,-2.8471628E-2,-1.3156876E-2,1.3188124E-3,-1.5418637E-2,-8.515396E-3,-2.0328615E-2,7.2629075E-3,1.3386629E-2,2.4823619E-2,9.83286E-4,1.6198097E-2,-1.8947046E-2,1.7101726E-2,-9.829021E-3],"split_indices":[0,4,4,0,0,0,0,5,0,0,0,0,0,4,0,8,2,0,0,8,8,5,0,0,0,2,0,8,0,2,1,8,3,8,8,8,0,4,8,0,8,0,0,8,5,8,0,8,0,4,4,4,8,4,0,0,0,0,0,0,0,0,0,0,0,0,0,0,0,0,0,0,0,0,0,0,0,0,0,0,0,0,0,0,0,0,0,0,0,0,0,0,0,0,0,0,0,0,0],"split_type":[0,0,0,0,0,0,0,0,0,0,0,0,0,0,0,0,0,0,0,0,0,0,0,0,0,0,0,0,0,0,0,0,0,0,0,0,0,0,0,0,0,0,0,0,0,0,0,0,0,0,0,0,0,0,0,0,0,0,0,0,0,0,0,0,0,0,0,0,0,0,0,0,0,0,0,0,0,0,0,0,0,0,0,0,0,0,0,0,0,0,0,0,0,0,0,0,0,0,0],"sum_hessian":[3.636E3,2.22E3,1.416E3,1.194E3,1.026E3,5.31E2,8.85E2,4.04E2,7.9E2,1.55E2,8.71E2,4.49E2,8.2E1,1.09E2,7.76E2,3.34E2,7E1,2.39E2,5.51E2,8.1E1,7.4E1,1.55E2,7.16E2,1.42E2,3.07E2,7.2E1,3.7E1,1.65E2,6.11E2,3.17E2,1.7E1,1.9E1,5.1E1,7.8E1,1.61E2,8.4E1,4.67E2,7.2E1,9E0,6.5E1,9E0,8.4E1,7.1E1,7.9E1,6.37E2,6E1,8.2E1,8.7E1,2.2E2,1E1,6.2E1,1.47E2,1.8E1,2.56E2,3.55E2,1E0,3.16E2,1.3E1,4E0,3E0,1.6E1,7E0,4.4E1,7.6E1,2E0,1.44E2,1.7E1,7.3E1,1.1E1,8.3E1,3.84E2,3.6E1,3.6E1,7E0,2E0,7E0,2E0,4E0,7.5E1,2.37E2,4E2,5.6E1,4E0,8.1E1,6E0,8.3E1,1.37E2,3E0,7E0,4E0,5.8E1,7.7E1,7E1,1.5E1,3E0,3.5E1,2.21E2,1.95E2,1.6E2],"tree_param":{"num_deleted":"0","num_feature":"13","num_nodes":"99","size_leaf_vector":"1"}},{"base_weights":[-2.6381746E-4,5.4168843E-2,-8.558116E-2,1.13671005E-1,-1.4247731E-2,-1.8957092E-1,-2.3043767E-2,1.966709E-1,7.144841E-2,2.2896259E-1,-5.7395127E-2,-1.6539611E-1,-3.1835523E-2,-1.9134046E-1,8.116787E-4,2.3113023E-1,3.3737853E-2,-5.153585E-2,1.0208142E-1,1.7470987E-1,2.8522605E-1,-3.4952694E-1,5.629678E-3,-2.695322E-1,-1.1651019E-1,-1.6826436E-1,-2.3063561E-2,1.98969E-2,-1.6118985E-1,2.2383013E-1,4.0593028E-1,8.733635E-2,1.24742435E-2,-1.7093746E-2,-1.2346155E-1,8.563061E-2,2.26881E-1,1.588077E-1,2.7332488E-1,2.6038244E-2,4.2067116E-1,-3.026005E-2,-4.000717E-2,-1.6928646E-1,5.6753773E-2,-1.4437035E-1,-3.5827126E-2,2.2975586E-2,-1.7152485E-1,-9.788747E-2,-1.7788152E-1,-3.6260195E-2,1.0600016E-1,-1.0084744E-1,-1.9061098E-1,2.0532584E-2,2.6064182E-2,5.0171174E-2,1.7149393E-2,-3.633976E-3,1.0309702E-2,2.4511085E-3,-1.8850708E-3,1.6430823E-2,-2.2066503E-3,-2.3247259E-2,-8.767172E-3,1.2909725E-2,3.778973E-3,2.700199E-2,7.0077454E-4,1.2837052E-2,1.8495277E-2,3.1073976E-2,8.244356E-3,4.6140756E-2,1.7181715E-2,-1.9121598E-2,3.158732E-3,1.2957542E-2,-1.2656531E-2,-1.5691748E-2,2.754097E-3,1.6019397E-3,1.1537361E-2,-1.2418534E-2,-2.6776655E-2,1.2198925E-3,-1.4069474E-2,-7.834168E-3,-1.8330216E-2,7.840742E-3,-2.100934E-2,-3.0483701E-3,1.8664664E-2,-1.1392928E-2,-5.226648E-3,-1.936758E-2,-7.395045E-3],"categories":[],"categories_nodes":[],"categories_segments":[],"categories_sizes":[],"default_left":[0,0,0,0,0,0,0,0,0,0,0,0,0,0,0,0,0,0,0,0,0,0,0,0,0,0,0,0,0,0,0,0,0,0,0,0,0,0,0,0,0,0,0,0,0,0,0,0,0,0,0,0,0,0,0,0,0,0,0,0,0,0,0,0,0,0,0,0,0,0,0,0,0,0,0,0,0,0,0,0,0,0,0,0,0,0,0,0,0,0,0,0,0,0,0,0,0,0,0],"id":12,"left_children":[1,3,5,7,9,11,13,15,17,19,21,23,-1,25,27,29,31,33,35,37,39,41,43,45,47,49,-1,51,53,55,57,59,61,63,65,67,69,71,73,-1,75,-1,-1,77,79,81,-1,83,85,87,89,91,93,95,97,-1,-1,-1,-1,-1,-1,-1,-1,-1,-1,-1,-1,-1,-1,-1,-1,-1,-1,-1,-1,-1,-1,-1,-1,-1,-1,-1,-1,-1,-1,-1,-1,-1,-1,-1,-1,-1,-1,-1,-1,-1,-1,-1,-1],"loss_changes":[1.6895044E1,9.043163E0,9.210736E0,4.1492596E0,1.0863825E1,1.6036396E0,3.557262E0,2.2380257E0,2.9777222E0,4.2634964E-1,1.6185722E1,2.259451E0,0E0,6.093788E-2,2.405563E0,3.3024216E-1,7.982907E-2,3.8929862E-1,1.2781019E0,8.5185766E-2,1.4283562E-1,2.4894905E-1,6.4839263E0,1.5365419E0,2.3674593E0,3.199601E-2,0E0,3.3692188E0,1.2635541E-1,1.6377735E-1,1.834153E-1,4.2730898E-2,2.0068835E-2,1.01049036E-1,1.7859453E-1,1.1596313E0,6.9051886E-1,3.434956E-2,4.5799553E-2,0E0,2.2096276E-2,0E0,0E0,7.284708E-1,7.505523E0,1.3589823E-1,0E0,5.4712743E-2,9.736309E-1,5.3553812E-2,1.9632578E-2,8.428217E0,3.0325975E0,1.247564E-2,4.984975E-3,0E0,0E0,0E0,0E0,0E0,0E0,0E0,0E0,0E0,0E0,0E0,0E0,0E0,0E0,0E0,0E0,0E0,0E0,0E0,0E0,0E0,0E0,0E0,0E0,0E0,0E0,0E0,0E0,0E0,0E0,0E0,0E0,0E0,0E0,0E0,0E0,0E0,0E0,0E0,0E0,0E0,0E0,0E0,0E0],"parents":[2147483647,0,0,1,1,2,2,3,3,4,4,5,5,6,6,7,7,8,8,9,9,10,10,11,11,13,13,14,14,15,15,16,16,17,17,18,18,19,19,20,20,21,21,22,22,23,23,24,24,25,25,27,27,28,28,29,29,30,30,31,31,32,32,33,33,34,34,35,35,36,36,37,37,38,38,40,40,43,43,44,44,45,45,47,47,48,48,49,49,50,50,51,51,52,52,53,53,54,54],"right_children":[2,4,6,8,10,12,14,16,18,20,22,24,-1,26,28,30,32,34,36,38,40,42,44,46,48,50,-1,52,54,56,58,60,62,64,66,68,70,72,74,-1,76,-1,-1,78,80,82,-1,84,86,88,90,92,94,96,98,-1,-1,-1,-1,-1,-1,-1,-1,-1,-1,-1,-1,-1,-1,-1,-1,-1,-1,-1,-1,-1,-1,-1,-1,-1,-1,-1,-1,-1,-1,-1,-1,-1,-1,-1,-1,-1,-1,-1,-1,-1,-1,-1,-1],"split_conditions":[2.9E1,1.8865446E2,1.3485516E2,1.5E1,3E0,4.3E1,3.1E1,9.816E0,1.8E1,2E0,6E0,3.4E1,-3.1835523E-2,2.129033E2,9.265E0,5.1E1,5.341E1,1.3275166E2,4.7E1,4.7E1,4.7E1,7.224E0,1.9617139E2,3E1,3.5E1,4.317E1,-2.3063561E-2,3.8E1,9.849E0,1.2980519E2,1E0,4.317E1,3.6E1,2E0,1.3E1,8.252E0,5.2E1,2.1200635E2,5.2E1,2.6038244E-2,5.2E1,-3.026005E-2,-4.000717E-2,4.7E1,2.1E1,4.7E1,-3.5827126E-2,3.51E2,1.3503E1,1.3662773E2,1.3557326E2,3.6E1,1.8865446E2,3.1E1,3.815E0,2.0532584E-2,2.6064182E-2,5.0171174E-2,1.7149393E-2,-3.633976E-3,1.0309702E-2,2.4511085E-3,-1.8850708E-3,1.6430823E-2,-2.2066503E-3,-2.3247259E-2,-8.767172E-3,1.2909725E-2,3.778973E-3,2.700199E-2,7.0077454E-4,1.2837052E-2,1.8495277E-2,3.1073976E-2,8.244356E-3,4.6140756E-2,1.7181715E-2,-1.9121598E-2,3.158732E-3,1.2957542E-2,-1.2656531E-2,-1.5691748E-2,2.754097E-3,1.6019397E-3,1.1537361E-2,-1.2418534E-2,-2.6776655E-2,1.2198925E-3,-1.4069474E-2,-7.834168E-3,-1.8330216E-2,7.840742E-3,-2.100934E-2,-3.0483701E-3,1.8664664E-2,-1.1392928E-2,-5.226648E-3,-1.936758E-2,-7.395045E-3],"split_indices":[0,4,4,0,0,0,0,5,0,0,0,0,0,4,5,8,2,4,8,8,8,5,4,0,0,2,0,0,5,4,1,2,8,8,8,5,8,4,8,0,8,0,0,8,0,8,0,12,5,4,4,0,4,8,3,0,0,0,0,0,0,0,0,0,0,0,0,0,0,0,0,0,0,0,0,0,0,0,0,0,0,0,0,0,0,0,0,0,0,0,0,0,0,0,0,0,0,0,0],"split_type":[0,0,0,0,0,0,0,0,0,0,0,0,0,0,0,0,0,0,0,0,0,0,0,0,0,0,0,0,0,0,0,0,0,0,0,0,0,0,0,0,0,0,0,0,0,0,0,0,0,0,0,0,0,0,0,0,0,0,0,0,0,0,0,0,0,0,0,0,0,0,0,0,0,0,0,0,0,0,0,0,0,0,0,0,0,0,0,0,0,0,0,0,0,0,0,0,0,0,0],"sum_hessian":[3.636E3,2.22E3,1.416E3,1.187E3,1.033E3,5.31E2,8.85E2,3.99E2,7.88E2,1.55E2,8.78E2,4.49E2,8.2E1,1.09E2,7.76E2,3.29E2,7E1,1.57E2,6.31E2,8.1E1,7.4E1,1.55E2,7.23E2,1.42E2,3.07E2,7.2E1,3.7E1,6.95E2,8.1E1,3.18E2,1.1E1,1.9E1,5.1E1,1.07E2,5E1,5.59E2,7.2E1,7.2E1,9E0,6.5E1,9E0,8.4E1,7.1E1,1.63E2,5.6E2,6E1,8.2E1,8.7E1,2.2E2,1E1,6.2E1,4.21E2,2.74E2,2.8E1,5.3E1,2.16E2,1.02E2,7E0,4E0,2E0,1.7E1,3.7E1,1.4E1,2E0,1.05E2,1.1E1,3.9E1,2.92E2,2.67E2,6E1,1.2E1,3.6E1,3.6E1,7E0,2E0,7E0,2E0,1.47E2,1.6E1,4.01E2,1.59E2,5.6E1,4E0,8.2E1,5E0,1.49E2,7.1E1,3E0,7E0,4E0,5.8E1,2.54E2,1.67E2,1.02E2,1.72E2,2.1E1,7E0,5.1E1,2E0],"tree_param":{"num_deleted":"0","num_feature":"13","num_nodes":"99","size_leaf_vector":"1"}},{"base_weights":[-2.3418643E-4,4.8851732E-2,-7.717109E-2,1.021835E-1,-1.3251787E-2,-1.8730849E-1,-2.9158685E-2,1.773559E-1,6.356529E-2,-1.6998217E-1,4.984332E-2,-2.4922833E-1,-1.2246059E-1,-1.5888192E-1,-3.8995075E-3,2.0795834E-1,3.0466093E-2,-2.2491185E-2,1.0086599E-1,-8.047861E-2,-2.154687E-1,-1.6312142E-1,8.73053E-2,-3.3174768E-2,-2.1146347E-1,-3.6305167E-2,-2.1859162E-1,-7.535271E-2,-1.6952771E-1,9.6477516E-2,-2.9025732E-2,1.9423331E-1,3.016395E-1,1.8446665E-2,1.1121697E-1,-8.7776646E-2,9.484385E-3,2.0130545E-1,8.240826E-2,-2.0527832E-1,-6.1345186E-2,-2.4661453E-1,-1.2538592E-2,-1.7409374E-1,5.608098E-2,1.5637983E-1,-1.13988206E-1,-1.2029499E-1,-2.869032E-1,-2.2827959E-1,2.0827109E-2,-1.720473E-1,-2.61695E-2,-8.970346E-2,9.86557E-3,-1.5392512E-1,-2.0817889E-2,8.4598616E-2,1.8393014E-1,-1.15953825E-1,2.59363E-2,-3.7456322E-3,1.9754676E-2,5.6662085E-3,3.0634737E-2,-4.1157342E-3,2.3185199E-3,6.0700825E-3,1.9201566E-2,-1.0645107E-2,5.172205E-3,-2.965204E-4,1.0924583E-2,2.7816535E-3,2.0731337E-2,-5.092438E-3,1.1128497E-2,-2.2048473E-3,-2.1871012E-2,-1.8288964E-2,-4.0028E-3,1.1046648E-2,-2.5373325E-2,1.9996276E-2,-1.9587053E-2,-2.08014E-2,-7.8026378E-3,1.605363E-2,-1.0188643E-2,1.7994747E-3,2.9528383E-2,-1.3570428E-2,6.486665E-3,-7.7270726E-3,-1.3681977E-2,-3.0594444E-2,-2.3857417E-2,-1.363637E-2,-2.6891956E-2,1.3895825E-3,9.9046845E-3,-1.2006597E-2,-1.8667076E-2,-5.0277817E-3,-1.1380594E-2,-1.5760912E-2,-8.955575E-3,6.820404E-3,1.337094E-2,2.1761341E-2,3.2145978E-4,-1.6895095E-2,8.176196E-3,1.9717481E-2,-1.9878754E-3],"categories":[],"categories_nodes":[],"categories_segments":[],"categories_sizes":[],"default_left":[0,0,0,0,0,0,0,0,0,0,0,0,0,0,0,0,0,0,0,0,0,0,0,0,0,0,0,0,0,0,0,0,0,0,0,0,0,0,0,0,0,0,0,0,0,0,0,0,0,0,0,0,0,0,0,0,0,0,0,0,0,0,0,0,0,0,0,0,0,0,0,0,0,0,0,0,0,0,0,0,0,0,0,0,0,0,0,0,0,0,0,0,0,0,0,0,0,0,0,0,0,0,0,0,0,0,0,0,0,0,0,0,0,0,0],"id":13,"left_children":[1,3,5,7,9,11,13,15,17,19,21,23,25,27,29,31,33,35,37,39,41,43,45,-1,47,49,51,53,55,57,59,61,63,65,67,69,71,73,75,77,79,81,83,85,87,89,91,93,95,97,99,101,-1,103,-1,105,-1,107,109,111,113,-1,-1,-1,-1,-1,-1,-1,-1,-1,-1,-1,-1,-1,-1,-1,-1,-1,-1,-1,-1,-1,-1,-1,-1,-1,-1,-1,-1,-1,-1,-1,-1,-1,-1,-1,-1,-1,-1,-1,-1,-1,-1,-1,-1,-1,-1,-1,-1,-1,-1,-1,-1,-1,-1],"loss_changes":[1.3738967E1,7.3575068E0,7.4875803E0,3.457839E0,1.0164392E1,1.6960888E0,3.2367625E0,1.8142157E0,2.541352E0,1.1836662E0,5.8621755E0,6.123247E-1,1.7478924E0,1.3039255E-1,2.0910954E0,3.7214756E-1,6.685956E-2,5.018421E-1,1.0067558E0,2.2857964E-1,1.2293901E0,2.7433062E-1,8.69408E0,0E0,1.0177784E0,1.2441311E0,1.5559816E-1,5.8792762E-2,5.358982E-2,1.5688741E-1,3.1706524E0,2.338686E-1,2.9928207E-2,1.8747674E-2,2.5079228E-2,2.113055E-1,2.0152615E-1,8.282924E-2,1.807564E0,2.7172089E-2,2.23277E-1,4.5762062E-1,1.0910405E0,3.259256E-1,1.1535968E-1,8.933028E0,6.3024664E-1,3.99065E-2,3.3898354E-3,6.045103E-2,4.6334025E-2,1.635456E-2,0E0,1.2332931E-2,0E0,1.0784388E-2,0E0,1.1004269E-1,1.1495507E-1,2.7067547E0,3.1969573E0,0E0,0E0,0E0,0E0,0E0,0E0,0E0,0E0,0E0,0E0,0E0,0E0,0E0,0E0,0E0,0E0,0E0,0E0,0E0,0E0,0E0,0E0,0E0,0E0,0E0,0E0,0E0,0E0,0E0,0E0,0E0,0E0,0E0,0E0,0E0,0E0,0E0,0E0,0E0,0E0,0E0,0E0,0E0,0E0,0E0,0E0,0E0,0E0,0E0,0E0,0E0,0E0,0E0,0E0],"parents":[2147483647,0,0,1,1,2,2,3,3,4,4,5,5,6,6,7,7,8,8,9,9,10,10,11,11,12,12,13,13,14,14,15,15,16,16,17,17,18,18,19,19,20,20,21,21,22,22,24,24,25,25,26,26,27,27,28,28,29,29,30,30,31,31,32,32,33,33,34,34,35,35,36,36,37,37,38,38,39,39,40,40,41,41,42,42,43,43,44,44,45,45,46,46,47,47,48,48,49,49,50,50,51,51,53,53,55,55,57,57,58,58,59,59,60,60],"right_children":[2,4,6,8,10,12,14,16,18,20,22,24,26,28,30,32,34,36,38,40,42,44,46,-1,48,50,52,54,56,58,60,62,64,66,68,70,72,74,76,78,80,82,84,86,88,90,92,94,96,98,100,102,-1,104,-1,106,-1,108,110,112,114,-1,-1,-1,-1,-1,-1,-1,-1,-1,-1,-1,-1,-1,-1,-1,-1,-1,-1,-1,-1,-1,-1,-1,-1,-1,-1,-1,-1,-1,-1,-1,-1,-1,-1,-1,-1,-1,-1,-1,-1,-1,-1,-1,-1,-1,-1,-1,-1,-1,-1,-1,-1,-1,-1],"split_conditions":[2.9E1,1.8942265E2,1.3206444E2,1.5E1,6.855E0,9.521E0,3.1E1,9.816E0,1.9E1,6.339E0,2.0283803E2,3.4E1,3.5E1,1.3275645E2,3.3E1,4.7E1,4.7E1,1.7E1,2E1,6E0,4.5E1,5.1E1,2.1E1,-3.3174768E-2,4.3E1,3.4E1,1.3975E1,3.138E0,2.129033E2,4.7E1,3.8E1,2.816E1,2.728E0,4E0,1E0,4.7E1,4.7E1,4E0,2.3E1,3.119E0,6.078E0,2E0,6.56E0,5.436E1,1E0,4E0,4.7E1,1.06E2,1.290357E2,3E1,5E1,3.058E0,-2.61695E-2,1.3256677E2,9.86557E-3,3.906E0,-2.0817889E-2,2.118613E2,5.2E1,8.745E0,4E1,-3.7456322E-3,1.9754676E-2,5.6662085E-3,3.0634737E-2,-4.1157342E-3,2.3185199E-3,6.0700825E-3,1.9201566E-2,-1.0645107E-2,5.172205E-3,-2.965204E-4,1.0924583E-2,2.7816535E-3,2.0731337E-2,-5.092438E-3,1.1128497E-2,-2.2048473E-3,-2.1871012E-2,-1.8288964E-2,-4.0028E-3,1.1046648E-2,-2.5373325E-2,1.9996276E-2,-1.9587053E-2,-2.08014E-2,-7.8026378E-3,1.605363E-2,-1.0188643E-2,1.7994747E-3,2.9528383E-2,-1.3570428E-2,6.486665E-3,-7.7270726E-3,-1.3681977E-2,-3.0594444E-2,-2.3857417E-2,-1.363637E-2,-2.6891956E-2,1.3895825E-3,9.9046845E-3,-1.2006597E-2,-1.8667076E-2,-5.0277817E-3,-1.1380594E-2,-1.5760912E-2,-8.955575E-3,6.820404E-3,1.337094E-2,2.1761341E-2,3.2145978E-4,-1.6895095E-2,8.176196E-3,1.9717481E-2,-1.9878754E-3],"split_indices":[0,4,4,0,5,5,0,5,0,5,4,0,0,4,0,8,8,0,0,0,8,8,0,0,0,0,5,3,4,8,0,2,3,8,1,8,8,8,0,3,5,8,5,2,1,0,8,12,4,0,8,3,0,4,0,3,0,4,8,5,0,0,0,0,0,0,0,0,0,0,0,0,0,0,0,0,0,0,0,0,0,0,0,0,0,0,0,0,0,0,0,0,0,0,0,0,0,0,0,0,0,0,0,0,0,0,0,0,0,0,0,0,0,0,0],"split_type":[0,0,0,0,0,0,0,0,0,0,0,0,0,0,0,0,0,0,0,0,0,0,0,0,0,0,0,0,0,0,0,0,0,0,0,0,0,0,0,0,0,0,0,0,0,0,0,0,0,0,0,0,0,0,0,0,0,0,0,0,0,0,0,0,0,0,0,0,0,0,0,0,0,0,0,0,0,0,0,0,0,0,0,0,0,0,0,0,0,0,0,0,0,0,0,0,0,0,0,0,0,0,0,0,0,0,0,0,0,0,0,0,0,0,0],"sum_hessian":[3.636E3,2.22E3,1.416E3,1.194E3,1.026E3,4.29E2,9.87E2,4.04E2,7.9E2,2.94E2,7.32E2,2.18E2,2.11E2,1.6E2,8.27E2,3.34E2,7E1,2.39E2,5.51E2,1E2,1.94E2,1.09E2,6.23E2,6.6E1,1.52E2,1.12E2,9.9E1,1.9E1,1.41E2,1.65E2,6.62E2,2.94E2,4E1,6.2E1,8E0,7.8E1,1.61E2,8.4E1,4.67E2,1.2E1,8.8E1,1.68E2,2.6E1,1.04E2,5E0,4.64E2,1.59E2,7E1,8.2E1,2.5E1,8.7E1,5E1,4.9E1,1.8E1,1E0,1.04E2,3.7E1,1.47E2,1.8E1,2.56E2,4.06E2,4E0,2.9E2,1E0,3.9E1,4E0,5.8E1,6E0,2E0,6.9E1,9E0,1.44E2,1.7E1,3E0,8.1E1,8.3E1,3.84E2,1E0,1.1E1,1.2E1,7.6E1,3E0,1.65E2,1.2E1,1.4E1,7.6E1,2.8E1,3E0,2E0,2.33E2,2.31E2,1.42E2,1.7E1,2.1E1,4.9E1,5.5E1,2.7E1,9E0,1.6E1,8.1E1,6E0,1.3E1,3.7E1,8E0,1E1,9.7E1,7E0,1.12E2,3.5E1,1.5E1,3E0,2.02E2,5.4E1,8.5E1,3.21E2],"tree_param":{"num_deleted":"0","num_feature":"13","num_nodes":"115","size_leaf_vector":"1"}},{"base_weights":[-2.5037216E-4,4.3989908E-2,-6.959223E-2,7.1309306E-2,-5.4723248E-2,-1.5470868E-1,-1.8405376E-2,2.0150913E-1,5.7082884E-2,2.1372347E-1,-9.8577835E-2,-1.3515314E-1,-2.5886878E-1,-1.5551351E-1,1.0287298E-3,1.3179839E-1,2.2535981E-1,-2.6133586E-2,6.536483E-2,1.874859E-1,3.1030655E-2,-3.1586513E-1,-1.4231488E-2,-2.1949226E-1,-9.555689E-2,-2.7589595E-2,-2.155691E-1,-8.181938E-2,-1.628753E-1,1.80712E-2,-1.4363699E-1,4.266143E-2,1.3702512E-1,2.3011848E-1,-1.847372E-2,5.0144397E-2,1.8455103E-1,1.573934E-2,2.1615444E-2,-2.2497153E-1,-3.5726237E-1,-1.19026296E-1,1.1647721E-1,-1.1817132E-1,-2.9131258E-2,1.8872803E-2,-1.4068927E-1,-7.669481E-2,-2.2330193E-2,2.3105145E-2,-1.1936146E-2,-9.4825916E-2,-1.6945583E-1,-2.9319372E-2,9.072848E-2,-8.9416996E-2,-1.7009518E-1,5.2532833E-3,6.523609E-4,1.6320039E-2,1.0462145E-2,1.580303E-2,2.5322378E-2,-4.266485E-3,7.853634E-3,-3.444147E-3,2.1179324E-2,-1.6102389E-2,-2.5075212E-2,-3.6900654E-2,-2.4050131E-2,7.2207017E-4,-2.5641019E-2,1.6773889E-2,-7.490951E-3,-1.2926623E-2,3.194504E-3,7.4051315E-4,6.0128816E-3,-2.0935534E-2,-9.787305E-3,-4.4727325E-4,-1.10569475E-2,-3.8069726E-3,5.6186677E-3,-5.426407E-5,-1.1571746E-2,-1.445193E-2,-1.8601594E-2,6.5069906E-3,-1.7241431E-2,5.3932643E-3,3.335138E-2,-1.0115741E-2,-4.595375E-3,-1.7273178E-2,-6.7695617E-3],"categories":[],"categories_nodes":[],"categories_segments":[],"categories_sizes":[],"default_left":[0,0,0,0,0,0,0,0,0,0,0,0,0,0,0,0,0,0,0,0,0,0,0,0,0,0,0,0,0,0,0,0,0,0,0,0,0,0,0,0,0,0,0,0,0,0,0,0,0,0,0,0,0,0,0,0,0,0,0,0,0,0,0,0,0,0,0,0,0,0,0,0,0,0,0,0,0,0,0,0,0,0,0,0,0,0,0,0,0,0,0,0,0,0,0,0,0],"id":14,"left_children":[1,3,5,7,9,11,13,15,17,19,21,23,25,27,29,31,33,-1,35,37,-1,39,41,43,45,-1,47,49,51,53,55,57,59,61,-1,63,65,-1,-1,67,69,71,73,75,-1,77,79,81,-1,83,-1,85,87,89,91,93,95,-1,-1,-1,-1,-1,-1,-1,-1,-1,-1,-1,-1,-1,-1,-1,-1,-1,-1,-1,-1,-1,-1,-1,-1,-1,-1,-1,-1,-1,-1,-1,-1,-1,-1,-1,-1,-1,-1,-1,-1],"loss_changes":[1.1160297E1,5.993459E0,6.1707997E0,3.21146E0,5.695471E0,1.0486479E0,2.3609726E0,2.5461102E-1,4.1573734E0,1.14141226E-1,7.601372E0,1.4818068E0,1.718998E-3,4.6350956E-2,1.9182589E0,1.5585542E-2,2.8840303E-1,0E0,2.7680812E0,1.4290214E-2,0E0,3.561039E-1,4.123142E0,1.0061717E0,1.5933163E0,0E0,1.2942791E-2,5.0026894E-2,2.8263569E-2,2.399176E0,1.0242486E-1,1.0842201E-3,1.9397259E-2,1.6818523E-1,0E0,3.5843623E0,1.0393844E0,0E0,0E0,2.391851E-2,1.8212318E-2,2.8983498E0,1.327213E0,1.0572666E-1,0E0,4.1188456E-2,6.2925434E-1,6.844949E-3,0E0,1.0234045E-2,0E0,2.1604165E-2,9.869814E-3,5.7110157E0,2.438722E0,1.0149464E-2,2.8859377E-3,0E0,0E0,0E0,0E0,0E0,0E0,0E0,0E0,0E0,0E0,0E0,0E0,0E0,0E0,0E0,0E0,0E0,0E0,0E0,0E0,0E0,0E0,0E0,0E0,0E0,0E0,0E0,0E0,0E0,0E0,0E0,0E0,0E0,0E0,0E0,0E0,0E0,0E0,0E0,0E0],"parents":[2147483647,0,0,1,1,2,2,3,3,4,4,5,5,6,6,7,7,8,8,9,9,10,10,11,11,12,12,13,13,14,14,15,15,16,16,18,18,19,19,21,21,22,22,23,23,24,24,26,26,27,27,28,28,29,29,30,30,31,31,32,32,33,33,35,35,36,36,39,39,40,40,41,41,42,42,43,43,45,45,46,46,47,47,49,49,51,51,52,52,53,53,54,54,55,55,56,56],"right_children":[2,4,6,8,10,12,14,16,18,20,22,24,26,28,30,32,34,-1,36,38,-1,40,42,44,46,-1,48,50,52,54,56,58,60,62,-1,64,66,-1,-1,68,70,72,74,76,-1,78,80,82,-1,84,-1,86,88,90,92,94,96,-1,-1,-1,-1,-1,-1,-1,-1,-1,-1,-1,-1,-1,-1,-1,-1,-1,-1,-1,-1,-1,-1,-1,-1,-1,-1,-1,-1,-1,-1,-1,-1,-1,-1,-1,-1,-1,-1,-1,-1],"split_conditions":[2.9E1,2.1362119E2,1.3485516E2,5E0,3E0,4.3E1,3.1E1,2E0,6E0,4.4E1,6E0,3.4E1,1.290357E2,4.317E1,9.265E0,4E0,2.1303987E2,-2.6133586E-2,4.7E1,2E0,3.1030655E-2,6.842E0,6.566E0,3E1,3.5E1,-2.7589595E-2,2.506E1,1.3662773E2,1.362441E2,3.8E1,9.849E0,2.989E0,6.46E1,1.266072E2,-1.847372E-2,4.142E1,2.212E1,1.573934E-2,2.1615444E-2,6.216E1,4.7E1,9E0,1.2E1,4.7E1,-2.9131258E-2,4.4E1,3.9E1,3.193E0,-2.2330193E-2,3.951E1,-1.1936146E-2,3.82E0,2.891E0,3.6E1,4.7E1,3.1E1,3.815E0,5.2532833E-3,6.523609E-4,1.6320039E-2,1.0462145E-2,1.580303E-2,2.5322378E-2,-4.266485E-3,7.853634E-3,-3.444147E-3,2.1179324E-2,-1.6102389E-2,-2.5075212E-2,-3.6900654E-2,-2.4050131E-2,7.2207017E-4,-2.5641019E-2,1.6773889E-2,-7.490951E-3,-1.2926623E-2,3.194504E-3,7.4051315E-4,6.0128816E-3,-2.0935534E-2,-9.787305E-3,-4.4727325E-4,-1.10569475E-2,-3.8069726E-3,5.6186677E-3,-5.426407E-5,-1.1571746E-2,-1.445193E-2,-1.8601594E-2,6.5069906E-3,-1.7241431E-2,5.3932643E-3,3.335138E-2,-1.0115741E-2,-4.595375E-3,-1.7273178E-2,-6.7695617E-3],"split_indices":[0,4,4,0,0,0,0,0,0,8,0,0,4,2,5,8,4,0,8,0,0,5,5,0,0,0,2,4,4,0,5,3,2,4,0,2,2,0,0,2,8,0,0,8,0,8,0,3,0,2,0,3,3,0,8,8,3,0,0,0,0,0,0,0,0,0,0,0,0,0,0,0,0,0,0,0,0,0,0,0,0,0,0,0,0,0,0,0,0,0,0,0,0,0,0,0,0],"split_type":[0,0,0,0,0,0,0,0,0,0,0,0,0,0,0,0,0,0,0,0,0,0,0,0,0,0,0,0,0,0,0,0,0,0,0,0,0,0,0,0,0,0,0,0,0,0,0,0,0,0,0,0,0,0,0,0,0,0,0,0,0,0,0,0,0,0,0,0,0,0,0,0,0,0,0,0,0,0,0,0,0,0,0,0,0,0,0,0,0,0,0,0,0,0,0,0,0],"sum_hessian":[3.636E3,2.22E3,1.416E3,1.739E3,4.81E2,5.31E2,8.85E2,1.7E2,1.569E3,6.7E1,4.14E2,4.49E2,8.2E1,1.09E2,7.76E2,4.5E1,1.25E2,3.9E1,1.53E3,5.5E1,1.2E1,1.15E2,2.99E2,1.42E2,3.07E2,5.5E1,2.7E1,1.1E1,9.8E1,6.95E2,8.1E1,3E0,4.2E1,1.24E2,1E0,1.358E3,1.72E2,3E1,2.5E1,3.8E1,7.7E1,1.66E2,1.33E2,6E1,8.2E1,8.7E1,2.2E2,2E0,2.5E1,3E0,8E0,1E1,8.8E1,4.21E2,2.74E2,2.8E1,5.3E1,2E0,1E0,2.1E1,2.1E1,3.2E1,9.2E1,3.18E2,1.04E3,1.9E1,1.53E2,1.3E1,2.5E1,6.8E1,9E0,8.7E1,7.9E1,1.05E2,2.8E1,5.6E1,4E0,6.9E1,1.8E1,8.3E1,1.37E2,1E0,1E0,1E0,2E0,2E0,8E0,3.9E1,4.9E1,2.54E2,1.67E2,2.39E2,3.5E1,2.1E1,7E0,5.1E1,2E0],"tree_param":{"num_deleted":"0","num_feature":"13","num_nodes":"97","size_leaf_vector":"1"}},{"base_weights":[-2.77101E-4,3.9591555E-2,-6.276687E-2,8.407805E-2,-1.221074E-2,-1.3947132E-1,-1.663873E-2,1.488794E-1,5.079281E-2,1.8576959E-1,-4.7615238E-2,-1.2177741E-1,-2.3372179E-2,-1.4046043E-1,9.121398E-4,1.760302E-1,1.867657E-2,-4.9855046E-2,7.619291E-2,1.6753837E-1,3.0840844E-1,-2.7476722E-1,1.8733648E-3,-1.9781482E-1,-8.6078934E-2,-7.448117E-2,-1.4703913E-1,1.6304465E-2,-1.2974603E-1,1.6831289E-1,3.0259E-1,8.609623E-3,9.6877575E-2,-1.8151222E-2,-1.1351841E-1,5.2386906E-2,1.460932E-1,1.2752302E-1,2.0925932E-2,3.5058212E-1,1.20205685E-1,-2.2700825E-1,-3.2733315E-1,-1.4750923E-1,4.367585E-2,-1.0651335E-1,-2.6253259E-2,1.7062621E-2,-1.2675938E-1,2.1247387E-2,-1.0875151E-2,-5.3872108E-3,-1.5039487E-1,-2.641281E-2,8.179678E-2,-8.098257E-2,-1.5353113E-1,1.5029715E-2,2.1833021E-2,3.475002E-2,1.16323475E-2,4.1631493E-3,-6.240209E-5,1.2449818E-2,3.813243E-3,1.5639655E-2,-2.2920014E-3,-1.2691992E-2,8.238005E-3,8.354074E-3,-1.0170053E-2,7.646368E-3,2.113937E-2,1.0259672E-2,1.4900275E-2,2.8306008E-3,3.7157997E-2,1.3864279E-2,2.3228645E-3,-1.9173564E-2,-2.4468726E-2,-3.3604003E-2,-1.9847788E-2,-1.7460957E-2,-6.6576353E-3,-1.0560769E-2,1.0721889E-2,-1.1656597E-2,2.9389192E-3,1.1404165E-3,9.249417E-3,-9.552007E-3,-2.0533247E-2,-3.6166192E-3,5.2440646E-3,-1.8550081E-2,-1.3917759E-2,5.858851E-3,-1.55275455E-2,-3.382365E-3,1.5016156E-2,-9.150159E-3,-4.1932464E-3,-1.5579102E-2,-6.3182833E-3],"categories":[],"categories_nodes":[],"categories_segments":[],"categories_sizes":[],"default_left":[0,0,0,0,0,0,0,0,0,0,0,0,0,0,0,0,0,0,0,0,0,0,0,0,0,0,0,0,0,0,0,0,0,0,0,0,0,0,0,0,0,0,0,0,0,0,0,0,0,0,0,0,0,0,0,0,0,0,0,0,0,0,0,0,0,0,0,0,0,0,0,0,0,0,0,0,0,0,0,0,0,0,0,0,0,0,0,0,0,0,0,0,0,0,0,0,0,0,0,0,0,0,0,0,0],"id":15,"left_children":[1,3,5,7,9,11,13,15,17,19,21,23,-1,25,27,29,31,33,35,37,39,41,43,45,47,49,51,53,55,57,59,61,63,65,67,69,71,73,-1,75,77,79,81,83,85,87,-1,89,91,93,-1,-1,95,97,99,101,103,-1,-1,-1,-1,-1,-1,-1,-1,-1,-1,-1,-1,-1,-1,-1,-1,-1,-1,-1,-1,-1,-1,-1,-1,-1,-1,-1,-1,-1,-1,-1,-1,-1,-1,-1,-1,-1,-1,-1,-1,-1,-1,-1,-1,-1,-1,-1,-1],"loss_changes":[9.063645E0,5.1193266E0,5.011357E0,2.5699673E0,7.207493E0,8.587322E-1,1.9255643E0,1.4284334E0,2.0259635E0,2.9712296E-1,9.803046E0,1.2044611E0,0E0,3.6794662E-2,1.5647659E0,2.7626514E-1,5.5060342E-2,3.20879E-1,1.0440242E0,2.0370245E-1,1.0866475E-1,3.173294E-1,4.483795E0,8.1699944E-1,1.294483E0,4.167848E-2,2.2849798E-2,1.9493271E0,8.267379E-2,2.537346E-1,1.10152364E-1,1.954036E-2,8.23319E-3,9.34819E-2,1.4959848E-1,2.2790918E0,7.1133065E-1,2.379775E-2,0E0,9.0988636E-2,5.719386E-3,6.0892105E-3,1.4082909E-2,3.3272433E-1,5.33293E0,8.676249E-2,0E0,3.650588E-2,5.228467E-1,9.060244E-3,0E0,0E0,1.1592865E-2,4.631472E0,2.1787794E0,8.075386E-3,1.1823177E-3,0E0,0E0,0E0,0E0,0E0,0E0,0E0,0E0,0E0,0E0,0E0,0E0,0E0,0E0,0E0,0E0,0E0,0E0,0E0,0E0,0E0,0E0,0E0,0E0,0E0,0E0,0E0,0E0,0E0,0E0,0E0,0E0,0E0,0E0,0E0,0E0,0E0,0E0,0E0,0E0,0E0,0E0,0E0,0E0,0E0,0E0,0E0,0E0],"parents":[2147483647,0,0,1,1,2,2,3,3,4,4,5,5,6,6,7,7,8,8,9,9,10,10,11,11,13,13,14,14,15,15,16,16,17,17,18,18,19,19,20,20,21,21,22,22,23,23,24,24,25,25,26,26,27,27,28,28,29,29,30,30,31,31,32,32,33,33,34,34,35,35,36,36,37,37,39,39,40,40,41,41,42,42,43,43,44,44,45,45,47,47,48,48,49,49,52,52,53,53,54,54,55,55,56,56],"right_children":[2,4,6,8,10,12,14,16,18,20,22,24,-1,26,28,30,32,34,36,38,40,42,44,46,48,50,52,54,56,58,60,62,64,66,68,70,72,74,-1,76,78,80,82,84,86,88,-1,90,92,94,-1,-1,96,98,100,102,104,-1,-1,-1,-1,-1,-1,-1,-1,-1,-1,-1,-1,-1,-1,-1,-1,-1,-1,-1,-1,-1,-1,-1,-1,-1,-1,-1,-1,-1,-1,-1,-1,-1,-1,-1,-1,-1,-1,-1,-1,-1,-1,-1,-1,-1,-1,-1,-1],"split_conditions":[2.9E1,1.8942265E2,1.3485516E2,1.5E1,3E0,4.3E1,3.1E1,9.816E0,1.8E1,4.7E1,6E0,3.4E1,-2.3372179E-2,4.317E1,9.265E0,5E1,1.2980519E2,1.3275166E2,2.7E1,2E0,5.2E1,7.224E0,1.9617139E2,3E1,3.5E1,1.3662773E2,1.3557326E2,3.8E1,9.849E0,1.4E1,1E0,5.341E1,3.623E0,2E0,1E0,2.5E1,1.3015752E2,2.1200635E2,2.0925932E-2,2.713E0,4.755E1,6.496E0,4.7E1,5.436E1,6.566E0,4.7E1,-2.6253259E-2,3.51E2,1.3736E1,3.951E1,-1.0875151E-2,-5.3872108E-3,7.856E0,3.6E1,1.8865446E2,3.1E1,3.815E0,1.5029715E-2,2.1833021E-2,3.475002E-2,1.16323475E-2,4.1631493E-3,-6.240209E-5,1.2449818E-2,3.813243E-3,1.5639655E-2,-2.2920014E-3,-1.2691992E-2,8.238005E-3,8.354074E-3,-1.0170053E-2,7.646368E-3,2.113937E-2,1.0259672E-2,1.4900275E-2,2.8306008E-3,3.7157997E-2,1.3864279E-2,2.3228645E-3,-1.9173564E-2,-2.4468726E-2,-3.3604003E-2,-1.9847788E-2,-1.7460957E-2,-6.6576353E-3,-1.0560769E-2,1.0721889E-2,-1.1656597E-2,2.9389192E-3,1.1404165E-3,9.249417E-3,-9.552007E-3,-2.0533247E-2,-3.6166192E-3,5.2440646E-3,-1.8550081E-2,-1.3917759E-2,5.858851E-3,-1.55275455E-2,-3.382365E-3,1.5016156E-2,-9.150159E-3,-4.1932464E-3,-1.5579102E-2,-6.3182833E-3],"split_indices":[0,4,4,0,0,0,0,5,0,8,0,0,0,2,5,8,4,4,0,0,8,5,4,0,0,4,4,0,5,0,1,2,3,8,1,0,4,4,0,3,2,5,8,2,5,8,0,12,5,2,0,0,5,0,4,8,3,0,0,0,0,0,0,0,0,0,0,0,0,0,0,0,0,0,0,0,0,0,0,0,0,0,0,0,0,0,0,0,0,0,0,0,0,0,0,0,0,0,0,0,0,0,0,0,0],"split_type":[0,0,0,0,0,0,0,0,0,0,0,0,0,0,0,0,0,0,0,0,0,0,0,0,0,0,0,0,0,0,0,0,0,0,0,0,0,0,0,0,0,0,0,0,0,0,0,0,0,0,0,0,0,0,0,0,0,0,0,0,0,0,0,0,0,0,0,0,0,0,0,0,0,0,0,0,0,0,0,0,0,0,0,0,0,0,0,0,0,0,0,0,0,0,0,0,0,0,0,0,0,0,0,0,0],"sum_hessian":[3.636E3,2.22E3,1.416E3,1.194E3,1.026E3,5.31E2,8.85E2,4.04E2,7.9E2,1.55E2,8.71E2,4.49E2,8.2E1,1.09E2,7.76E2,3.34E2,7E1,1.59E2,6.31E2,1.37E2,1.8E1,1.55E2,7.16E2,1.42E2,3.07E2,1.1E1,9.8E1,6.95E2,8.1E1,3.17E2,1.7E1,6.3E1,7E0,1.07E2,5.2E1,4.72E2,1.59E2,7.2E1,6.5E1,1.4E1,4E0,8.4E1,7.1E1,1.56E2,5.6E2,6E1,8.2E1,8.7E1,2.2E2,3E0,8E0,4E0,9.4E1,4.21E2,2.74E2,2.8E1,5.3E1,2.36E2,8.1E1,1.3E1,4E0,1.3E1,5E1,4E0,3E0,2E0,1.05E2,4.9E1,3E0,3.93E2,7.9E1,7.8E1,8.1E1,3.6E1,3.6E1,1E0,1.3E1,3E0,1E0,3.2E1,5.2E1,6.5E1,6E0,1.16E2,4E1,1.67E2,3.93E2,5.6E1,4E0,8.2E1,5E0,1.59E2,6.1E1,1E0,2E0,1.9E1,7.5E1,2.54E2,1.67E2,1.02E2,1.72E2,2.1E1,7E0,5.1E1,2E0],"tree_param":{"num_deleted":"0","num_feature":"13","num_nodes":"105","size_leaf_vector":"1"}},{"base_weights":[-2.5977544E-4,3.5686627E-2,-5.6601834E-2,7.604776E-2,-1.0720256E-2,-1.3905439E-1,-2.1492254E-2,1.3427705E-1,4.6430826E-2,1.6784835E-1,-4.2399414E-2,-1.8593518E-1,-9.016241E-2,-1.16334386E-1,-2.7715783E-3,1.5908194E-1,1.7095499E-2,-2.343185E-2,7.646866E-2,1.5111871E-1,2.8052416E-1,-2.4791314E-1,1.9411092E-3,-2.4451032E-1,-1.5834813E-1,-2.3851005E-2,-1.6220333E-1,-5.420693E-2,-1.2557803E-1,7.479352E-2,-2.2071479E-2,1.5333444E-1,2.9861274E-1,7.812485E-3,8.922267E-2,-7.310217E-2,3.2152364E-4,1.6584921E-1,6.007162E-2,1.1511543E-1,1.8865085E-1,3.181898E-1,1.11422345E-1,-2.0073424E-1,-2.9135668E-1,2.1343206E-1,-2.4293337E-2,-2.4857387E-2,-1.18366005E-2,-9.121674E-2,-2.1063073E-1,-1.7327583E-1,1.5474244E-2,-1.2646794E-1,-1.9540936E-1,-6.491232E-2,9.065581E-3,-1.154614E-1,-1.5949805E-1,6.399328E-2,1.5498517E-1,-1.1428597E-1,9.950625E-3,1.3797668E-2,1.8420143E-2,3.8103294E-2,1.07017895E-2,-6.095958E-3,1.2194056E-3,1.14538E-2,3.5272837E-3,-8.158367E-3,1.6330274E-2,6.22392E-4,-1.8625852E-2,1.5096297E-2,2.4382703E-2,-6.1444785E-3,8.642826E-3,9.261439E-3,1.3450525E-2,2.0803666E-2,1.5845334E-2,2.6890754E-3,3.3707615E-2,1.282444E-2,2.2067071E-3,-2.112214E-2,-1.2545307E-2,-2.385539E-2,-3.1566896E-2,1.9335894E-2,3.34608E-2,-1.241456E-2,3.5579286E-3,-5.2308585E-3,-1.04442015E-2,-2.2584355E-2,-1.7268255E-2,-1.8953413E-2,-9.562159E-3,1.9251291E-3,-9.79592E-3,-1.2699127E-3,-1.2848935E-2,-2.0818481E-2,-1.3118865E-2,-4.209399E-3,-8.390392E-3,-1.1847025E-2,-6.116152E-3,-1.624135E-2,-3.747511E-3,2.5605778E-3,8.160326E-3,1.8562002E-2,-6.3004496E-4,-9.163197E-4,-2.8298069E-2,3.505059E-3,-1.1720104E-2],"categories":[],"categories_nodes":[],"categories_segments":[],"categories_sizes":[],"default_left":[0,0,0,0,0,0,0,0,0,0,0,0,0,0,0,0,0,0,0,0,0,0,0,0,0,0,0,0,0,0,0,0,0,0,0,0,0,0,0,0,0,0,0,0,0,0,0,0,0,0,0,0,0,0,0,0,0,0,0,0,0,0,0,0,0,0,0,0,0,0,0,0,0,0,0,0,0,0,0,0,0,0,0,0,0,0,0,0,0,0,0,0,0,0,0,0,0,0,0,0,0,0,0,0,0,0,0,0,0,0,0,0,0,0,0,0,0,0,0,0,0],"id":16,"left_children":[1,3,5,7,9,11,13,15,17,19,21,23,25,27,29,31,33,35,37,39,41,43,45,47,49,51,53,55,57,59,61,63,65,67,69,71,73,75,77,79,81,83,85,87,89,91,93,-1,-1,95,97,99,101,103,105,107,-1,109,111,113,115,117,119,-1,-1,-1,-1,-1,-1,-1,-1,-1,-1,-1,-1,-1,-1,-1,-1,-1,-1,-1,-1,-1,-1,-1,-1,-1,-1,-1,-1,-1,-1,-1,-1,-1,-1,-1,-1,-1,-1,-1,-1,-1,-1,-1,-1,-1,-1,-1,-1,-1,-1,-1,-1,-1,-1,-1,-1,-1,-1],"loss_changes":[7.3680153E0,4.160825E0,4.099048E0,2.0425582E0,5.8563547E0,9.5279217E-1,1.7663088E0,1.1599507E0,1.6575272E0,2.516713E-1,8.010444E0,3.0870342E-1,9.945526E-1,8.73754E-2,1.2471536E0,2.1885586E-1,4.6841532E-2,2.8082484E-1,7.9903555E-1,1.6475987E-1,8.556366E-2,2.6125526E-1,4.0221887E0,4.9214363E-3,5.0374794E-1,6.490598E-1,9.3949795E-2,4.155335E-2,3.03123E-2,1.3385278E-1,1.9707227E0,1.2580633E-1,1.4871824E-1,2.0028438E-2,6.885983E-3,1.677131E-1,1.7956488E-1,6.1858892E-2,1.504204E0,1.9392133E-2,5.672455E-3,7.345927E-2,4.685715E-3,3.5081387E-2,2.6112556E-2,1.2989068E-1,3.8604956E0,0E0,0E0,2.9013097E-2,8.916616E-3,1.0914564E-2,3.958887E-2,1.0096848E-2,1.3710856E-2,6.0019866E-3,0E0,1.1216044E-2,4.586041E-3,9.795892E-2,9.504768E-2,3.0475955E0,1.5870931E0,0E0,0E0,0E0,0E0,0E0,0E0,0E0,0E0,0E0,0E0,0E0,0E0,0E0,0E0,0E0,0E0,0E0,0E0,0E0,0E0,0E0,0E0,0E0,0E0,0E0,0E0,0E0,0E0,0E0,0E0,0E0,0E0,0E0,0E0,0E0,0E0,0E0,0E0,0E0,0E0,0E0,0E0,0E0,0E0,0E0,0E0,0E0,0E0,0E0,0E0,0E0,0E0,0E0,0E0,0E0,0E0,0E0,0E0],"parents":[2147483647,0,0,1,1,2,2,3,3,4,4,5,5,6,6,7,7,8,8,9,9,10,10,11,11,12,12,13,13,14,14,15,15,16,16,17,17,18,18,19,19,20,20,21,21,22,22,23,23,24,24,25,25,26,26,27,27,28,28,29,29,30,30,31,31,32,32,33,33,34,34,35,35,36,36,37,37,38,38,39,39,40,40,41,41,42,42,43,43,44,44,45,45,46,46,49,49,50,50,51,51,52,52,53,53,54,54,55,55,57,57,58,58,59,59,60,60,61,61,62,62],"right_children":[2,4,6,8,10,12,14,16,18,20,22,24,26,28,30,32,34,36,38,40,42,44,46,48,50,52,54,56,58,60,62,64,66,68,70,72,74,76,78,80,82,84,86,88,90,92,94,-1,-1,96,98,100,102,104,106,108,-1,110,112,114,116,118,120,-1,-1,-1,-1,-1,-1,-1,-1,-1,-1,-1,-1,-1,-1,-1,-1,-1,-1,-1,-1,-1,-1,-1,-1,-1,-1,-1,-1,-1,-1,-1,-1,-1,-1,-1,-1,-1,-1,-1,-1,-1,-1,-1,-1,-1,-1,-1,-1,-1,-1,-1,-1,-1,-1,-1,-1,-1,-1],"split_conditions":[2.9E1,1.8865446E2,1.3186313E2,1.5E1,3E0,9.521E0,3.1E1,9.816E0,1.9E1,4.7E1,6E0,3.4E1,3.5E1,1.3275645E2,3.3E1,5.1E1,1.2980519E2,1.6E1,2E1,2E0,5.2E1,6.842E0,7E0,3.985E0,4.3E1,3.4E1,1.3975E1,3.138E0,2.1469551E2,4.7E1,3.7E1,1.2980519E2,1E0,4E0,3.623E0,5.1E1,5.2E1,4.7E1,2.3E1,2.1200635E2,2.7E1,2.713E0,4.755E1,4.6E1,6.574E1,4.7E1,1E1,-2.4857387E-2,-1.18366005E-2,1.6E1,1.290357E2,1.31637E2,5.2E1,1.26114E2,3.239E0,1.3256677E2,9.065581E-3,3.906E0,2.1935506E2,1.9234186E2,5.2E1,2.1012868E2,9.003E0,1.3797668E-2,1.8420143E-2,3.8103294E-2,1.07017895E-2,-6.095958E-3,1.2194056E-3,1.14538E-2,3.5272837E-3,-8.158367E-3,1.6330274E-2,6.22392E-4,-1.8625852E-2,1.5096297E-2,2.4382703E-2,-6.1444785E-3,8.642826E-3,9.261439E-3,1.3450525E-2,2.0803666E-2,1.5845334E-2,2.6890754E-3,3.3707615E-2,1.282444E-2,2.2067071E-3,-2.112214E-2,-1.2545307E-2,-2.385539E-2,-3.1566896E-2,1.9335894E-2,3.34608E-2,-1.241456E-2,3.5579286E-3,-5.2308585E-3,-1.04442015E-2,-2.2584355E-2,-1.7268255E-2,-1.8953413E-2,-9.562159E-3,1.9251291E-3,-9.79592E-3,-1.2699127E-3,-1.2848935E-2,-2.0818481E-2,-1.3118865E-2,-4.209399E-3,-8.390392E-3,-1.1847025E-2,-6.116152E-3,-1.624135E-2,-3.747511E-3,2.5605778E-3,8.160326E-3,1.8562002E-2,-6.3004496E-4,-9.163197E-4,-2.8298069E-2,3.505059E-3,-1.1720104E-2],"split_indices":[0,4,4,0,0,5,0,5,0,8,0,0,0,4,0,8,4,0,0,0,8,5,0,3,0,0,5,3,4,8,0,4,1,8,3,8,8,8,0,4,8,3,2,8,2,8,0,0,0,8,4,4,8,4,3,4,0,3,4,4,8,4,5,0,0,0,0,0,0,0,0,0,0,0,0,0,0,0,0,0,0,0,0,0,0,0,0,0,0,0,0,0,0,0,0,0,0,0,0,0,0,0,0,0,0,0,0,0,0,0,0,0,0,0,0,0,0,0,0,0,0],"split_type":[0,0,0,0,0,0,0,0,0,0,0,0,0,0,0,0,0,0,0,0,0,0,0,0,0,0,0,0,0,0,0,0,0,0,0,0,0,0,0,0,0,0,0,0,0,0,0,0,0,0,0,0,0,0,0,0,0,0,0,0,0,0,0,0,0,0,0,0,0,0,0,0,0,0,0,0,0,0,0,0,0,0,0,0,0,0,0,0,0,0,0,0,0,0,0,0,0,0,0,0,0,0,0,0,0,0,0,0,0,0,0,0,0,0,0,0,0,0,0,0,0],"sum_hessian":[3.636E3,2.22E3,1.416E3,1.187E3,1.033E3,4.22E2,9.94E2,3.99E2,7.88E2,1.55E2,8.78E2,2.14E2,2.08E2,1.63E2,8.31E2,3.29E2,7E1,2.37E2,5.51E2,1.37E2,1.8E1,1.55E2,7.23E2,6.6E1,1.48E2,1.09E2,9.9E1,2.2E1,1.41E2,1.65E2,6.66E2,3.18E2,1.1E1,6.3E1,7E0,7.6E1,1.61E2,8.4E1,4.67E2,7.2E1,6.5E1,1.4E1,4E0,7.7E1,7.8E1,7.9E1,6.44E2,6.3E1,3E0,6.6E1,8.2E1,2.2E1,8.7E1,5E1,4.9E1,2.1E1,1E0,1.12E2,2.9E1,1.47E2,1.8E1,1.71E2,4.95E2,2.16E2,1.02E2,7E0,4E0,3E0,6E1,4E0,3E0,7.4E1,2E0,1.57E2,4E0,7.3E1,1.1E1,8.3E1,3.84E2,3.6E1,3.6E1,3.6E1,2.9E1,1E0,1.3E1,3E0,1E0,6.6E1,1.1E1,2.8E1,5E1,7E1,9E0,2.41E2,4.03E2,1.8E1,4.8E1,5.5E1,2.7E1,1.7E1,5E0,8.5E1,2E0,1E0,4.9E1,3.9E1,1E1,1.1E1,1E1,1.05E2,7E0,2.8E1,1E0,4.7E1,1E2,1.5E1,3E0,1.06E2,6.5E1,4.14E2,8.1E1],"tree_param":{"num_deleted":"0","num_feature":"13","num_nodes":"121","size_leaf_vector":"1"}},{"base_weights":[-2.442783E-4,3.2202918E-2,-5.110171E-2,6.833546E-2,-9.87166E-3,-1.1443306E-1,-1.301663E-2,1.2124496E-1,4.115887E-2,1.517738E-1,-3.8778566E-2,-1.0023199E-1,-1.900481E-1,-1.1411012E-1,1.3119429E-3,1.4328873E-1,1.5527967E-2,-2.2811651E-2,6.8897575E-2,1.3643712E-1,2.551785E-1,-2.2369307E-1,1.5079665E-3,-1.6123264E-1,-7.158483E-2,-2.0366287E-2,-1.560311E-1,-5.6577682E-2,-1.19931124E-1,1.3908863E-2,-1.0562426E-1,1.3523945E-1,2.3374972E-1,5.4417945E-2,2.716688E-4,-3.6913637E-2,5.5556376E-2,-7.8459926E-2,7.7516705E-2,1.0391511E-1,1.703412E-1,2.8879726E-1,1.0328655E-1,-1.8109255E-1,-2.629228E-1,-1.2830839E-1,3.7835345E-2,-2.1447062E-2,-8.822058E-2,1.3837055E-2,-1.05275065E-1,-4.5766193E-2,-1.6275278E-1,2.8414965E-2,-8.806578E-3,-6.660011E-2,-1.2517506E-1,-2.2785377E-2,7.0167266E-2,-6.202859E-2,-1.2708074E-1,-1.6692353E-2,1.3675754E-2,2.5387326E-2,9.845619E-3,3.0933213E-3,1.4062357E-2,1.1454984E-3,-2.8077508E-3,-4.694899E-3,4.824014E-3,1.0348058E-2,-3.0567716E-3,-1.6257226E-2,1.0556162E-3,6.8552545E-3,2.0827187E-2,8.360355E-3,1.2141815E-2,1.8779546E-2,1.4313622E-2,2.5546073E-3,3.0577619E-2,1.1862636E-2,2.0963668E-3,-1.9222429E-2,-1.2152424E-2,-2.2355938E-2,-2.9067919E-2,-1.8326044E-2,-8.852138E-3,1.0098689E-2,-1.2106939E-2,-9.70325E-3,3.164177E-3,8.375041E-4,8.708875E-3,-7.7606416E-3,-1.6145593E-2,1.607132E-3,-8.472062E-3,-1.654668E-2,-4.745102E-3,-2.8434277E-3,5.6842803E-3,1.3827006E-3,-8.600913E-3,-1.0530734E-2,-1.3856574E-2,4.8316256E-3,-1.3057187E-2,3.709433E-3,2.8870443E-2,-7.1580024E-3,-2.800858E-3,-2.9403686E-3,-1.2836891E-2],"categories":[],"categories_nodes":[],"categories_segments":[],"categories_sizes":[],"default_left":[0,0,0,0,0,0,0,0,0,0,0,0,0,0,0,0,0,0,0,0,0,0,0,0,0,0,0,0,0,0,0,0,0,0,0,0,0,0,0,0,0,0,0,0,0,0,0,0,0,0,0,0,0,0,0,0,0,0,0,0,0,0,0,0,0,0,0,0,0,0,0,0,0,0,0,0,0,0,0,0,0,0,0,0,0,0,0,0,0,0,0,0,0,0,0,0,0,0,0,0,0,0,0,0,0,0,0,